<?xml version="1.0"?>
<opencv_storage>
<my_nn type_id="opencv-ml-ann-mlp">
  <layer_sizes type_id="opencv-matrix">
    <rows>1</rows>
    <cols>3</cols>
    <dt>i</dt>
    <data>
      32 20 10</data></layer_sizes>
  <activation_function>SIGMOID_SYM</activation_function>
  <f_param1>6.6666666666666663e-01</f_param1>
  <f_param2>1.7159000000000000e+00</f_param2>
  <min_val>-9.4999999999999996e-01</min_val>
  <max_val>9.4999999999999996e-01</max_val>
  <min_val1>-9.7999999999999998e-01</min_val1>
  <max_val1>9.7999999999999998e-01</max_val1>
  <training_params>
    <train_method>BACKPROP</train_method>
    <dw_scale>1.0000000000000001e-01</dw_scale>
    <moment_scale>1.0000000000000001e-01</moment_scale>
    <term_criteria><epsilon>9.9999997473787516e-06</epsilon>
      <iterations>1000000</iterations></term_criteria></training_params>
  <input_scale>
    1.3608276348795436e+00 5.4433105395181747e-01 1.6903085094570331e+00
    -8.4515425472851657e-01 5.0000000000000044e+00
    -4.5000000000000044e+00 1.7149858514250886e+00
    1.7149858514250887e-01 1.4744195615489712e+00
    -2.9488391230979427e-01 1.7609018126512477e+00
    8.8045090632562384e-02 1.7888543819998317e+00 4.4721359549995793e-01
    1.5762208124782013e+00 -1.0245435281108308e+00
    1.1470786693528090e+00 -2.2941573387056180e-01
    2.2222222222222223e+00 1.4444444444444446e+00 2.2941573387056171e+00
    1.3764944032233701e+00 1.2674485010489558e+00
    -5.7035182547203012e-01 1.0910894511799618e+00
    1.0910894511799618e-01 1.3968605915391565e+00 3.4921514788478913e-01
    1.6666666666666667e+00 -3.3333333333333337e-01
    1.8181818181818181e+00 -6.3636363636363635e-01
    1.2803687993289599e+00 2.5607375986579201e-01 1.5075567228888183e+00
    6.0302268915552737e-01 1.5762208124782013e+00
    -2.3643312187173018e-01 1.4547859349066159e+00
    -6.5465367070797720e-01 1.0206207261596576e+00
    2.0412414523193154e-01 1.3018891098082386e+00 5.2075564392329543e-01
    1.4142135623730949e+00 7.0710678118654746e-01 1.2500000000000000e+00
    -7.5000000000000000e-01 1.3363062095621219e+00
    -4.0089186286863654e-01 2.9814239699997196e+00
    7.4535599249992990e-01 2.5000000000000000e+00 7.5000000000000000e-01
    1.2909944487358056e+00 -6.4549722436790280e-01
    1.7609018126512477e+00 7.9240581569306145e-01 1.2500000000000000e+00
    -7.5000000000000000e-01 1.8181818181818183e+00
    -1.1818181818181819e+00 1.5762208124782013e+00
    2.3643312187173018e-01</input_scale>
  <output_scale>
    5.2631578947368418e-01 4.9999999999999994e-01 5.2631578947368418e-01
    4.9999999999999994e-01 5.2631578947368418e-01 4.9999999999999994e-01
    5.2631578947368418e-01 4.9999999999999994e-01 5.2631578947368418e-01
    4.9999999999999994e-01 5.2631578947368418e-01 4.9999999999999994e-01
    5.2631578947368418e-01 4.9999999999999994e-01 5.2631578947368418e-01
    4.9999999999999994e-01 5.2631578947368418e-01 4.9999999999999994e-01
    5.2631578947368418e-01 4.9999999999999994e-01</output_scale>
  <inv_output_scale>
    1.8999999999999999e+00 -9.4999999999999996e-01
    1.8999999999999999e+00 -9.4999999999999996e-01
    1.8999999999999999e+00 -9.4999999999999996e-01
    1.8999999999999999e+00 -9.4999999999999996e-01
    1.8999999999999999e+00 -9.4999999999999996e-01
    1.8999999999999999e+00 -9.4999999999999996e-01
    1.8999999999999999e+00 -9.4999999999999996e-01
    1.8999999999999999e+00 -9.4999999999999996e-01
    1.8999999999999999e+00 -9.4999999999999996e-01
    1.8999999999999999e+00 -9.4999999999999996e-01</inv_output_scale>
  <weights>
    <_>
      -2.2549694800300069e-01 -1.3489162329553056e-01
      3.4750899438565568e-02 -9.1819070348802628e-02
      -2.9190717067831381e-02 5.9427218297436094e-02
      -1.3757951420478698e-01 -7.9665123141815217e-02
      -3.6588338808809837e-02 -1.2556119902584348e-01
      -7.2164058163921671e-02 1.3452558574612940e-02
      -1.4973630035958528e-02 -1.6543225505337375e-01
      1.4523241060122219e-01 -2.8425597802882591e-01
      -6.1561245033595564e-02 -3.9615092239301826e-02
      1.7478557591101085e-01 2.2267649179879767e-01
      5.6113026208108729e-01 7.6948224800271348e-03
      -9.5168924497183310e-02 4.5086441360990626e-03
      5.3642781866479326e-02 1.2143099394758269e-01
      6.8655072356133079e-02 -4.6765945555194706e-02
      3.2293575041112840e-02 -1.1122583543956872e-01
      5.0989448536285092e-02 3.5160962914847303e-03
      1.7135855896162854e-02 5.9768017184882068e-02
      -1.7606926551264643e-02 -2.5852012030021265e-01
      -1.3688800698569113e-02 -2.5422060268189939e-02
      -6.6731616130809177e-02 2.2090916922477932e-01
      1.5996980209226072e-01 1.3467458718138809e-02
      -6.5217459507619202e-02 -5.1296262045164229e-03
      1.5883684996075723e-01 -2.1075529736541024e-01
      -1.7009128911925817e-01 -3.9902921016357945e-01
      2.0714247203995281e-01 -9.3636273351404203e-02
      -6.0161749399933420e-02 -1.5201044443507444e-01
      1.1332212037573933e-01 1.7341113584380027e-01
      -2.5069613971226917e-01 -2.3243464923198576e-01
      2.3499939323973687e-01 5.3872652962043618e-02
      7.4463149664246428e-02 3.6243742587436228e-01
      2.5360686311940100e-01 1.0498408959484078e-01
      -1.8503164612832704e-01 1.7780296954173748e-02
      -7.2519802467637576e-02 -1.1662323288198409e-01
      5.8321700380968934e-02 -5.6513826902138256e-02
      9.2809731235347880e-03 5.6242510152880428e-03
      -1.0985534547561920e-01 -1.1265446116591916e-01
      -7.5120015939970322e-02 4.4099337534592456e-02
      -7.0869522719737843e-02 -3.2356175870641590e-01
      -1.6383563647543659e-01 -1.1845471108561619e-01
      1.0909387361143699e-01 1.6917431296248536e-01
      6.0993589044602148e-01 5.7421401262283289e-02
      -1.5892408833784877e-01 -1.1327021925153774e-01
      6.9682653585761006e-02 -7.1760392469763790e-02
      -2.9594970071017593e-02 1.7069575056389101e-03
      -1.0351046215598740e-01 -2.6634007384521097e-01
      -1.0685754000987235e-01 -4.1880505486306722e-02
      -1.8118573730864324e-01 8.2754461785668865e-02
      6.9531393021672716e-02 -8.2464183312623437e-02
      1.8737715592871379e-01 3.6200834143620901e-02
      4.8967342862842683e-02 1.3503075746658763e-01
      2.5660377432082782e-01 9.1598689441471259e-02
      -1.5670923791131075e-01 3.5816029431339554e-02
      -1.1454713792350445e-01 -9.3182158098786036e-02
      1.1540069094825714e-01 1.4737112341450334e-01
      -8.4975778429412646e-02 1.5935939137787905e-01
      -9.8389815417001310e-04 1.3677892553484465e-02
      -9.0922067914142674e-02 1.9830422520134661e-01
      -4.5273745331325159e-02 8.3533579052789686e-02
      1.3897127175111565e-01 1.0081413454537849e-02
      -1.3501470137121255e-01 -1.7941852342032197e-01
      -1.6337806812078462e-01 4.0275723752578041e-02
      5.4818077915253449e-02 -5.7451439143600208e-02
      1.0878518910671710e-01 -7.2905055379023573e-02
      -1.1753806773446208e-01 -3.6793498135679836e-02
      -1.2305148170792382e-02 1.5698065794873522e-01
      3.2960061941521270e-02 -2.6722417466039601e-02
      -1.5058809200651131e-02 -9.9138076407149570e-02
      -1.4528063703815361e-01 8.7508623854050546e-02
      -9.9838977151397432e-02 1.1922696685995060e-01
      4.4879993890800690e-02 -1.6513076784135899e-01
      4.5857613287936977e-01 -3.8774578800769614e-02
      -3.5683676756130378e-02 9.0728490545879684e-02
      -1.5343880450494163e-01 -2.4252413047195425e-02
      3.7674009237876821e-01 1.1228844599156280e-01
      1.2241016406534902e-01 1.3119085118861523e-01
      2.0518235904631584e-02 -2.8757543596941611e-02
      1.0188506300087226e-01 3.7165803120821267e-01
      -1.7304884040953708e-01 -8.9321279533768824e-02
      -9.3391583107066301e-02 -1.0339417406209174e-01
      -2.3133445949057649e-01 8.2094725327444273e-02
      7.8590063888084871e-01 2.1266133972107976e-01
      1.1575847053832056e-01 -7.4655648829969543e-02
      2.0002504920849437e-01 -1.9210225264192096e-01
      -9.1189012515473206e-02 4.2171755163694369e-02
      4.1533392876437918e-02 -2.9839000405581523e-01
      8.1051592760848334e-04 -1.8330392216544297e-01
      -1.8515755889157732e-02 7.4575741075293328e-02
      -6.2088511073472704e-03 1.1164259371046327e-02
      -7.1425689243487744e-02 -2.0179828381067770e-04
      1.9651212964378006e-01 2.1251010734494297e-01
      -3.0527312319781247e-01 3.1984322917426762e-02
      6.8842083334050133e-02 -6.1077736596748464e-02
      1.6595739719989053e-01 -1.0405249462274277e-01
      -2.3614180427320719e-01 5.2011288646384858e-02
      1.1837889444450599e-01 -1.4733037298472404e-03
      3.6716983531366439e-02 -4.3763889872910716e-02
      1.2252091066065457e-01 -1.2446293618768431e-01
      3.4809424397341568e-02 2.1748286495307112e-01
      -4.1185295083395905e-02 1.7209292687732000e-01
      1.0273040406834208e-01 -1.1954144914985035e-01
      7.6583039650944054e-03 5.3178351725806164e-02
      -1.7863550420124727e-01 -2.1981986775049808e-02
      -5.7732963452793423e-03 -1.3999166987891157e-01
      -1.9721903229086035e-01 -2.0995518056832133e-01
      2.3290676752395885e-02 -2.8908824537307625e-02
      -9.5521930322207266e-02 9.3662792467241948e-03
      3.9238495392445512e-02 -1.7474823083268490e-01
      -2.1198599221695960e-01 -2.3780374082213634e-01
      -2.9325996449489054e-02 4.3370013208539920e-02
      2.2049486588028314e-02 1.6704048896279891e-01
      4.0829756970762116e-01 -4.0022349124883289e-01
      4.4581309549496954e-02 -1.2387349088736316e-02
      1.1664469092347574e-01 -6.4328073781309114e-02
      -5.4933840583767338e-02 1.2396481491802738e-01
      -3.4350592997083720e-02 -3.1067809437839239e-01
      4.3158076345524050e-02 -2.1736227350747858e-01
      -1.2310661403120854e-01 2.6781881164313778e-02
      1.3811061252122234e-01 -5.6809900409619189e-02
      -2.2901510657474750e-01 5.8155188450558851e-02
      2.8261414466162349e-01 -1.0712946224427375e-01
      -1.0581469584165920e-01 1.6586641529226029e-01
      2.7766817584735420e-01 6.9362876322254879e-02
      2.5724883125739179e-01 3.0816895221715077e-02
      -1.4470570061214792e-02 -6.9032619501008211e-02
      1.3462176282188865e-01 1.9151951190203653e-01
      1.2805122298130142e-01 1.9480262705990065e-01
      -3.9438342593474993e-02 -3.9068583655366661e-03
      -1.7828236383266480e-01 2.0015535266610790e-01
      1.5067465166950247e-01 7.5167022657055160e-02
      -7.3688972048239848e-02 -1.1538136508327464e-01
      -6.2105568836934899e-01 -8.5650065098606842e-02
      1.3250033193436761e-01 -4.2088513010974563e-02
      1.2074345361664078e-01 5.0767121807098387e-02
      -8.7633927709119722e-02 -3.5442276885441028e-02
      5.8866426091398950e-02 3.9502571808207218e-04
      2.9388866116861381e-02 9.4939310799849991e-02
      2.4952754587756296e-02 -1.2093094150635475e-01
      6.2286797442161500e-02 1.4595625358314682e-01
      2.7426220997991618e-01 5.8887608589764655e-02
      1.1752294892552263e-01 9.3108150703646461e-02
      -3.3136550187286901e-01 1.2548146873603494e-01
      -2.5095497685387708e-01 5.5779245267721274e-02
      -2.5380566820894346e-01 6.1672485184684628e-02
      2.4629029345025488e-02 4.9068474790166752e-02
      -8.6799400656470224e-02 1.1516945870065924e-01
      -1.5911869989970079e-01 1.3099510816665696e-01
      1.3251791663100898e-01 9.3754854043768515e-02
      1.5253729564730134e-01 -9.9439182864237599e-02
      1.3942531799944119e-01 -1.3452126980117676e-01
      -1.5738783967192710e-01 2.9224242336204481e-01
      1.4536571528647271e-01 3.7724283698285815e-02
      3.4543901187695035e-02 8.4507049428614159e-02
      2.8291995008417609e-01 1.2535743396688803e-01
      3.8322031530416613e-02 -1.5771289729346205e-01
      -5.3590278592211799e-02 1.4516880291649029e-01
      1.4290273335174192e-01 1.4476870245599269e-01
      -2.9977024428303084e-01 -1.1342288840320157e-01
      -2.3939951929584735e-01 -8.1776542262680052e-02
      1.5617780225673744e-01 1.1676215827531473e-01
      -6.3795432274039054e-02 -2.3333427758513936e-01
      4.9406877301354193e-02 2.3756800923579077e-01
      1.5672846741134561e-01 -7.8442967125910451e-02
      4.2807634341173781e-02 -1.0445160551176594e-01
      -8.7006558108010570e-02 1.9722862590142656e-01
      5.3211198680967652e-02 -1.0255925427214011e-02
      7.1796700727797480e-02 2.9981767826902105e-02
      1.5511461764089521e-01 -3.6206281057105848e-02
      4.6408186851113836e-02 3.1199603940040715e-01
      -1.4907272536568536e-01 -1.9671453625077243e-04
      1.1447645831979128e-01 -1.2747333881925685e-01
      -3.3060488293076334e-01 -3.4473897048045898e-01
      2.6053471075981849e-01 4.3210874131403121e-02
      1.8762290229961862e-01 2.0740281142108147e-03
      5.4636551784771774e-02 -1.1724273942409562e-01
      7.1471417513950836e-02 -1.3180334922882195e-01
      1.4993910284426146e-01 1.7398374252901347e-02
      5.0140910979177368e-02 1.5357818470649887e-01
      -4.5492573095972939e-02 2.5809522907503362e-02
      2.7946119457286617e-01 -4.8084321121165597e-04
      5.2634384820717986e-02 -7.9702837848543276e-02
      -2.2757041168866884e-01 -4.4632108321823155e-01
      -9.0222329686277622e-02 -2.5251343774249587e-02
      -8.0159969538697431e-02 4.8584808687949545e-02
      1.2348154906971276e-02 -2.0460077425648318e-01
      3.1320175774156002e-02 -5.8569963647838709e-02
      -2.3207899186182605e-02 -3.5903637278117927e-02
      1.0970939344819417e-02 1.0746795873506759e-01
      -2.8375282804328300e-02 -3.0081915809858256e-01
      1.9098112225848843e-01 1.8676988040067465e-03
      1.9100955190440489e-02 1.4418876482698814e-01
      -1.5584761508400729e-03 1.6930132786915292e-01
      1.1902037557086013e-01 9.8745534001461285e-02
      6.9949703617443751e-02 -8.9769731337457862e-03
      6.3519364689080079e-02 1.0279375365756339e-01
      -1.9873863166269688e-03 5.9966269574660898e-02
      -1.1496351430847096e-02 -7.0114619872261690e-03
      -1.7766263795132425e-01 1.1059297622399407e-02
      -8.4593617077152003e-02 2.2140616150587414e-01
      1.6071073627135066e-01 5.6209655726227555e-02
      -5.0323634363312305e-03 -1.8982429497919764e-01
      2.7709974575709706e-01 2.7429964237487524e-02
      8.9353398803786968e-02 -1.1846346743354644e-01
      -1.2748787515140002e-03 -1.2378837507791435e-01
      -5.2850593941958957e-02 2.8948280160604239e-01
      6.4814339986435127e-02 -1.7110735753499404e-01
      4.0515924202053633e-02 -1.2656213200982519e-01
      2.2491886438976325e-01 8.8407481609231994e-02
      2.6085734070714683e-01 2.7999486222297243e-01
      -3.4591081637590110e-01 -1.7294497496964375e-02
      1.8908844212709605e-01 -1.4642956785268382e-02
      -1.7359800281657411e-02 -7.8165543951091224e-02
      -5.7460680025967686e-02 -1.5720539760253710e-01
      1.1862784595863965e-01 -6.9469764397273218e-02
      -2.2875396155243463e-01 -7.2132978605781231e-02
      4.6625843839479646e-02 -1.7013777189825871e-01
      -5.8656717346463716e-02 -1.3829763905400871e-01
      7.0612278059325684e-02 -9.2342213516774990e-02
      3.0924137879057376e-02 -6.6792666580893556e-02
      -3.5159722516824060e-02 2.0252541081266268e-01
      2.3035167807010128e-02 1.0292528079892886e-02
      -3.2526662527332878e-01 -4.3644043544323967e-05
      2.4654731242296214e-02 3.6428307130770880e-02
      -1.4566839514047962e-03 3.7439748603084320e-02
      -1.1788321243051485e-01 -1.7522844581934699e-01
      9.8921300065693316e-02 1.3476536030485392e-01
      4.3991690071145916e-02 -3.2396429235087419e-02
      -3.5664948933302597e-02 -6.5491462817262425e-02
      -1.2355813564494891e-01 -1.2162931248317076e-01
      -5.9183683365279759e-02 5.1572914006067144e-02
      4.9210681142105382e-02 -1.4634951668158888e-02
      -4.5856078437487591e-01 -1.6893415480365707e-02
      1.4622848433087576e-01 3.7618808208521710e-02
      4.0868057174110663e-02 5.1507689212431228e-02
      1.2779638899305988e-02 1.9741742954430100e-01
      -3.5137776463005664e-02 2.0465394831501980e-02
      -1.3511979381643125e-03 3.9807191388747901e-02
      -1.4203578786434168e-01 -7.6454484675112039e-02
      1.6726987385617961e-01 3.1406299729663312e-01
      1.3709247699881796e-01 -2.9298730147625473e-02
      2.2901099984685153e-01 -3.1124163301356650e-01
      -5.7266833798179495e-01 -3.6913042981804950e-01
      1.6678980195971452e-01 -2.3316562332867379e-02
      1.4377385673894547e-01 9.7921844491198673e-02
      -1.3896080676845815e-01 5.0295095374239547e-02
      -2.2663376572293305e-02 -8.8043272885569124e-02
      1.1661577244634054e-01 1.5917662679707698e-01
      -1.1371607435220053e-01 -1.0310891701329938e-01
      2.2604648884333900e-01 2.0936905951877663e-01
      2.6339797355287548e-01 7.4312431055978739e-03
      8.2550528127695866e-02 -2.1684223477464754e-01
      -4.1164079182818847e-01 4.7361156068469877e-02
      2.4140455657319060e-01 7.5569824433325689e-02
      6.6817642028922014e-02 2.0230250671107125e-01
      -6.0160344693279888e-03 -1.2255067642195154e-01
      1.5997543625043484e-01 2.2989657573886035e-01
      2.4102488660140517e-01 2.4516184490091456e-01
      1.1467183571793596e-01 6.4083962963345934e-04
      -1.9964355013947804e-01 1.2968630453236749e-01
      6.7084381832209550e-02 2.5207054922294567e-02
      -2.5350421736080259e-01 -1.5920168472850921e-01
      -3.6479853755308939e-01 -1.8282365065813551e-02
      1.2225981514022401e-01 1.6131844515126604e-02
      3.8771256291398215e-02 2.5448865800973067e-02
      -8.9695705212631704e-02 4.8513537983510602e-02
      -3.3888540120619787e-02 9.1904821565520198e-02
      5.9562545972908880e-02 -1.3557488221551697e-02
      -6.5894540847906843e-02 -1.5618679572417479e-01
      -2.5104956371045973e-02 5.6997349857871346e-02
      -2.6414009168722996e-01 -9.1658664738414053e-02
      2.1767785043542051e-01 -1.8403156684725536e-01
      -4.1844637619379349e-01 -8.8282888160711351e-02
      2.0669428312252444e-01 1.5532415308656577e-02
      -7.5488569297752529e-03 3.3557508384223701e-02
      4.5618317148017160e-02 1.0805826006624959e-01
      -9.3463360723008954e-02 1.1241222129789724e-01
      -5.6085830488860206e-02 3.2287107004093603e-02
      -1.5985835583750549e-01 5.5527829565617727e-02
      6.5283903967351842e-02 2.3542348350865930e-01
      2.0951845908521638e-01 -7.3242676625972100e-02
      8.2760852178040495e-02 -2.2732873314667146e-01
      3.5010426017680940e-01 -2.4763283747800596e-02
      -1.7231588988871432e-01 -2.4527240177054641e-02
      -2.5756939738555630e-03 -7.5130502917517661e-02
      -2.4090602493227289e-03 -5.2548248078382832e-03
      -7.7147941246975424e-02 -2.0843754800509297e-02
      -8.6382978482367451e-02 1.2172777446615100e-02
      1.3509705337436811e-03 8.3566683848623008e-02
      -2.3989975338742930e-02 -1.0222481793959218e-01
      1.7588180953579874e-01 1.1159402340773519e-01
      -2.5620110692050879e-01 1.2643740935614353e-01
      2.5733498597678039e-01 -1.2906441687943862e-01
      -4.8980072895998001e-03 -1.5208599189007212e-02
      -1.0462103826554590e-01 8.1936692704941569e-02
      9.6217316710198619e-02 6.7625656706260528e-02
      4.8826449351281206e-02 -3.7732818044123727e-02
      6.8775691629247251e-02 7.5516808256467102e-02
      9.7172929164313512e-02 2.6731700987046823e-03
      1.7045891657934420e-01 5.0530357030954993e-02
      -1.6091967398145748e-01 -1.4242192795957873e-01
      -9.0784566210915671e-02 1.3658895740668897e-01
      1.5356893732719723e-01 -1.1382243566811907e-02
      6.5008489585243759e-02 -3.6904239821948959e-02
      1.2626842666244198e-01 1.1532160825153015e-02
      -7.2710348206719788e-02 1.2781743348123212e-01
      -2.9496906470646407e-02 -8.3273650075003328e-02
      4.0179046000170682e-03 5.9165559796278938e-02
      9.1283681360288943e-03 2.7445198259395981e-02
      8.6280987872532411e-02 1.2935565109463507e-01
      7.5227417381589362e-02 1.1401408126244635e-01
      -1.1167163921456756e-01 -7.3435308387360620e-02
      4.4451900641686232e-01 2.3179164272331659e-01
      -3.1664796876858781e-01 -6.9786477690030629e-02
      6.6399732591370345e-02 -1.1903930280401755e-01
      -3.2593351081950328e-02 -8.1384099921446421e-02
      -6.1076306140067343e-02 -1.7430370096749144e-02
      -2.1706426565420889e-01 -2.4427880321976372e-02
      -7.8500982587901863e-02 3.8024693469680182e-02
      -1.8596731643965914e-01 -1.4668048934602212e-01
      2.5845243249967059e-01 1.4952245228481181e-01
      -2.4047384952911569e-01 1.0894475131263742e-01
      5.9770320763367368e-01 -4.1535694803872973e-02
      4.9241928182537954e-02 -6.1204417789740817e-01
      6.5771978978548096e-01 -2.6057487454031314e-01
      7.2336750387034987e-01 -1.6806092469110642e-01
      -9.4170390960475669e-01 1.9653458623599053e-02
      -3.7189767761770720e-01 -8.6669124266968101e-01
      3.4717448687289415e-01 -1.2480044485777571e-01
      -7.0275849132517820e-01 -3.8415505277863318e-02
      -1.0044511030575030e-01 7.5862526358512289e-02
      3.0068023388885392e-02 5.9941252773339448e-01</_>
    <_>
      7.3032293190945174e-01 2.8341222788563997e-01
      3.7314844297731870e-01 -4.0496846332960068e-01
      -2.6474766832922554e-02 5.3372730692325565e-02
      -1.7534022109191878e-02 5.7798994785476746e-02
      1.9042258370956616e-01 -2.9628948999463006e-01
      4.3688867832761474e-01 6.6467083358278745e-01
      1.5164448692991370e-01 -5.3689924581340476e-01
      -5.6491124567219020e-01 4.9377412638929580e-01
      8.9098409633493936e-01 -2.3363847236763238e-01
      -4.9851679121159420e-01 -3.7099858790363577e-01
      1.0852382656231048e-01 -2.1056352833967543e-01
      -7.4204746325733073e-01 -7.6538857978563835e-01
      -7.4002657016852580e-01 3.2096031040288076e-01
      4.2642268251588761e-01 7.5356194911625277e-02
      1.8627084548052189e-01 7.4376326175054086e-01
      2.7639333642017611e-01 4.3330938763993188e-01
      -3.3239942691296659e-01 -1.9347723868967370e-01
      -7.7644115576626405e-01 2.7789815549964897e-01
      6.7618488954260236e-01 -3.0173131597961634e-02
      -4.6316343178405057e-02 7.1287209475539071e-01
      1.4822488248490863e-02 -4.5008673828012058e-01
      4.8865945317784654e-02 -6.7787140284731162e-01
      -1.8739776892263657e-01 4.6994491970391628e-02
      -4.6834847115800726e-01 -6.4571826985613326e-02
      -2.9609734865566384e-01 5.3123418707881176e-01
      4.2649517611142668e-01 -4.9388107326754827e-01
      -2.6427214436586094e-01 2.1722588846505667e-01
      -1.4739055511822319e-01 5.6451649965035422e-01
      3.0258896196342877e-01 3.3506121508318602e-02
      -4.7722018966862573e-01 -1.2817341482414468e-01
      -5.3619691022083882e-01 -1.8742229398408064e-01
      -7.0716399372180472e-01 3.4263387692181257e-01
      -4.2360517022498018e-01 -9.0187037169242390e-01
      -1.7647860205752788e-01 4.1416392713258554e-01
      -4.1163449139171454e-01 2.8556227437805171e-01
      1.7735857951768405e-01 -1.1054233765845768e-01
      -1.1848806055436942e-01 3.1116157920285265e-01
      -8.6094668626899129e-02 -6.1517843913116967e-02
      3.5551647443308365e-01 -1.9643676703624502e-01
      2.9752018565415100e-01 -6.8301921272957700e-01
      2.5225707156633392e-01 1.6394835700196722e-01
      6.7461018792664584e-01 -5.7877638881289173e-01
      4.5161261763758920e-01 -1.5456805832611678e-01
      5.2808187410034013e-01 6.8543588932180421e-01
      3.1763913863263255e-01 5.3719445768085794e-01
      -5.0931016928041617e-01 -1.8784012723039994e-01
      -5.4309831436269329e-01 1.7070726255990484e-01
      7.5871601340952211e-01 -2.5478326586614569e-01
      5.7379214322268191e-01 6.4075523188263050e-01
      -8.5967545709071036e-01 -1.2795382201742125e-01
      3.9068554679936701e-01 -4.7580707818513363e-01
      4.0173038886104917e-01 -4.2766951492400396e-02
      -1.1635726635004826e-01 -1.9978666287760774e-01
      -4.1790785909197542e-01 5.4689432214849443e-01
      -3.8226303729635669e-01 5.9038249751427330e-01
      5.6859744243657906e-01 -1.2502791294602597e-01
      5.9265830102515760e-01 5.2248660981830664e-01
      2.1593179701237863e-01 4.6163546351051060e-01
      -5.3822838742585577e-01 4.9415218105414133e-01
      -9.3390393869683619e-01 7.7385954798907738e-02
      -4.5270271145428526e-01 -3.7905858976379575e-01
      2.2669039542133831e-01 -2.2921645612038857e-01
      4.3478306880127204e-01 -7.3030477314980358e-01
      6.3502899775725152e-01 1.5751248825734934e-02
      2.0433170565007461e-01 -4.3389001255657855e-01
      -2.4486280039350963e-01 6.0549615869841511e-01
      1.2093260144500707e-01 -2.5987430953941865e-01
      -4.4970827484051756e-01 -5.9465854795133477e-01
      6.2489856659790233e-01 -9.6936327707047701e-02
      4.6187658943192855e-01 6.4079691914450521e-01
      4.5229031196255470e-01 -3.6869227368413637e-01
      2.8970331789481085e-01 4.2861936290779790e-01
      -4.1205868035468723e-01 5.5368855539151385e-01
      -4.5916980252170858e-01 3.9260997826758870e-01
      6.4729015333690387e-01 -3.8459891982976729e-01
      8.7073546082384448e-02 -1.8682745788646152e-01
      -1.2065455571070884e-01 5.6625264502878206e-02
      5.0590434405990825e-01 -1.6302441632328873e-01
      6.0293235737308137e-01 -6.8707005177711677e-01
      9.4181416295758491e-02 -6.7562563529503417e-01
      -1.0712063247549957e+00 3.6955067245505385e-01
      1.3596537673957917e-01 1.2637949219490008e-01
      5.6434975867816828e-01 1.3277297759599893e-01
      5.9463373390180707e-01 -6.9672662987851608e-01
      4.4845958508746731e-02 2.6717482043828322e-01
      2.4000519586018668e-01 -5.1723823868515462e-01
      7.7891706370742675e-01 2.2018322160777443e-01
      4.3256007190798290e-01 4.6624001609292663e-02
      -3.9243972837681207e-01 -4.7114344622932397e-01
      -3.5591663330642026e-01 -2.7790130769297139e-01
      -2.0567165846496030e-01 7.3893945986901000e-01
      -7.9544148773196044e-01 -4.7405528353443344e-01
      6.5274375552404273e-01 9.2047250485442350e-02
      -8.4582091789208513e-01 4.1794504120125064e-01
      9.0355624742971818e-01 6.7462906134416786e-02
      -6.2637151904970864e-02 -4.7425428745526582e-01
      -2.0965382800385599e-01 -7.6234126244560052e-01
      -5.9223582130435815e-01 7.6797219288347907e-01
      4.7888185600391125e-01 4.3795824124651844e-01
      -7.0978676647627956e-02 -6.4022310932947812e-01
      -6.2616418271215202e-01 -1.2250455417392754e+00
      -6.4533689399821204e-01 -9.8226883905723672e-01
      -1.4190478380382796e+00 -8.0468879818048955e-01
      -1.3968245536816142e+00 -9.3490782327955790e-01
      -1.5001821139258940e+00 -9.7537531375998243e-01</_></weights></my_nn>
</opencv_storage>
