<?xml version="1.0"?>
<opencv_storage>
<my_nn type_id="opencv-ml-ann-mlp">
  <layer_sizes type_id="opencv-matrix">
    <rows>1</rows>
    <cols>3</cols>
    <dt>i</dt>
    <data>
      32 20 10</data></layer_sizes>
  <activation_function>SIGMOID_SYM</activation_function>
  <f_param1>6.6666666666666663e-01</f_param1>
  <f_param2>1.7159000000000000e+00</f_param2>
  <min_val>-9.4999999999999996e-01</min_val>
  <max_val>9.4999999999999996e-01</max_val>
  <min_val1>-9.7999999999999998e-01</min_val1>
  <max_val1>9.7999999999999998e-01</max_val1>
  <training_params>
    <train_method>BACKPROP</train_method>
    <dw_scale>1.0000000000000001e-01</dw_scale>
    <moment_scale>1.0000000000000001e-01</moment_scale>
    <term_criteria><epsilon>9.9999999747524271e-07</epsilon>
      <iterations>1000000</iterations></term_criteria></training_params>
  <input_scale>
    1.4744195615489710e+00 -4.4232586846469130e-01
    1.5617376188860606e+00 1.0932163332202423e+00 1. 1.
    1.7149858514250886e+00 -1.7149858514250887e-01
    1.6012815380508714e+00 9.6076892283052273e-01 1.9611613513818402e+00
    3.9223227027636809e-01 1.5384615384615383e+00
    -7.6923076923076927e-02 1.5762208124782013e+00
    1.0245435281108308e+00 1.1470786693528090e+00 2.2941573387056180e-01
    1.6843038421330379e+00 -5.8950634474656316e-01
    1.5762208124782011e+00 -5.5167728436737040e-01
    1.2674485010489558e+00 5.7035182547203012e-01 1.0910894511799618e+00
    -1.0910894511799618e-01 1.3608276348795434e+00
    -1.3608276348795434e-01 1.5075567228888183e+00
    6.0302268915552737e-01 2.1199957600127202e+00 9.5399809200572405e-01
    1.2803687993289599e+00 -2.5607375986579201e-01
    1.6609095970747993e+00 -4.1522739926869984e-01
    1.4002800840280099e+00 4.2008402520840293e-01 1.6903085094570331e+00
    8.4515425472851657e-01 1.0526315789473684e+00
    -1.5789473684210525e-01 1.3363062095621219e+00
    -4.0089186286863654e-01 1.1867816581938535e+00
    -2.3735633163877071e-01 1.2500000000000000e+00
    7.5000000000000000e-01 1.2674485010489558e+00 5.7035182547203012e-01
    2.4077170617153842e+00 -1.2038585308576921e-01
    1.8181818181818181e+00 -2.7272727272727271e-01
    1.2674485010489558e+00 6.9709667557692578e-01 1.5617376188860606e+00
    -4.6852128566581813e-01 1.2500000000000000e+00
    7.5000000000000000e-01 1.9518001458970666e+00 1.4638501094228000e+00
    1.5384615384615383e+00 7.6923076923076927e-02</input_scale>
  <output_scale>
    5.2631578947368418e-01 4.9999999999999994e-01 5.2631578947368418e-01
    4.9999999999999994e-01 5.2631578947368418e-01 4.9999999999999994e-01
    5.2631578947368418e-01 4.9999999999999994e-01 5.2631578947368418e-01
    4.9999999999999994e-01 5.2631578947368418e-01 4.9999999999999994e-01
    5.2631578947368418e-01 4.9999999999999994e-01 5.2631578947368418e-01
    4.9999999999999994e-01 5.2631578947368418e-01 4.9999999999999994e-01
    5.2631578947368418e-01 4.9999999999999994e-01</output_scale>
  <inv_output_scale>
    1.8999999999999999e+00 -9.4999999999999996e-01
    1.8999999999999999e+00 -9.4999999999999996e-01
    1.8999999999999999e+00 -9.4999999999999996e-01
    1.8999999999999999e+00 -9.4999999999999996e-01
    1.8999999999999999e+00 -9.4999999999999996e-01
    1.8999999999999999e+00 -9.4999999999999996e-01
    1.8999999999999999e+00 -9.4999999999999996e-01
    1.8999999999999999e+00 -9.4999999999999996e-01
    1.8999999999999999e+00 -9.4999999999999996e-01
    1.8999999999999999e+00 -9.4999999999999996e-01</inv_output_scale>
  <weights>
    <_>
      -1.0156177188234916e-01 1.2809905049759129e-01
      -5.1096802868845414e-03 -7.4044002654738608e-02
      4.5025133838205084e-02 -1.0875103835317756e-01
      -4.1342153123702749e-02 -5.8835570829166896e-04
      -1.6729658471394310e-02 5.9797973278599439e-02
      -8.9197217644833668e-02 1.6791206620770018e-02
      4.3555640982854464e-02 1.0737847013971870e-01
      -9.0830668069195111e-02 2.0356813742354654e-01
      1.3389232870829998e-01 1.2726111282701960e-01
      -4.8729303710063551e-02 -2.0757696200034181e-01
      -3.5278347540463112e-01 5.4763293788181969e-02
      -7.3977724393791799e-02 -8.7599191056273187e-02
      2.3196923598645219e-01 5.7372835990327241e-02
      -1.6101207663143619e-01 1.1766463506003176e-02
      1.0087736472552464e-01 1.5888708163394707e-01
      -6.8959792912471118e-02 1.4862140833833709e-01
      -2.0301721003065862e-02 -1.0199296956179052e-01
      -1.4987595589291086e-01 1.1327780246714411e-01
      3.7568548713960292e-01 1.1954881169198464e-01
      1.1869545122923542e-01 -1.8069556857523500e-01
      4.9769331623756213e-02 -2.2930515619697681e-02
      -5.1759724515549228e-02 3.9098214496345561e-02
      -4.9663115636482021e-02 1.1395000226532045e-04
      -1.3799371031393389e-02 -3.1335766914237735e-02
      5.7210637011944621e-02 1.7551299139589274e-02
      2.9662047381128532e-02 -6.0334979693050361e-03
      -6.9322165393017861e-04 4.7958752564211102e-02
      3.4462074627178658e-02 5.1466281161470992e-03
      -3.9415835414575676e-02 -7.9097567773319961e-03
      4.4570387379204834e-03 5.4867881090704826e-02
      -3.9085948913442620e-01 -1.8401824070127296e-01
      9.5479338322687790e-02 6.2904828404740293e-02
      -8.6010778043780295e-02 1.0772435801117010e-01
      -2.1037946441189773e-01 1.3971331165963105e-01
      3.9965522754752689e-03 -1.5361427660538447e-02
      -1.1300278429344793e-02 1.1812260213314861e-01
      7.6046998926759854e-02 6.2200551614481764e-03
      1.0979105335292938e-01 2.6720064492159901e-01
      -3.2019257886654794e-02 2.8589793521833667e-01
      -7.8735861771070573e-02 -3.1183903174069177e-01
      -3.1549712216350040e-01 -9.3188336779458050e-02
      5.3234169548155380e-02 -1.5008936134503366e-02
      -3.9283758738457138e-02 1.8635665476362223e-01
      -1.8729526478588477e-03 2.6510280148011794e-01
      2.2241659883520082e-01 3.3977904980123896e-01
      9.5284414472218248e-02 2.4601348496597977e-01
      1.0568968059246556e-01 4.1186799843876930e-02
      -2.1815142514617788e-03 1.7895523336927988e-01
      7.2188222492194767e-02 -2.4169999071636500e-02
      -1.6684299684372611e-03 -1.8558449342532526e-01
      -5.9556828760018110e-01 -2.2917666093626599e-01
      1.6581988085778324e-01 -2.8770957484896924e-02
      1.4522057666695529e-01 6.6063958184160054e-02
      -3.8187807083621322e-01 -6.3766005173441831e-02
      1.0731102658857343e-01 -6.3923761915447838e-02
      2.4969751350860821e-02 1.4047353625182193e-01
      -9.8214673185895406e-03 -1.6765541782619023e-01
      1.0600414863162901e-02 -8.7348493675440328e-02
      2.6527869443782504e-01 1.2106313229964040e-01
      2.7364434920654873e-01 -1.5982757962508132e-03
      -3.1611643065896017e-01 -1.3482049168880483e-01
      1.1917070467651769e-01 4.5702910378158164e-02
      -1.5866585778495462e-01 9.3102965335473936e-02
      -1.6699936457413819e-01 -4.3519889792229663e-02
      -8.5230329085994580e-02 -1.3848489620297173e-02
      1.7460352535120002e-02 5.0395821083265062e-02
      7.5234059831078476e-02 -8.7576686827969610e-02
      4.9720677047212843e-02 4.0925902647082332e-02
      -5.9794762084438229e-02 1.5742561812043371e-01
      -1.1901245444219936e-01 -3.0839199476915438e-03
      -3.7693244513422591e-01 -1.9800569691047529e-02
      1.0114447123942696e-01 -1.4175047204227428e-01
      1.6409325989950080e-01 1.6596955626140403e-01
      -3.9079716411951970e-01 4.9842429120705668e-02
      -5.2946644517172625e-02 -1.3046065274357990e-02
      -1.6445643389119161e-01 2.9080944867147479e-01
      -1.5896601400537455e-01 -2.7228343378730235e-01
      -6.2108548734537361e-02 1.8860089949162379e-01
      1.8013180735620701e-01 3.9280843710418539e-01
      1.4501103994288853e-01 -5.2511218494288255e-02
      -2.7411487264424217e-01 -9.9623084771829601e-02
      -1.9021800912801082e-01 5.2826136448343164e-02
      -2.7128326286240495e-01 1.7390244638390792e-01
      2.0834658160753936e-01 4.4759331506510386e-01
      -5.5896641633143791e-02 3.2720322420432868e-01
      1.6909834939579722e-02 1.8562639829131117e-01
      -6.5674264220401013e-02 -2.5153152132148332e-01
      1.5889415176995086e-01 1.1913735215898967e-01
      1.0592448269504887e-01 -1.0144275444007132e-01
      -1.2712000757739486e-01 -2.9063853405990903e-01
      4.5582188222766262e-01 1.4517102343772398e-02
      -2.2248069152046648e-01 -8.9547565906117159e-04
      -1.9903943125426610e-01 -3.0640017961483881e-02
      2.0139368315886105e-01 1.4550749212732011e-01
      -1.8963854175756556e-01 -1.7123412479641309e-01
      -2.4257398440052438e-02 -1.4325606122964787e-01
      -1.3303833446404500e-01 -1.1132954922046513e-01
      2.7634836232710569e-01 -1.5911734020068041e-01
      -2.5081544490432500e-01 -1.1532864895240386e-01
      4.7156886481082077e-03 1.6794256226442900e-01
      -5.8911178068523951e-01 -3.0575020968994926e-01
      1.2630574342473774e-01 2.2679977150378119e-01
      -2.7614103029459219e-01 6.6840728872929425e-02
      -3.5809222503281724e-02 7.3403975439138888e-02
      1.5459117622766616e-01 1.0403855670519357e-01
      7.8336111428012764e-02 9.4378330377737005e-02
      3.0114379133093655e-01 1.2144326505647792e-03
      -1.3439771314425704e-02 1.0287172775936344e-01
      2.9883523387045384e-02 -1.9316797403108807e-02
      -1.8522911793185975e-01 -1.7883810873055211e-01
      -4.6845883052629755e-01 1.2922820692736911e-01
      2.0305352391207777e-02 1.8045899926730588e-01
      -1.8567989991694497e-01 1.8043733345567300e-02
      -2.2765825948790025e-01 -7.2113660660981987e-02
      1.1778248638291192e-01 3.4238537065477603e-01
      -9.1160874363161129e-02 1.6110468610735859e-01
      1.3229579599970379e-01 3.7827289644747304e-02
      -2.9352658362224887e-01 2.5258099357285856e-02
      3.0297325118166901e-01 6.6671117027852347e-02
      -2.5191808405661625e-01 8.9747146757605409e-02
      3.1837547626809481e-01 -1.4689666562768983e-01
      -2.3517201823552150e-01 -1.7677873210179446e-01
      -1.1910966934434350e-02 -1.2556942598973256e-01
      1.4895983401003210e-01 1.8712944141415658e-01
      -6.0373522854793103e-02 -7.4730666559721784e-02
      -1.2078235739508987e-01 -3.7344446469665608e-02
      -4.7424525964864517e-02 -7.4100508346441621e-02
      2.5793169189063420e-01 -5.6277864281098260e-02
      4.2509037940856011e-02 -1.3157649569508723e-01
      5.7925335654085445e-03 8.8100415501051549e-02
      3.8189255264275490e-01 1.7268795137280302e-01
      -2.6605186247422408e-01 2.9822603610449597e-02
      5.4887742927536919e-02 4.8674746966314790e-02
      3.1229912582376740e-01 -6.5377510139756198e-03
      2.6317782438987879e-02 1.9818916698273262e-01
      1.3992253190064438e-01 7.4409656103898020e-02
      -9.0132543571977766e-02 -1.3900006310024537e-01
      -1.8743033190213026e-01 -1.4506353715711923e-01
      5.1790106030112866e-02 -6.9557495248222953e-02
      -2.2815028830062459e-01 5.1502657353118743e-02
      -1.6067510388347298e-01 -1.0905308493854798e-01
      1.9040631135638969e-01 4.5589550347928859e-02
      3.0774653901679672e-01 2.7317348155958765e-01
      -1.7091713921471885e-01 1.6633111377167342e-01
      -3.2102230851648046e-02 -3.3325025404054680e-02
      1.8172388480803245e-01 1.8595503961374812e-01
      -7.1793322078525609e-02 -5.1992959729974246e-02
      1.2369979085311458e-01 3.0617616921381280e-01
      -2.5219797800088706e-01 3.1772069158825261e-01
      2.2712410293174889e-01 -3.9683699916053294e-01
      -4.2691426824597076e-02 -3.4138830652366464e-01
      1.7347761993430841e-02 -1.5353497618383716e-01
      -4.0798950023261366e-02 -4.2787876650959560e-02
      -1.0257289988117087e-03 2.1445955634006184e-01
      1.0705106820470094e-01 -8.9545775415765236e-02
      -6.1405957959733873e-02 -8.7663097072726598e-02
      1.9950256595077934e-01 8.7976901413648334e-02
      3.5698308203705309e-01 -6.6299616878780304e-02
      -6.5023676248018109e-02 -2.1105265696827652e-01
      2.0586679915466988e-01 2.2100046854299168e-01
      -1.8378657887807969e-02 -8.5960559679538168e-02
      -1.6363627890137958e-01 -6.7232419119762354e-03
      1.0052164796078307e-01 -1.5389056067088119e-01
      1.4294286847361384e-01 -1.3705513433443536e-01
      -3.5165237575311724e-02 -1.8939224945271654e-01
      2.3555871150719651e-02 -6.8660057761063167e-02
      -9.5152137920107183e-02 -2.0202231673059245e-01
      -8.5162138048476790e-02 -3.3255229022525734e-01
      2.8529833147124906e-01 -1.7886980877957148e-01
      7.8444185324944057e-02 -1.5168950448752900e-02
      4.5637498833528262e-01 1.5866826471818152e-01
      -3.5932577127398313e-01 -1.6905219784279266e-01
      -2.2585707236952521e-01 3.4287086881825350e-02
      1.1823061311445388e-01 2.5601122959796246e-01
      -2.5786855581366036e-01 8.0323128157765641e-02
      -9.8936036137351524e-02 1.3253404567147997e-01
      -8.5473300207949410e-02 -1.5641106710480396e-01
      1.6127340584789865e-01 2.7025982061202259e-02
      -7.4507363059730713e-02 -4.4125667412064314e-02
      -1.9770058555696460e-01 8.0773069048093310e-02
      5.3915634417751657e-02 8.5079451873495623e-02
      9.6769995744793405e-02 -7.7901084514395702e-02
      -1.2813094852863466e-01 1.8390021698604034e-01
      -2.3825421368272093e-01 1.0595193198353639e-01
      -7.2345401168467063e-02 1.3454409082441945e-01
      -3.9199414861799869e-02 1.7088911136740562e-01
      2.5650282638394828e-03 9.1332661622183536e-02
      4.4081266626368340e-02 2.9867655389491354e-01
      -2.0541717577942137e-01 2.8921824195592222e-01
      1.3323576279870403e-02 -1.1356358589421588e-02
      6.9476487712551827e-02 -1.9533278922803868e-01
      -8.5350253659886535e-02 -3.9921520402692749e-02
      5.6268639865174677e-02 -2.4072517294911242e-03
      -2.8879486727269678e-02 9.9216422818870706e-02
      1.7346282301687660e-01 -3.7401672866328242e-02
      -2.4457817704947649e-02 -5.3764974621213830e-02
      7.7611617082760362e-02 -1.3839834007303961e-01
      9.4890142112770900e-03 -1.7556292096631237e-01
      8.0054615826530187e-02 -3.8428196797916044e-02
      -3.1385150965058825e-02 1.1052132255042080e-01
      -2.2206618742603368e-01 -2.7448896268958335e-02
      -1.2731031415206467e-01 1.6301074776849159e-01
      1.0135547384180371e-01 2.5122357601323853e-02
      1.5498131816335647e-01 -2.2355954181911697e-01
      -1.2425327414959924e-02 7.2500814106761643e-04
      9.7178349674287554e-02 7.0949497134169440e-02
      -1.5495554608944673e-01 -2.0739603825920488e-01
      -2.1673951475334619e-01 -3.1539285573446113e-01
      3.4390305148578504e-01 -6.5375983553880565e-02
      -8.5159247828631768e-02 -8.7617554674184944e-02
      -2.2589732606060636e-01 5.2822732095022633e-02
      2.9731171198065756e-03 1.2823800540707905e-01
      -2.3260195416253795e-01 6.1472277708809605e-03
      3.0345445145914834e-01 3.0990828689755522e-02
      -1.4569258258469467e-01 -6.2920206398815147e-03
      -1.7761510373074569e-02 -1.4730451755259891e-01
      -1.8076244913028172e-01 8.2180787958733847e-02
      1.0814171941734389e-01 -1.3194862001997088e-02
      6.7009551203436380e-04 -1.2565915575722009e-01
      -6.7422656853790676e-03 -1.4922908890784464e-01
      -2.7510267642628033e-01 -3.5817252440692476e-02
      1.7035070687970644e-01 1.2870591219868929e-01
      -8.6071380150776991e-02 5.1702974085550003e-02
      -2.1134882727035709e-01 -2.1935043889768827e-01
      6.2026060031098139e-02 -1.0506707692215365e-01
      2.0191739690591182e-02 -4.7100738254709729e-02
      4.0336610611500713e-02 6.2649223668606563e-02
      -5.0843106245407527e-02 -8.9144724924515809e-03
      7.0766178765878721e-02 1.4101276083960682e-01
      -7.5566373375099402e-02 3.2208053592618982e-02
      5.2507701187818112e-01 1.9262679872082893e-02
      -1.6101492671979942e-01 -3.2077545602528151e-02
      1.2805021333021246e-01 -7.8619128628612381e-02
      3.0576661174650216e-02 -1.1159868561964967e-01
      1.6511434637903516e-01 -1.4177508664862495e-01
      2.6096571983145314e-02 -1.0944500398813700e-01
      8.3796814195041147e-02 -5.7934449583550145e-02
      -6.5453527794753136e-02 -4.2675102086547573e-01
      -1.2829143104444909e-03 -1.8149212277966406e-01
      -2.1842789050269450e-02 3.4861599717572911e-01
      5.2929561563828742e-01 7.3939314309148574e-02
      -1.2079334217792344e-01 -7.9252866474864597e-02
      1.2802236592187202e-01 -1.1558934117106648e-01
      2.4186901937570646e-01 6.7383877269814874e-02
      3.2486366349429516e-02 4.5669207195133968e-02
      1.1101443744209602e-01 -6.5303466163697213e-02
      -1.5774107885533206e-01 5.3938020796781616e-02
      5.6364885710051271e-02 -1.7604896100510556e-01
      -1.7066680426429015e-01 -3.6885224279979251e-01
      1.6256926582441214e-01 1.3020891887973227e-01
      5.5571064626188944e-02 2.9961812778100777e-01
      -5.1670488409992880e-02 -1.2608300602166572e-01
      2.0857858272488861e-02 -8.7828418501027086e-02
      -6.2985163718311157e-02 -1.5772738650634988e-01
      -2.2518322277662661e-01 -1.6373862124609176e-01
      -1.4055344294361086e-01 1.4367009596405609e-02
      -2.5806616798903137e-01 9.2108870828505138e-03
      -9.2066389208010125e-04 9.6263884951374085e-02
      1.7792878335708684e-01 7.9075997769972664e-03
      7.9621615660359843e-02 5.2065673525430151e-02
      -9.7026132732198470e-02 -1.6649336349853464e-01
      4.0948635422908559e-02 1.1272070724813445e-01
      -7.0993819552772827e-02 5.1858826258314873e-02
      -1.3946688236902324e-01 -7.6148675181465023e-02
      3.3600189788712057e-02 -5.5312985181053508e-02
      4.1793720403109226e-02 -4.1225573519109325e-03
      1.9121948935905872e-01 -1.3163162597367786e-02
      -6.7439501792516857e-02 -1.1929336756755651e-01
      -2.3681028066200070e-02 3.7260075035001569e-03
      -2.1239048494078358e-01 4.5729720354542341e-02
      4.1046344289542402e-01 -6.5777944149764220e-02
      -4.8979480080140095e-02 -8.1234783051907941e-02
      1.4384693891639128e-01 -6.7487259532869118e-02
      -2.8013258786078004e-02 -1.5426423512828241e-01
      1.4058228946418388e-01 -7.5958015632660173e-03
      -1.2462673330015613e-02 -7.1531401913804693e-02
      7.5978600093032173e-02 -5.9766155092991612e-03
      -1.7003070127419156e-01 -3.9781753599211211e-01
      6.8275243642341304e-02 -1.6344709881033123e-01
      -1.0984059491948638e-01 3.1541804777348292e-01
      1.0746275086909919e-01 8.6048626866299244e-02
      8.3787213332884067e-02 2.5541880442110490e-02
      7.4921462637666646e-03 -1.1516044989794927e-01
      2.0000416180236183e-01 7.8401688377994758e-02
      4.5462239696672888e-02 2.2922448006383911e-01
      -3.9971233608864830e-03 -8.8264362490308543e-02
      -7.4678119284524502e-02 2.1752547045852960e-01
      -4.3186805912023861e-02 -9.5559751180221364e-02
      -1.1311216077644776e-01 -2.2794309990652062e-01
      1.7880942269188152e-01 1.5427205580120362e-01
      -7.7817640893508927e-02 1.2226188175612719e-01
      -1.4175610799311580e-01 -1.1681577322693229e-01
      1.7844797167302653e-01 -1.3928332438325788e-01
      -5.3750203516446375e-02 -1.3820069922960268e-01
      4.8207414687944927e-02 1.2410884052764889e-01
      -1.1537309355502891e-01 8.0132550060746016e-02
      -7.6237377445034546e-02 -7.4780548069271618e-02
      -1.8062317096783767e-01 1.2831038491905933e-01
      2.9114631342910613e-01 -3.7540401660701841e-02
      6.6022530869146029e-02 -3.4722117078361793e-02
      -1.2154608454106106e-01 -1.4497804237636253e-01
      6.1263035647612117e-02 4.1994466125205986e-02
      5.4357948499320650e-02 8.7096244662797667e-02
      1.0904307445212644e-01 2.2050367361195886e-01
      2.1906994566737872e-01 2.7524499196802849e-01
      9.0668685551513001e-02 5.3852613508548960e-02
      1.3590288843287993e-01 -6.1511782508196647e-03
      4.6067854266470410e-03 -1.5731700628338191e-01
      -8.2025299622791634e-02 -1.8230492762770464e-01
      2.6754918842087985e-02 -9.1871379970881965e-03
      -3.7715797485300939e-01 -1.1253124300990115e-01
      2.5930097037081334e-01 1.6360428490225409e-01
      1.1299553283169284e-02 2.5391650789320336e-01
      1.2182260282174298e-01 1.4971186508057249e-01
      2.0338619219927570e-01 2.4053562214586896e-01
      1.7157936510046093e-01 1.2221944692010248e-01
      1.1235986266869715e-02 -1.6500975612535381e-02
      1.0394389527610680e-02 -7.8206280151889421e-02
      -1.7295908169715657e-01 -9.3592027786108950e-02
      7.7198310068054082e-02 -6.3786101607745602e-02
      3.2107133723221098e-01 -1.6638158600438901e-01
      1.0876200925647846e-01 -6.5346450411562440e-01
      5.8296533430878283e-01 -1.4714638488021844e-01
      5.6977748370752912e-01 1.0908542095303782e-02
      -7.4366303547580237e-01 1.9893004099361303e-01
      -4.3050201089708362e-01 -9.0153649124783308e-01
      4.2378047154579918e-01 -3.3357407777863377e-02
      -7.1426943821765609e-01 1.0210538490512622e-01
      3.2724637177750579e-02 5.1016647328475044e-02
      8.3914072517637911e-02 5.2238876428137015e-01</_>
    <_>
      9.0871017150652988e-01 4.8679155232150778e-01
      5.4599495588289082e-01 -1.9958267962437282e-01
      2.0273557259324200e-04 -2.5296950446641192e-01
      1.1158639732324946e-01 -2.4180724702000511e-01
      1.2627087292162859e-01 -3.4037593269409799e-01
      5.7957235742287572e-01 4.7436841296633253e-01
      1.4372068047242700e-01 -4.0420319969728080e-01
      -4.3495276871197158e-01 4.8906096019637235e-01
      1.0046594275038923e+00 -8.8846477399290483e-02
      -3.5666133424563762e-01 -2.3357043496359850e-01
      7.6240486892283785e-02 -2.4000054107179070e-01
      -7.6194785557459155e-01 -5.8094321305767527e-01
      -8.1055352326898378e-01 3.1024467347161822e-01
      3.8816636737088711e-01 1.1670778682213340e-01
      2.0377530064190713e-01 5.9944943092079650e-01
      1.5993264527261866e-01 3.9656453051396551e-01
      -3.7309844262642755e-01 5.8253951304927762e-02
      -5.7409687968048373e-01 3.6991870987764419e-01
      8.2796153611783574e-01 2.1164791792012118e-02
      -8.5042442009193142e-02 6.6641612083036317e-01
      2.3537800710304099e-01 -4.8778154941282081e-01
      2.0592513747952823e-01 -6.7587882005578437e-01
      -3.3879288316487383e-01 -5.5969278864938452e-02
      -5.5988544331858647e-01 -2.5637155285977170e-01
      -2.3386689336866642e-01 5.1902618517533894e-01
      3.6211669301098970e-01 -5.4278196377348364e-01
      -4.1029728013656652e-01 1.8367827457453417e-01
      -4.3633943380708284e-01 6.2888698620784800e-01
      1.9306669008480989e-01 5.6668688435910192e-02
      -5.6142318120410462e-01 -2.7275400633735553e-01
      -4.3399439539847340e-01 -2.8860900866784278e-01
      -8.3244354855972780e-01 5.0700936112151096e-01
      -4.1170430338961961e-01 -6.6483040685975414e-01
      -5.2656574959133173e-02 4.1894928495014266e-01
      -5.6496205565026925e-01 4.8792092123837427e-01
      4.2081986725057091e-01 -1.3898558133182870e-01
      -4.4115759427250872e-01 4.6957895880802702e-01
      -1.5496856881406576e-01 -5.5906733588838402e-02
      2.6104007640777244e-01 -4.4570190117880493e-01
      3.7325285785304463e-01 -5.6546148354881309e-01
      1.6027796506396783e-01 2.1144044094046388e-01
      7.7362565024429786e-01 -7.4308394466970662e-01
      5.1021574947711446e-01 -1.9354623916322825e-01
      4.5188405154404609e-01 3.5193830472752591e-01
      4.4166714906074306e-01 5.4400760282867699e-01
      -4.3907150560416630e-01 -2.1646884788365089e-01
      -6.6024092320879513e-01 -3.6928591834512872e-02
      5.6482768032482389e-01 -1.7499025036518545e-01
      4.1577703902332741e-01 6.4091384545887731e-01
      -8.0533251719607213e-01 -2.5453395244449500e-01
      3.4451436819255515e-01 -4.5336683746971779e-01
      4.1088868668387435e-01 7.5577693490653339e-02
      -4.0735964422439597e-02 -2.0530716956573256e-01
      -3.1178995613027755e-01 4.2778406679443187e-01
      -3.8551653137096836e-01 5.9648072294975285e-01
      4.4929316556251364e-01 -1.6862286918323321e-01
      6.3963403502621852e-01 5.0082694676306438e-01
      -1.4550487075283032e-02 5.0196510574827125e-01
      -5.5904174452716948e-01 5.4572146549814826e-01
      -8.1577934642946326e-01 9.9070711827607405e-02
      -5.0895855829510439e-01 -3.5937318612896729e-01
      1.8682601274506086e-01 -3.2342065441215406e-01
      3.4597638245151408e-01 -5.6589117394485011e-01
      5.7525359512013940e-01 -1.0422147416323439e-01
      1.4112348663430219e-01 -3.9077881259166763e-01
      -1.7534399936254791e-01 6.3591303902783536e-01
      1.7227629543933903e-01 -2.3601598068567153e-01
      -3.3500010482025921e-01 -9.0929493182333621e-01
      6.2209721966796949e-01 -1.4046421645767018e-01
      5.3276926666500735e-01 4.6684701502251169e-01
      4.3784876936654654e-01 -4.5419437157002795e-01
      -1.5606867883143295e-02 6.1490817021985911e-01
      -3.2466076547941541e-01 5.2157665680667842e-01
      -2.7687704827671067e-01 3.7201952403291355e-01
      7.3297281785550983e-01 -4.7159030033997629e-01
      3.5166777515521735e-01 -1.8987541698672333e-01
      -3.3194750807370332e-01 6.4895079868810018e-02
      3.1443878780969509e-01 -2.6524414653720063e-01
      5.1451404696662417e-01 -5.8346860003941947e-01
      2.2237105242981878e-01 -6.6098337893799108e-01
      -9.1530030380019434e-01 2.5698127964928913e-01
      1.0884407938573154e-01 1.3198022308599600e-01
      3.5657515342551543e-01 1.6207276649306188e-01
      5.5828054714686659e-01 -7.9900550422746996e-01
      1.9147824126557869e-01 3.2425020018694212e-01
      4.5235115502262446e-01 -3.4891775255622554e-01
      7.3581859382245018e-01 1.6139677763969845e-01
      3.2455269226136163e-01 -1.8929888820322538e-01
      -4.7669650330492963e-01 -5.0770072913723607e-01
      -4.3451428812154536e-01 -2.7306497664339485e-01
      -1.1080516923799512e-01 8.0885875409992158e-01
      -7.5830804188528178e-01 -6.1564239223206940e-01
      7.5439663446958238e-01 8.4306777890968132e-02
      -9.4436531924721279e-01 4.1120421351217346e-01
      9.7521688633979908e-01 1.2150516016749123e-01
      -1.9313230532889833e-01 -5.4313654090615626e-01
      -6.5182835492867006e-02 -7.1109725711534011e-01
      -7.7087960796625021e-01 8.8386595735764384e-01
      6.1982973335405545e-01 3.8553637251178524e-01
      -1.1542439380502351e-01 -8.6629996924408958e-01
      -6.3015583653072482e-01 -1.1106353125408368e+00
      -7.9396888200232874e-01 -9.0702219053982192e-01
      -1.6032782612645156e+00 -9.1253754391970443e-01
      -1.4533586247995982e+00 -8.4078896159968519e-01
      -1.4914645266970119e+00 -1.0171133441122631e+00</_></weights></my_nn>
</opencv_storage>
