<?xml version="1.0"?>
<opencv_storage>
<my_nn type_id="opencv-ml-ann-mlp">
  <layer_sizes type_id="opencv-matrix">
    <rows>1</rows>
    <cols>4</cols>
    <dt>i</dt>
    <data>
      128 60 20 10</data></layer_sizes>
  <activation_function>SIGMOID_SYM</activation_function>
  <f_param1>6.6666666666666663e-01</f_param1>
  <f_param2>1.7159000000000000e+00</f_param2>
  <min_val>-9.4999999999999996e-01</min_val>
  <max_val>9.4999999999999996e-01</max_val>
  <min_val1>-9.7999999999999998e-01</min_val1>
  <max_val1>9.7999999999999998e-01</max_val1>
  <training_params>
    <train_method>BACKPROP</train_method>
    <dw_scale>1.0000000000000001e-01</dw_scale>
    <moment_scale>1.0000000000000001e-01</moment_scale>
    <term_criteria><epsilon>9.9999997473787516e-06</epsilon>
      <iterations>1000000</iterations></term_criteria></training_params>
  <input_scale>
    1.2500000000000000e+00 7.5000000000000000e-01 1.2500000000000000e+00
    7.5000000000000000e-01 1.0206207261596576e+00 2.0412414523193154e-01
    1.2500000000000000e+00 -7.5000000000000000e-01 1. -1.
    1.2500000000000000e+00 -7.5000000000000000e-01
    1.0206207261596576e+00 2.0412414523193154e-01 1.2500000000000000e+00
    7.5000000000000000e-01 1.2500000000000000e+00 7.5000000000000000e-01
    1.0206207261596576e+00 -2.0412414523193154e-01
    1.6666666666666670e+00 -1.3333333333333337e+00
    1.6666666666666670e+00 -1.3333333333333337e+00 1. -1. 1. -1. 1. -1.
    1.2500000000000000e+00 7.5000000000000000e-01 1.2500000000000000e+00
    7.5000000000000000e-01 1.2500000000000000e+00
    -7.5000000000000000e-01 1.0910894511799618e+00
    -4.3643578047198472e-01 1.0910894511799618e+00
    4.3643578047198472e-01 1.2500000000000000e+00 7.5000000000000000e-01
    1.2500000000000000e+00 -7.5000000000000000e-01
    1.6666666666666670e+00 -1.3333333333333337e+00
    1.0910894511799618e+00 -4.3643578047198472e-01
    1.0206207261596576e+00 -2.0412414523193154e-01
    1.2500000000000000e+00 -7.5000000000000000e-01
    1.0910894511799618e+00 -4.3643578047198472e-01
    1.2500000000000000e+00 7.5000000000000000e-01 1.6666666666666670e+00
    1.3333333333333337e+00 1.0206207261596576e+00 2.0412414523193154e-01
    1.6666666666666670e+00 -1.3333333333333337e+00
    1.2500000000000000e+00 -7.5000000000000000e-01
    1.0910894511799618e+00 -4.3643578047198472e-01
    1.0910894511799618e+00 -4.3643578047198472e-01
    1.0910894511799618e+00 4.3643578047198472e-01 1.6666666666666670e+00
    1.3333333333333337e+00 1. 1. 1.0910894511799618e+00
    4.3643578047198472e-01 1.2500000000000000e+00
    -7.5000000000000000e-01 1.0910894511799618e+00
    -4.3643578047198472e-01 1. 0. 1. 0. 1.2500000000000000e+00
    7.5000000000000000e-01 1.6666666666666670e+00 1.3333333333333337e+00
    1.6666666666666670e+00 1.3333333333333337e+00 1.0206207261596576e+00
    2.0412414523193154e-01 1.2500000000000000e+00
    -7.5000000000000000e-01 1.0206207261596576e+00
    -2.0412414523193154e-01 1.0206207261596576e+00
    2.0412414523193154e-01 1. 0. 1.0206207261596576e+00
    2.0412414523193154e-01 1.2500000000000000e+00 7.5000000000000000e-01
    1.2500000000000000e+00 7.5000000000000000e-01 1.2500000000000000e+00
    -7.5000000000000000e-01 1.6666666666666670e+00
    -1.3333333333333337e+00 1. 0. 1.0206207261596576e+00
    2.0412414523193154e-01 1. 0. 1. 0. 1.0206207261596576e+00
    2.0412414523193154e-01 1. 0. 1.6666666666666670e+00
    -1.3333333333333337e+00 1.6666666666666670e+00
    -1.3333333333333337e+00 1.0206207261596576e+00
    2.0412414523193154e-01 1.0910894511799618e+00 4.3643578047198472e-01
    1.0206207261596576e+00 -2.0412414523193154e-01
    1.0206207261596576e+00 2.0412414523193154e-01 1.0910894511799618e+00
    4.3643578047198472e-01 1. 0. 1.6666666666666670e+00
    -1.3333333333333337e+00 1.6666666666666670e+00
    -1.3333333333333337e+00 1. 0. 1.0910894511799618e+00
    4.3643578047198472e-01 1.0206207261596576e+00 2.0412414523193154e-01
    1.0910894511799618e+00 4.3643578047198472e-01 1.2500000000000000e+00
    7.5000000000000000e-01 1.0910894511799618e+00 4.3643578047198472e-01
    1.0206207261596576e+00 -2.0412414523193154e-01
    1.2500000000000000e+00 -7.5000000000000000e-01
    1.0910894511799618e+00 -4.3643578047198472e-01
    1.0206207261596576e+00 2.0412414523193154e-01 1.0206207261596576e+00
    2.0412414523193154e-01 1.0910894511799618e+00 4.3643578047198472e-01
    1.0910894511799618e+00 4.3643578047198472e-01 1.0910894511799618e+00
    4.3643578047198472e-01 1.0910894511799618e+00 4.3643578047198472e-01
    1.2500000000000000e+00 -7.5000000000000000e-01
    1.2500000000000000e+00 -7.5000000000000000e-01
    1.0206207261596576e+00 2.0412414523193154e-01 1.0206207261596576e+00
    2.0412414523193154e-01 1.0910894511799618e+00 4.3643578047198472e-01
    1.0910894511799618e+00 4.3643578047198472e-01 1.2500000000000000e+00
    7.5000000000000000e-01 1.2500000000000000e+00 7.5000000000000000e-01
    1.2500000000000000e+00 -7.5000000000000000e-01
    1.2500000000000000e+00 -7.5000000000000000e-01
    1.0206207261596576e+00 -2.0412414523193154e-01
    1.2500000000000000e+00 -7.5000000000000000e-01 1. 0.
    1.2500000000000000e+00 7.5000000000000000e-01 1.2500000000000000e+00
    7.5000000000000000e-01 1.0910894511799618e+00 4.3643578047198472e-01
    1.2500000000000000e+00 -7.5000000000000000e-01
    1.2500000000000000e+00 -7.5000000000000000e-01 1. 0.
    1.0910894511799618e+00 -4.3643578047198472e-01
    1.0910894511799618e+00 -4.3643578047198472e-01
    1.6666666666666670e+00 1.3333333333333337e+00 1.6666666666666670e+00
    1.3333333333333337e+00 1.2500000000000000e+00
    -7.5000000000000000e-01 1.2500000000000000e+00
    -7.5000000000000000e-01 1.0206207261596576e+00
    -2.0412414523193154e-01 1.6666666666666670e+00
    1.3333333333333337e+00 1.0910894511799618e+00
    -4.3643578047198472e-01 1.2500000000000000e+00
    -7.5000000000000000e-01 1.2500000000000000e+00
    -7.5000000000000000e-01 1.2500000000000000e+00
    -7.5000000000000000e-01 1.6666666666666670e+00
    -1.3333333333333337e+00 1.6666666666666670e+00
    -1.3333333333333337e+00 1.0910894511799618e+00
    4.3643578047198472e-01 1.6666666666666670e+00 1.3333333333333337e+00
    1.2500000000000000e+00 7.5000000000000000e-01 1.2500000000000000e+00
    -7.5000000000000000e-01 1.2500000000000000e+00
    -7.5000000000000000e-01 1.0910894511799618e+00
    -4.3643578047198472e-01 1.6666666666666670e+00
    -1.3333333333333337e+00 1.0910894511799618e+00
    4.3643578047198472e-01 1.2500000000000000e+00 7.5000000000000000e-01</input_scale>
  <output_scale>
    5.2631578947368418e-01 4.9999999999999994e-01 5.2631578947368418e-01
    4.9999999999999994e-01 5.2631578947368418e-01 4.9999999999999994e-01
    5.2631578947368418e-01 4.9999999999999994e-01 5.2631578947368418e-01
    4.9999999999999994e-01 5.2631578947368418e-01 4.9999999999999994e-01
    5.2631578947368418e-01 4.9999999999999994e-01 5.2631578947368418e-01
    4.9999999999999994e-01 5.2631578947368418e-01 4.9999999999999994e-01
    5.2631578947368418e-01 4.9999999999999994e-01</output_scale>
  <inv_output_scale>
    1.8999999999999999e+00 -9.4999999999999996e-01
    1.8999999999999999e+00 -9.4999999999999996e-01
    1.8999999999999999e+00 -9.4999999999999996e-01
    1.8999999999999999e+00 -9.4999999999999996e-01
    1.8999999999999999e+00 -9.4999999999999996e-01
    1.8999999999999999e+00 -9.4999999999999996e-01
    1.8999999999999999e+00 -9.4999999999999996e-01
    1.8999999999999999e+00 -9.4999999999999996e-01
    1.8999999999999999e+00 -9.4999999999999996e-01
    1.8999999999999999e+00 -9.4999999999999996e-01</inv_output_scale>
  <weights>
    <_>
      1.7993851647942991e+00 -1.1858662708047110e-02
      -5.1261073464803193e-02 1.5491473033800452e-02
      -1.3113962401515114e-02 2.0225276963827146e-01
      -1.5701536842249193e-03 2.8667373000532678e-02
      -9.5704713462390900e-02 -2.4664273197609443e-01
      1.4448728609553881e-02 -2.5534265210510561e-02
      -2.2249196594907771e-02 -3.9820225374542608e-03
      3.9761710750355221e-02 2.7941862765816611e-01
      1.8584584844227045e-01 1.0994012484147258e-02
      3.1584199711793791e-02 -1.8808146706699147e-01
      -1.5908783468027123e-02 -2.7006162865852296e-02
      -2.2580852224803921e-01 -2.6856181323056733e-01
      1.0046809241341496e-02 -1.4889922043131498e-01
      -9.5948557848598362e-03 1.6944039718023062e-02
      2.3715284962647645e-02 -1.0784626019996199e-01
      -2.1153293972980619e-01 1.8882455359034703e-01
      4.0300610364302131e-02 1.5157705161414697e-01
      1.9800948961866560e-01 -8.6179136894718303e-02
      -1.0627383767964754e-01 -9.6247158775223818e-03
      6.5550742255428597e-03 3.0879392985900828e-02
      -2.1352185566913890e-02 -3.0510973565543966e-02
      1.7182308340786756e-01 -2.3696072926801892e-01
      -1.0819042713194721e-02 3.0985016002603227e-01
      -2.3976101983844680e-01 -3.4087691979405456e-02
      1.8525499196716129e-03 -2.7012735806084132e-01
      2.9625069276838456e-01 -2.8480240725837106e-02
      -2.1285639950607624e-01 -1.8070064889620449e-01
      2.8892942064067967e-01 -3.3547114163856764e-02
      1.6167745963293501e-01 2.0641866713130572e-01
      -1.7337518595308807e-01 1.2708321262052605e-02
      1.8250420637893137e+00 -1.5277695994706429e-02
      -4.3091078261892325e-02 1.5081214275171005e-02
      -1.8406901270478053e-02 1.8570279436980455e-01
      -5.5440646481546511e-03 3.6134576849434111e-03
      -1.0152378028255306e-01 -2.4983284129770272e-01
      -1.0814721822117882e-03 -2.0415411609510083e-02
      -2.5977796856075170e-02 -7.9067681191132815e-03
      5.8610393958776472e-02 2.6933784549489576e-01
      1.9276175813974908e-01 1.2292830181059214e-02
      5.3925716874602403e-02 -1.8928818406809461e-01
      -3.8802925080810763e-02 -3.2027071168073316e-02
      -2.1979658226483684e-01 -2.6910484772483256e-01
      1.3310557267984264e-02 -1.2998545925645524e-01
      1.3927825599423647e-02 1.5923922065657445e-02
      4.0663927666885327e-02 -1.0825588531417660e-01
      -2.0032786063324387e-01 2.1345256151145706e-01
      4.5687457329322334e-02 1.3711132129753853e-01
      1.8464470743734601e-01 -8.6385963134514757e-02
      -1.2109985686126915e-01 -3.8709406484430950e-03
      2.6321347553154406e-02 2.8265714819676806e-02
      -1.6279669866626403e-02 -2.1859633121709961e-02
      1.6078813034177708e-01 -2.3171387334425803e-01
      -9.5426753662235259e-03 3.0114239071658766e-01
      -2.4633995489412921e-01 -4.7285899415755055e-02
      7.5230526411429700e-03 -2.4870288808599347e-01
      3.0772904677591095e-01 -3.3417282160175095e-02
      -2.1255265486974664e-01 -1.9856943702475385e-01
      2.7360275070317214e-01 -3.4921694337160927e-02
      1.7804385020707492e-01 2.0256932713333906e-01
      -1.8599990426684418e-01 2.5810255760449062e-02
      2.5689397409287356e+00 -4.6406171071404580e-02
      -1.7987523542147579e-02 -7.0181006799667550e-03
      1.4842313813045410e-01 1.9602344204953967e-01
      1.3593082032683351e-01 -1.6160842165585956e-01
      -2.1790826289500412e-01 -7.5677430721811836e-02
      -1.7795877480827879e-01 6.2898222564225234e-03
      -1.7166511344743414e-03 1.4968412543649398e-02
      1.3977059031778274e-01 3.7557919313499111e-01
      3.9195006432333329e-01 1.4644647928615714e-02
      -1.1698821383110866e-01 -3.4060047057691073e-01
      1.3115618007589630e-01 -1.8022730491987597e-02
      -3.9327795378162539e-01 -7.3300033055762825e-02
      3.0171243955582201e-02 -6.4514212968868112e-02
      -2.2086218017630874e-01 -2.6911196103570478e-01
      2.8695503554272021e-02 -1.8622429213887756e-01
      -2.5668179728916794e-02 3.6284935173045613e-01
      -8.0393015756961783e-02 2.1064282276918700e-01
      7.8686554970162526e-02 -1.6100404954938938e-01
      -7.8271602026318596e-02 -1.6489013541654876e-01
      -1.6749125810310400e-01 9.2584294790820417e-03
      -2.0789194324294890e-02 7.7015646868664406e-03
      -4.4878507281840438e-02 -4.7009381503379771e-02
      -3.6983630823037690e-02 3.5603082887411652e-01
      -1.1571768560645744e-01 -1.6612051884234721e-01
      3.2900254998705060e-02 -3.9583774992412724e-02
      4.7810642229941962e-02 -1.3145505257092165e-02
      -7.9192107067365375e-02 -3.5089054079596210e-01
      8.6286497805925066e-02 -1.1468419829148335e-01
      -3.4854413929007108e-02 1.6443253041340505e-02
      -1.8702762427500064e-02 -1.9886316068800486e-01
      -1.3420742760826043e+00 -1.3781456925451557e-01
      1.5504664668836857e-01 -9.3578262538061244e-02
      1.8220207670282462e-01 -3.3919664907432874e-02
      -2.6010851389555528e-01 -2.0462585345236159e-01
      -2.0564912907887015e-01 -4.0138576949873550e-02
      -2.1892115721787500e-01 -1.1999181075444838e-01
      -1.1953782669605845e-01 8.9049400712501281e-02
      -2.1628108108269631e-01 1.6133796389584415e-01
      1.5054314947871131e-01 9.8354509203830778e-02
      -1.6586066322194484e-01 -1.6092389494439280e-01
      1.3953266105186876e-01 -8.6659784057899897e-02
      -1.7152466469552743e-01 -6.0965103852225942e-02
      1.0947177301589935e-01 -4.1271597940341501e-03
      -1.4803975171645059e-01 -2.1090543014294866e-01
      1.3904605970361156e-01 -2.0530036818613254e-01
      1.3525000516971877e-01 1.8992675079284363e-01
      -2.4551398314966857e-02 2.9199398330564740e-02
      8.9835170347657867e-04 -1.7588878446859466e-01
      -1.7260005051450497e-01 -1.0330366325944230e-01
      -2.4789905358688150e-02 1.0760579501054979e-01
      -1.1121584045135474e-01 -1.0009284392129301e-01
      -1.2476587662852628e-01 -3.2359344136542463e-02
      -1.1148780892559074e-01 1.6220859938566451e-01
      -1.8553016130363580e-02 -2.5372105662362615e-01
      1.0090314202747283e-01 -1.9863131120349892e-02
      -2.5481067245547859e-02 -1.1646364376017977e-01
      -7.6463603718835149e-03 -1.8291845223816200e-01
      5.5318189808165753e-02 -2.7287678213337363e-01
      -1.1951135857361794e-01 -1.4538423729815139e-01
      1.2729050036026629e-01 -3.3881020028717318e-02
      9.0689752687339829e-03 1.2038444528898587e-02
      7.6187225983142225e-03 -1.5559972226495317e-02
      9.0327351996347689e-03 4.8744404660926773e-03
      -1.2894602131926908e-02 -1.2940760166991245e-02
      9.3403354615109527e-03 2.0684001615770562e-03
      7.8321039752457739e-04 -4.1682141832417802e-03
      -7.7460409270308922e-03 -3.0694973321359165e-03
      -3.4574248082402206e-03 -6.8611631925486680e-03
      -1.1047407366036509e-02 -8.8711867510729726e-03
      -3.1674204343971508e-03 -1.9582119004826069e-03
      -5.2333911558520513e-03 1.2501172318157850e-02
      1.1998362932088063e-02 -1.1334631364553097e-02
      -4.4309888104797678e-03 -6.1389020650685225e-03
      -1.2908252074703922e-02 -3.5194882071070939e-03
      6.9587740814420671e-04 -9.7115365114029892e-03
      4.0095687093434718e-03 -4.2799755539873231e-03
      -1.4651663341341424e-02 -1.1456567717926381e-02
      6.9357825801666748e-03 -5.4916313066909628e-03
      1.2664481934052297e-02 -9.6098189788672501e-04
      -9.2756983312603063e-03 -4.6695226771644388e-03
      1.6899844708657421e-03 -1.1656806807348828e-03
      -5.7194608832230069e-03 1.5517917087205270e-02
      1.2598080246271218e-02 -5.9867456744134503e-03
      1.0016489898822700e-02 1.4124594599213707e-02
      -5.4709596114126237e-03 -1.0346859593621848e-02
      1.4328641463107304e-02 -6.7432896125531301e-03
      -4.1232643201598593e-03 -5.1275430694718634e-04
      -1.4156838297323152e-02 9.1638663447175615e-03
      -1.2895266194693352e-02 -1.3517998964621022e-02
      1.1448839600398504e-02 -3.0120993374706671e-03
      -9.5546656361870641e-01 -2.3725671818322924e-01
      3.7658116810769571e-01 -1.9079839186990899e-01
      2.8072267760120057e-01 -1.6728105063804477e-01
      -1.3534149335753759e-01 -2.2462033878951937e-01
      -4.9896777747337256e-01 3.1011286280941469e-01
      -2.6861004835335545e-01 -1.7247908044597163e-01
      -1.7699328843424075e-01 2.0450452339312525e-01
      -1.3690226244723405e-01 -2.3902507627308478e-01
      -1.7041506242655313e-01 1.9340266380778920e-01
      -2.5702794075415863e-01 1.9646093773106904e-01
      3.1394012388445525e-01 -2.1198448171672146e-01
      2.3491939546296534e-01 2.6961111296844459e-01
      2.0566179230222117e-01 2.0086292136544051e-01
      2.4347878338753290e-01 2.7018720098020255e-01
      2.0486533620151565e-01 -4.5946516906648960e-01
      1.9034005718571390e-01 -2.5023944011443622e-01
      3.0681160759281478e-01 -2.4033763552744680e-01
      -2.1134678792601738e-01 -4.5955660334260873e-01
      -3.6596914295816724e-01 2.5608557774572033e-01
      1.4006010821752354e-01 1.9854799780730606e-01
      -1.9340614054673710e-01 -1.6576792345516442e-01
      -2.4050783231515441e-01 1.4501713425344687e-01
      -1.9743171628979161e-01 -2.3621165567873736e-01
      2.3794336719635656e-01 -2.9558614263986327e-01
      1.7701951607627922e-01 7.6393904472807320e-02
      4.1585775127299336e-02 -1.9337917288939721e-01
      2.7221685000920692e-01 2.1998531441429195e-01
      -2.4731269170142339e-01 -1.9845229638153497e-01
      -2.3163230652962985e-01 -2.1019029189352756e-01
      1.3617760656310968e-01 1.5203243978307229e-01
      2.5733619207853531e+00 1.0749455721987010e-01
      -1.5405580770273697e-01 7.5852175255396184e-02
      -1.5620732833851542e-01 1.5977143582050177e-01
      2.0335654240292211e-01 1.6142732419342742e-01
      9.1065268027209351e-02 -1.7871939512640514e-01
      1.6766656931018886e-01 6.5721657154822755e-02
      5.9614684073808710e-02 -9.5805421752402364e-02
      1.8608391940684102e-01 7.9258144474435174e-02
      4.0010710215724263e-02 -7.9441627038186496e-02
      1.6303208135128378e-01 -2.5416761355393343e-02
      -1.5602348877624961e-01 7.3133104447142216e-02
      -3.0268330350649388e-02 -1.9347925628104345e-01
      -7.8119114218109534e-02 -1.0200961588784414e-01
      1.3612819464349407e-01 1.9916522222789224e-01
      -8.1570355869291192e-02 7.6421339570459823e-02
      -2.8342198077442626e-01 1.7539163053033466e-02
      4.6838157702071281e-02 1.0675592689475233e-01
      1.4639545295200412e-01 6.3743538808053168e-02
      2.8743281406613922e-02 8.7456821816040600e-02
      1.9440304575430108e-02 -6.1046042487232700e-02
      7.3942539404316401e-02 5.6859212948411265e-02
      2.6218285602017444e-01 -1.6760233842522790e-01
      9.4643865310282640e-02 9.3371582068908943e-02
      -1.9257220763506358e-01 1.7857401843089912e-01
      -1.0439495999102423e-01 -2.0426847781848628e-01
      2.6519437263270090e-01 7.3431502323549988e-02
      -1.7092396562889053e-01 1.1812326310757964e-04
      1.9979076157021244e-01 1.9797221243557775e-01
      2.2015380137557916e-01 2.6628885856673423e-01
      -2.5327554183585299e-01 4.6870945339672558e-02
      1.2802291355784783e+00 7.6842882296187742e-02
      7.1395693330554927e-02 4.1899352575135280e-02
      -1.4760198850327252e-01 1.0960173705202658e-01
      -5.7253672384621347e-02 1.8512072885948236e-01
      5.9836027598649593e-03 1.6435061086139280e-01
      1.5437397033634709e-01 3.4734107417775557e-02
      4.3799796200460470e-02 -5.7877501510645982e-02
      -8.6629571334998726e-02 -7.7170904470367993e-02
      -9.3399805251993692e-02 -3.3360600309483721e-02
      1.3199071538532209e-01 6.7248863964495365e-02
      -1.1662698458521634e-01 5.7312394920712884e-02
      3.4794187855109800e-02 1.1948073558809776e-01
      -5.8262214684469495e-02 1.6553276857369414e-01
      5.5833949594635236e-03 1.2492453460519792e-01
      -7.3979297126086002e-02 1.1633808808757444e-02
      -1.0429112401163225e-01 -5.8311886176808582e-02
      3.2632304995113537e-01 -2.4935003059915295e-01
      -1.6681872646533233e-01 2.2174207770703974e-02
      2.8931885081510979e-02 2.6961003777241511e-02
      -9.6485079819246172e-02 -3.9574541845357129e-02
      2.6984413096581599e-02 2.2535968452477368e-02
      9.6286389449333723e-02 4.2539261631404764e-02
      5.6725921734118119e-02 -6.0793207705193149e-02
      1.5950484290219802e-01 1.1569823511068179e-01
      -6.9960810077910981e-02 4.7052651282000195e-02
      -2.0807795021385564e-02 1.9335539836365295e-02
      1.7085321797862732e-01 6.6795564511739208e-02
      -8.3402915836441133e-02 1.4107136836683615e-01
      7.7863836723029572e-02 9.5014000735154688e-02
      -7.1469831190759114e-02 -7.9677576854299027e-03
      1.8104452444111412e+00 -1.6268597727746203e-02
      -3.5260545846769638e-02 -6.6899359925939048e-04
      -6.1234960904990995e-03 1.9821657355254971e-01
      -7.6313197645755289e-03 1.6424300484862323e-02
      -8.5218410848230008e-02 -2.6082029809518120e-01
      -1.2064148300306135e-03 -2.1864200719028122e-02
      -1.5692220496873667e-02 -1.7227639991629417e-02
      5.3281865170675666e-02 2.8880635613910766e-01
      1.9351429155314873e-01 1.8970803683922145e-03
      4.5230241309718006e-02 -1.8937439456387534e-01
      -1.4738695167373743e-02 -2.1392445237684934e-02
      -2.3307796320575408e-01 -2.7712588341723327e-01
      1.5647733183276707e-02 -1.3618949286859880e-01
      -4.5149720649006334e-03 3.0170070911126213e-02
      4.1935832653932095e-02 -1.2025517450002890e-01
      -2.2172445637141236e-01 1.9129967063206135e-01
      3.9043383853346728e-02 1.3829718139219913e-01
      1.9424822494875749e-01 -8.0547767703967446e-02
      -1.3233339461854673e-01 -2.4528603518793064e-02
      2.8722957159995836e-02 2.4658120298378904e-02
      -1.5928060117964823e-02 -3.7321047808953747e-02
      1.6115754648625968e-01 -2.3277602737144165e-01
      -3.1105119170945893e-02 3.1071763388936446e-01
      -2.6119422390139357e-01 -2.9952376087046151e-02
      -3.8564967869182385e-03 -2.6203750535187109e-01
      2.9845594052300706e-01 -3.9281927871823420e-02
      -1.9104055547189289e-01 -1.9739967138765266e-01
      2.6907895682097432e-01 -3.1976375908437188e-02
      1.7129931170043400e-01 2.0480085150342783e-01
      -1.8014062622515073e-01 2.9913250554432454e-02
      -9.1458100965757683e-02 8.8506674832592187e-03
      4.4019019538464238e-02 5.1305263131618872e-02
      4.3606254003115581e-02 1.9103655170313902e-01
      8.9980348755710191e-02 -3.9233513034505736e-02
      -1.4548988116834827e-01 -2.2690792164562296e-01
      -6.4750810424977143e-02 4.7525053309605887e-02
      2.9962244984650849e-02 -3.3548146428660171e-02
      1.2181681333560213e-01 3.6934363581664420e-01
      3.2217021994085049e-01 -1.4258520270511570e-02
      -3.9690938680211653e-02 -2.8299082060722069e-01
      3.5034566732906461e-02 1.7952684465270353e-02
      -3.5222630191932885e-01 -2.1071276781815296e-01
      -2.3827809270079159e-02 -1.4144835263928396e-01
      -1.2410375954935476e-01 -1.8960079734180965e-01
      -2.5890866553785655e-02 -1.6744950954365306e-01
      -1.1923060776929872e-01 3.1176374167045701e-01
      7.1786009548699167e-02 2.1779749752665742e-01
      1.6314767157514407e-01 -1.3424500238487252e-01
      -9.2443049706190175e-02 -1.3110424483114180e-01
      -1.1391399930905420e-01 -2.0441524740045139e-02
      2.7882951010485955e-02 4.9753993664399088e-02
      4.6752354200819302e-02 -3.9878051696256155e-02
      2.5563416627148276e-03 3.5982632348403809e-01
      -2.1973323406523942e-01 -9.4998049429562179e-02
      -2.8588132214412927e-02 -1.1342674174609848e-02
      -1.1204103399139485e-01 2.1730883326497637e-02
      -1.6688405666109560e-01 -3.1779785053203352e-01
      2.0495797197889373e-01 -7.0242044679183657e-02
      3.6882429672182283e-02 8.9401375770119751e-02
      -3.2411905675913018e-02 -1.3074262239551274e-01
      -1.4208426678876571e+00 -6.6946762948399297e-02
      1.3002678954423968e-01 -1.1277100266056396e-01
      1.0122006181681500e-01 3.8762321582330957e-02
      -1.7671335141830966e-01 -1.2076007686485341e-01
      -1.4070176961483885e-01 2.6029777334337384e-01
      -1.2816928967830593e-01 -8.8511932601802734e-02
      -1.1875807476125018e-01 8.3808844245738312e-02
      -2.0232462986134561e-01 3.7384414724763809e-04
      6.5076450831209984e-02 8.8353447161124615e-02
      -1.0448956820658176e-01 -6.4650490235308791e-02
      1.1015057346723824e-01 -1.0598729280807488e-01
      -9.3732163574708982e-02 1.9070868464338395e-01
      8.8088482731459153e-02 1.9696862575939592e-01
      -1.1133036264555260e-01 -8.7113644174839966e-02
      9.7083928443328721e-02 -1.3330450050071233e-01
      9.6742374499799749e-02 9.2563653048947828e-02
      2.3437097019149447e-01 -2.4775030540374854e-01
      -2.1639135667865536e-01 -1.0234175744235650e-01
      -8.3242170034979759e-02 -5.9204711314954583e-02
      -9.9434831170012450e-02 8.9027980257372324e-02
      -1.2079531678853525e-01 -1.0205075701839166e-01
      -8.9702348987970068e-02 1.7669247963762180e-01
      -9.2278875890069681e-02 -4.7936033970292780e-03
      2.2336729532280766e-01 -1.2611230101204604e-01
      1.0186746766659005e-01 1.7808411125106519e-01
      -2.4730815238470324e-01 -1.1806204073044496e-01
      2.4895957669815841e-01 -7.1240248319168753e-02
      -1.6811428325025296e-01 -1.5075424383751312e-01
      -9.8130275352342838e-02 -1.3176975877482738e-01
      1.0149717133632685e-01 -4.8437004654357851e-02
      -1.4377189199634235e+00 -9.2735288711456199e-02
      1.0855364403994401e-01 -1.1204401108475075e-01
      1.2188659836596356e-01 3.0797380890501217e-02
      -1.8426613744064549e-01 -1.1247233322305800e-01
      -1.2675424169735119e-01 2.7525014557637495e-01
      -1.4080367101596936e-01 -9.4360994756065367e-02
      -1.2692292077907566e-01 1.0797618012847549e-01
      -2.3287842447586046e-01 6.0075212413414547e-03
      6.7277925442169234e-02 9.3895366105656408e-02
      -7.9422032666407377e-02 -6.9369342914200660e-02
      1.0948653341843582e-01 -8.9721479091283127e-02
      -9.5151495122618071e-02 1.8546166168211878e-01
      7.8837111923819383e-02 2.0288044737728753e-01
      -1.3002174486617463e-01 -6.9936002666414310e-02
      8.1448273550886338e-02 -1.2035010524421645e-01
      1.1037965709621800e-01 8.8475256564037166e-02
      2.4716045336872952e-01 -2.5148946993512733e-01
      -1.9832517920909334e-01 -1.0153471755531356e-01
      -9.1088907423649793e-02 -7.1320043763505883e-02
      -9.6188686527910822e-02 1.0717031367330820e-01
      -9.4715301880501646e-02 -1.2957045606319850e-01
      -1.1240587389340183e-01 1.6363200351694224e-01
      -9.2720966294007071e-02 -1.1181636631214466e-02
      2.3039979959465542e-01 -1.2696719790531166e-01
      8.4666986007669726e-02 1.9100481872827144e-01
      -2.2130757998230807e-01 -1.1280845872513903e-01
      2.4048349106153050e-01 -8.0858170275842550e-02
      -1.6525437683932104e-01 -1.5461941042795424e-01
      -8.0350841773069559e-02 -1.2231780878825982e-01
      1.1664361385549021e-01 -4.7899245645624311e-02
      4.6846061283787911e-03 1.3409180097493183e-02
      -9.2657227884274471e-03 -1.1457384500274810e-02
      -5.2203616700109050e-03 -3.3213214373278362e-03
      -7.1785342668472000e-03 8.7028061020887927e-03
      -1.0238224176206907e-02 7.9652148184125131e-03
      -5.9751220868022982e-03 -1.0187005733265806e-02
      1.1460526751516910e-02 4.0943288661573294e-03
      1.1031489968025471e-02 -5.9784576809479521e-03
      -1.0052816741862217e-02 1.3089622518657043e-02
      1.3679291349864989e-02 -2.4044760049711724e-03
      -9.5351753059331260e-03 1.5518773059891027e-02
      -3.8117277184157384e-03 1.4470102368564481e-02
      1.8257897682847238e-03 -1.1918375440213486e-02
      9.1641842681376238e-03 -3.5090443835652926e-03
      -5.2843991885312656e-03 -3.8465057994272237e-03
      1.1075108595848878e-03 -1.0812746079822111e-02
      -1.4304991283476167e-02 -1.5064180067706464e-02
      5.9690667418508883e-03 -1.1978196619705544e-02
      5.1139195498940597e-03 4.1521886479830043e-03
      -4.0153578506916593e-03 -1.3469581402633483e-02
      -1.3352200109669398e-02 1.6163899136221717e-02
      -4.5638754030828685e-03 1.5008222540866577e-03
      6.5436513380794240e-03 1.1405349904512500e-02
      -3.7467638500639729e-03 -1.3533857523350902e-03
      5.3609787073285956e-03 -4.1756425432024971e-03
      -1.3576390585409291e-02 -1.2295145574044134e-02
      -1.3136124153244775e-02 -1.2864167339502713e-03
      -7.5440441001465098e-03 -1.5674987646453503e-02
      -8.2028685994938368e-03 1.0870336933419792e-02
      3.2543723277239501e-03 -8.9661206464538706e-03
      1.1252253207220989e-03 -1.1894185607861523e-02
      5.0687979436274351e-05 -1.0992293841148422e-02
      -3.9233414315301730e-03 1.2396484301257052e-02
      1.4812890178284769e-02 5.7748765639085188e-03
      -4.4237294196878447e-03 -8.0862165455052783e-03
      1.4430991375223261e-02 -1.2279220763443763e-03
      2.7481657089788889e-03 1.4634827831994613e-02
      -8.7253902649417851e-03 5.1525360155784527e-03
      9.3618247492714673e-03 2.8656537691247125e-04
      1.3949483931731609e-02 4.4672721461179645e-03
      -4.2412387037042108e-03 -1.3011014546574438e-02
      -8.4291513479281665e-03 -1.2801898358846936e-02
      -1.5875789136046665e-02 9.4602422058466269e-03
      -5.0882580909841161e-04 1.1383862601775860e-02
      -2.5460201720760328e-04 -3.2201471165934151e-03
      1.5859682776994016e-03 6.6263083450999703e-03
      4.3326239821694489e-03 2.0204795318655667e-03
      -5.8520020809356040e-03 1.1130493363961595e-02
      -3.1857050305048977e-03 -6.3854212373058890e-03
      -9.0475722335515499e-03 -1.5152475860809207e-03
      -1.6401714970532544e-02 1.0313454165416382e-02
      5.5891625933877087e-03 -3.3265577572834853e-04
      -1.2327615900527477e-02 -4.8184168108374231e-03
      -1.2746441353909120e-02 6.1672308171676520e-04
      -6.6465168364222603e-03 5.0121299585691179e-03
      -5.9992967199184255e-03 1.0711734612056111e-02
      1.4451585461963670e-02 9.5237758279059087e-03
      -2.1299620387118371e-03 7.2407897375197216e-03
      1.1734771812196525e-02 4.3886472194065379e-03
      6.9160595272695011e-03 -9.2241315175529571e-03
      -4.5337551113106816e-03 8.7128727376543716e-03
      -1.7917540319751081e-03 -1.0143504695106130e-02
      -1.0712266502228814e-02 -4.3287262741496801e-03
      7.7495715996635612e-03 -4.5320666207836740e-03
      3.7463930552908349e-04 -8.9878789833166047e-03
      -8.2405709215807831e-03 9.6814624880150642e-03
      4.2469889086079425e-03 -1.3675106216026772e-02
      -1.3492883552823260e-03 -1.2218052400053048e-02
      1.4594033350172316e-02 -4.6780787368151276e-03
      -1.3253501952618570e-02 1.2790627736214793e-02
      -7.8193008079332083e-04 1.2468286399598516e-02
      1.7596585396173119e-03 -6.0441463271429744e-03
      6.0899097035159010e-04 -3.2441905193689212e-03
      1.5313338035447320e-02 9.3740467464987955e-03
      7.0220785192645619e-04 -2.6463400751074637e-03
      5.5487603088573709e-03 -8.1221509245147996e-03
      -1.3393157738476828e-02 7.1607863947679958e-03
      8.5528447123343742e-03 2.6303152598278414e-03
      -5.8004770440496286e-03 -6.6750391209593910e-04
      -6.2260456902319475e-03 3.0198703478506546e-03
      -3.9054565106471842e-04 1.5186375802462243e-02
      -1.6049987035348254e-02 -7.1354382204241390e-03
      2.1435406832521057e-03 1.1274064986360674e-02
      1.5900112389353835e-03 -1.3669695506705441e-02
      -1.0832628060968241e-02 1.3545123441218878e-02
      1.4841428172582251e-02 4.7071103162841903e-03
      4.4316055806915841e-03 8.9196072559618034e-03
      9.3092006678064977e-03 -4.1770790527118507e-03
      1.4454952230144955e-02 -8.0845487362182986e-03
      -7.7140970101298304e-04 -2.9365797982301854e-03
      1.2832135537919347e+00 1.0082629466952631e-01
      7.7586699850491353e-02 4.3223323523914774e-02
      -1.5664739260502433e-01 1.1350654023479936e-01
      -4.2622882861317470e-02 1.8425161477709404e-01
      -6.5015855744249137e-03 1.6859989598428476e-01
      1.6441051194885331e-01 4.3643778199299037e-02
      3.8424882050954082e-02 -4.8731330032018530e-02
      -9.7950710367731383e-02 -7.9715247633388678e-02
      -7.8567571848665349e-02 -4.5581447430570729e-02
      1.3424970220083418e-01 7.9833809757870688e-02
      -1.3738631800717294e-01 5.1521714076590064e-02
      2.0060672435391003e-02 9.6648278192264472e-02
      -4.9013407292468614e-02 1.7887840525587800e-01
      1.3716090850636697e-02 1.0917568447609929e-01
      -5.2123963612776755e-02 -2.1186294649817638e-04
      -8.4897394581730276e-02 -8.0402469817079089e-02
      3.1269848383501481e-01 -2.4839610472380064e-01
      -1.4173731420553767e-01 1.3014359373726638e-02
      3.0678839580810139e-02 3.2891591176033727e-02
      -9.7936500223779949e-02 -3.3817337616340225e-02
      5.2813269768668084e-02 7.9577139589610095e-03
      9.9107316641918089e-02 6.7136182208977921e-02
      6.2671966772807342e-02 -8.1583691372982756e-02
      1.6995858615484322e-01 1.3059452114504785e-01
      -6.9821433695998178e-02 5.3058630179726708e-02
      -3.6548654569734093e-02 1.7692704278004737e-02
      1.7501666268983837e-01 6.9621718638441077e-02
      -8.7626678257760215e-02 1.3791238699802630e-01
      8.6940182311205455e-02 8.6972674538652192e-02
      -8.4524698194352516e-02 -9.2719441425414256e-03
      1.0704375692745636e+00 5.7516584623426625e-02
      -2.1977964001359857e-01 -3.5808813748924008e-02
      -5.3882148931104934e-02 1.8841777829128434e-01
      2.5820496722985525e-01 7.8920412100278531e-02
      9.4593729386429903e-02 5.8383655235107034e-03
      7.4738252794370422e-02 -2.4573936194533259e-03
      -1.2698370200222329e-02 3.5442195067227323e-03
      2.3208549238551043e-01 2.0706919717719999e-02
      5.1023522855251142e-02 -1.0581647297242360e-03
      8.2354062143474599e-02 -2.7050550971577433e-02
      -5.8819200362863422e-02 -2.6608926021368150e-03
      -6.8091680137230423e-02 1.1918530490330526e-02
      4.5609371487989213e-03 2.3783735696227735e-02
      1.2563311890819875e-01 2.0156290076032413e-01
      -2.7431669741402962e-02 9.0864826184145139e-02
      -2.4827760776210772e-01 -3.4191196640480440e-03
      8.1638216538922614e-02 -2.7505728683540228e-02
      1.1228717751921019e-02 4.4908399213720918e-02
      5.4532655335513137e-02 7.0871024845686359e-02
      -1.6739943528336389e-02 -2.7618289412104906e-03
      -2.2259620220134179e-02 -3.4070840443174613e-02
      2.1153811434070963e-01 3.4294770857816407e-03
      1.5667086582706786e-02 2.4782754485427466e-02
      -3.9455795927582377e-03 1.4029769766911523e-01
      -1.8145747285330725e-02 6.6364476763131498e-03
      -7.4180293726539383e-04 -3.0719824230269543e-02
      1.0855581155380526e-02 -2.0076975837835374e-02
      -6.5877569363497453e-03 1.3727696158298855e-01
      1.6595316751113898e-01 2.2032156969103703e-01
      -1.7926460201307207e-01 5.2983640752576118e-02
      -2.0823736831320967e+00 -6.1970738028763635e-02
      -3.5514877679390489e-02 -1.2488351561105024e-01
      1.3892464351879114e-01 -3.5149643962764515e-02
      2.7643789979531465e-02 -1.3792437508042238e-01
      -2.7408990409523606e-03 2.2077631073376813e-01
      -1.4631536874631557e-01 -8.8266782137535651e-02
      -1.0549643922061024e-01 1.1102841915511777e-01
      -4.2506959008292412e-02 -8.0181679428683830e-02
      2.6147211137193013e-03 8.6387301718662310e-02
      -1.0477640480139377e-01 2.2975830776601363e-03
      1.3685713633666033e-01 -1.0687945665066234e-01
      -2.1521947664963126e-02 2.5195268468182519e-01
      7.8363474083610607e-02 1.5847476829854565e-01
      -1.8188943262848700e-02 -1.4416226974601562e-02
      7.3367185655157763e-02 2.0277733964210929e-02
      1.0962713017580421e-01 1.5022715395644171e-02
      5.4356865319955545e-02 -1.4685622728568670e-01
      -1.8248162936400050e-01 -2.1744741760615544e-02
      -4.0742403170125740e-03 -3.1053275049472539e-02
      -2.5308062275023246e-02 8.5547197261512858e-02
      -8.0138601021449998e-02 -1.0493421953272231e-01
      -1.1079633296739232e-01 2.1726469831575607e-01
      -7.4527878894566871e-02 -8.7697039928405746e-02
      2.0927096612137666e-01 -8.2665554410174452e-02
      8.2152634843120131e-02 2.4520257275821292e-01
      -3.0527814617891597e-01 -8.5941426656165637e-02
      2.0609238253472612e-01 -4.8105432916590507e-03
      -2.5317316679061375e-01 -1.0131867859155935e-01
      -9.1882341937373921e-02 -1.1292290233172057e-01
      1.0479720753822609e-01 -1.2743047846237417e-02
      -2.5124866521591169e+00 -3.7938892546608281e-02
      1.3590987047823830e-01 -7.0529022212476630e-02
      7.1657410534656546e-02 -1.4371102370625374e-01
      -1.2793920572920847e-01 -7.5476373636681582e-02
      -2.4301421361955101e-02 3.8531077324016177e-01
      -7.9251260403366039e-02 -4.9746379801432178e-02
      -5.4246966239120363e-02 6.2958341693495748e-02
      -1.8369546849481699e-01 -2.5188197548669100e-01
      -1.4216194810218694e-01 5.1681945327888335e-02
      -8.8455604665813661e-02 1.2680491255116561e-01
      8.1552695740498879e-02 -5.2022438421670640e-02
      1.2697765556094318e-01 3.7838042645488451e-01
      5.0894276945597693e-02 2.6683835293905417e-01
      -9.5667453253341125e-02 -5.5510699967297884e-02
      3.1514657237142488e-02 1.6209796898352447e-02
      2.4593279730526069e-01 -1.2360412570263238e-01
      1.0995237300946796e-01 -2.9424120176450447e-01
      -2.9434163309479894e-01 1.1653080097813989e-02
      5.0510346531476069e-02 -2.1222509287580151e-02
      -7.6138791423966901e-02 5.4858186690921268e-02
      -3.8789940740988599e-02 -5.3142179952649346e-02
      -1.9671508108949817e-01 3.0215557177684227e-01
      -5.1220629051163036e-02 -2.4724150213693716e-01
      3.6876259897238056e-01 -6.1142447769487580e-02
      7.4641692229519455e-02 3.4607440220376445e-01
      -4.0463787310618937e-01 -4.0234216873658031e-02
      3.3994756882677740e-01 1.0884506733013483e-01
      -3.4464278779402796e-01 -6.7097845510155393e-02
      -1.9742359371717708e-01 -2.5714960577601637e-01
      2.3073936936685219e-01 -4.2664762032812803e-02
      1.7819073402607235e+00 3.6786742375317216e-01
      -2.6979787581295350e-01 3.4696617125802925e-01
      -4.5691058210991353e-01 2.4607765631820153e-01
      4.8796273737114054e-01 4.4306786633091311e-01
      4.1366954403750278e-01 -3.7137839059327410e-01
      4.9961770241559023e-01 3.4339718721543927e-01
      3.3462167484284583e-01 -3.2137710109054263e-01
      4.6533206785698000e-01 1.4340167102430007e-01
      7.8214740295827881e-02 -3.4271438654829406e-01
      4.1708312695495797e-01 -1.0721602706652197e-01
      -4.4131842086391770e-01 3.3962653788133795e-01
      -7.7060535421161258e-02 -3.1244017095424975e-01
      -3.0185068407490923e-01 -2.8580486031255198e-01
      -4.4581549990736361e-03 -3.0574058660686552e-02
      -3.4235496453365788e-01 3.9637212458360388e-01
      -3.9076464768109326e-01 8.6730628942132071e-02
      -1.9038721655906157e-01 2.6520809632586334e-01
      2.5112218688165810e-01 3.8423889625841678e-01
      3.4021714732418107e-01 -8.5254899484372329e-02
      -1.8141987432517509e-01 -3.5893002964877080e-01
      3.2494746628079191e-01 3.1986930378668671e-01
      3.9879402451498125e-01 -2.8285117506999607e-01
      3.5051774137011688e-01 1.3655827509797280e-01
      -3.4944673245189106e-01 4.9006669667747921e-01
      -3.4093849820476185e-01 -1.8033626914084355e-01
      1.1218432631074515e-01 3.4883212072404840e-01
      -3.4759062250460310e-01 -6.6375307529669442e-02
      2.7119114899664298e-01 4.5922123110127872e-01
      3.9222057602286109e-01 3.9842974308565277e-01
      -2.6201132816746792e-01 -1.4091583664521712e-01
      1.3475281284515972e+00 1.3429047661193949e-01
      -1.5404408424396657e-01 8.3389611792101678e-02
      -1.7263796999837017e-01 2.9995380128067361e-02
      2.6084383162933333e-01 2.1010110251976336e-01
      2.0506533234663735e-01 3.9835039107865219e-02
      2.0231222405989982e-01 1.0589192406707477e-01
      9.7496517000682098e-02 -7.4174897179525995e-02
      2.1044849147115183e-01 -1.7189893233295006e-01
      -1.4683280537554347e-01 -1.0189386952624564e-01
      1.4744530525826707e-01 1.6089122416646223e-01
      -1.6663775954463972e-01 9.5548129387260983e-02
      1.7695613111406619e-01 5.3753204351002386e-02
      -1.0756645072186295e-01 9.0653663922500138e-03
      1.6181445584210188e-01 1.9528312851328966e-01
      -1.2600201099165090e-01 2.1082211588879632e-01
      -1.3519852062799559e-01 -2.0331573371770886e-01
      4.6576516718468686e-03 -8.8771869655335216e-03
      -2.3550776859488715e-02 1.6935026450820298e-01
      1.7664787703312432e-01 1.2445382983258094e-01
      1.1449826148466914e-02 -9.9556321228872147e-02
      1.0827746615751949e-01 9.9940999787795456e-02
      1.3783819867500616e-01 2.8383868764014424e-02
      1.1959623050441531e-01 -1.8528361843498925e-01
      2.2141107924047179e-02 2.4867671465282268e-01
      -1.2351414531447494e-01 2.5749711292939247e-02
      7.3672088811906613e-03 1.1878615079880474e-01
      -5.3775382568406879e-03 1.6769831854264455e-01
      -6.2963074301196034e-02 2.6784350474437379e-01
      1.1709302795870383e-01 1.3198658521817824e-01
      -1.3100517956488136e-01 5.7283308237729591e-02
      -1.8148487020899839e+00 -8.0736438077181859e-03
      5.6977950515838517e-02 -1.3430578971428573e-04
      2.2165576732656296e-02 -2.0466947727493465e-01
      1.3838679199417468e-02 -8.3655578746348880e-03
      9.6789312592613724e-02 2.3684810099821108e-01
      -4.1300166868569101e-03 2.6317679740266803e-02
      2.7264960167132205e-02 1.3383167864733852e-02
      -4.9878954710086090e-02 -2.9611565196906997e-01
      -2.0605421721348990e-01 -8.5654685483275705e-03
      -4.7543318224851153e-02 1.9751084560297844e-01
      1.9766079650990566e-02 1.9149421631763166e-02
      2.4331894844949897e-01 2.6777004965094248e-01
      -9.8711915834651422e-03 1.4850324609163318e-01
      -1.0493292031326693e-02 -2.3072768213951021e-02
      -4.2877926028708227e-02 1.1815860057241176e-01
      2.0075998103149661e-01 -2.1229640004423952e-01
      -2.6447808631906978e-02 -1.4209423583970704e-01
      -1.7915867100557520e-01 1.0128220223027025e-01
      1.0430690062675857e-01 1.8370332009536711e-02
      -3.3079728766384126e-02 -1.2774571990666903e-02
      1.4218351289610172e-02 2.6052445391897851e-02
      -1.8137154073307793e-01 2.1857843338936078e-01
      2.5955275777391328e-02 -2.9162867007815796e-01
      2.5203596193603395e-01 5.1687588854422047e-02
      1.2533731051540696e-02 2.6101719427317449e-01
      -2.9387500066785333e-01 1.3142496801074113e-02
      2.0004074752104997e-01 2.0999301663884409e-01
      -2.9236062730063933e-01 2.3401340043667816e-02
      -1.6061248658912375e-01 -1.8280623396512433e-01
      1.8178540812738361e-01 -5.1755946733014601e-03
      -1.0596040749503788e+00 2.4360654030357691e-02
      2.2659374622106448e-01 4.5942239198928043e-02
      -5.9288065214629850e-02 -1.7322518308740864e-01
      -2.2095136417977315e-01 6.2685360910390064e-02
      2.2352464235679201e-04 2.6175865550261185e-01
      6.1273736865115003e-02 3.1040146737560670e-02
      5.0389793376480745e-02 -3.6911643832406693e-02
      -2.3992038712640301e-01 -2.5052794550070034e-01
      -2.1930080382010775e-01 -2.7402787746740796e-02
      4.5894517479667712e-04 1.9798549914156108e-01
      -2.7559201753466798e-02 5.2192674226496788e-02
      2.3150275987820218e-01 2.4766710853260321e-01
      -3.5531940053266979e-02 1.7464846482896818e-01
      -7.9125659093943243e-02 -8.0548613050426654e-02
      -5.6728303770770941e-02 3.4337811982154492e-03
      2.5175758802388754e-01 -1.9227943204756745e-01
      1.3108509137905508e-01 -2.3465578359467071e-01
      -2.2031767485586676e-01 3.2272765056862260e-02
      7.1016702865056527e-02 -2.6602665986088351e-02
      -7.0542413993565950e-02 -5.1937302524966956e-02
      4.1338032309304822e-02 3.5498762220472470e-02
      -1.8236060951396260e-01 1.9003853960305084e-01
      2.2726598094222322e-02 -2.7072499054584853e-01
      2.9130463300568948e-01 1.4776984773411370e-02
      -3.0807957279085769e-02 2.0179573775133272e-01
      -2.4166017255696229e-01 5.8503863458247166e-02
      2.5302044887521363e-01 1.6617692387980981e-01
      -2.3889199610355358e-01 8.0914043372011732e-03
      -1.8316599344573800e-01 -1.9487912418047648e-01
      1.7279273651198140e-01 -4.7259260390325630e-02
      -1.8428147121490883e+00 3.1083492936859036e-02
      3.7678187551662484e-01 3.3353325199384630e-02
      -1.1730134743254615e-04 -1.2153792873021003e-02
      -1.4076301846174266e-01 2.9930057410103003e-02
      -2.6970216003116659e-01 2.1891833001188810e-01
      1.5508093840469523e-02 5.2364331143627180e-02
      4.9075223247090058e-02 -2.1255021169166746e-02
      -1.3937733222986173e-01 -9.7182235509210943e-02
      -2.3185066386584643e-02 -3.8822178053484355e-02
      -2.5077296769009039e-02 2.7766149872517406e-02
      4.5519329982150036e-03 2.7999798474645215e-02
      2.3758898040810474e-02 1.7452542189951872e-01
      -2.4196895839031132e-02 1.5401768906130112e-01
      -8.4405334219369951e-02 -4.6516973129132298e-02
      -4.2334491063982835e-02 -2.4441337619231052e-01
      1.3892215189521159e-01 -1.1727797777214957e-02
      2.9606848249437295e-01 -2.6862450858601594e-01
      -1.9398086627927466e-01 -1.8883231004048109e-01
      -1.5362429991074503e-01 -4.6455421204293766e-02
      -1.3285290275252754e-01 -4.5657242802452397e-02
      3.9320125427229936e-02 5.1393350115934565e-02
      -9.4900404100009286e-02 7.3176298757383185e-02
      3.2753451980179350e-02 -1.0459020543150310e-01
      1.7197871080275701e-01 -5.4875106664140597e-02
      -2.5103923512061858e-02 1.0214884956107803e-01
      -1.6865456971248641e-01 3.9096277682878683e-02
      2.4001852363565693e-01 1.1142702331579928e-02
      -1.7821465059026587e-01 -1.9894179117817105e-02
      -1.0582964142452191e-01 -1.2655740739051580e-01
      1.4002985485535649e-01 -1.2961430870421745e-01
      -6.8789903127520002e-01 3.6518304788385879e-02
      -1.1846718507264456e-01 1.9047171834243960e-02
      3.0749110854305425e-02 1.7024937827689740e-01
      3.2130410464498660e-01 -3.1181222610070936e-03
      -1.5800359327179016e-02 4.1778175613126269e-03
      1.8255686312240817e-02 5.9133670997054660e-02
      5.4013272488056353e-02 -1.2141312999975852e-02
      2.7989587176435077e-01 1.5806049239311884e-01
      2.1458830027511139e-01 -5.1536358935437704e-02
      -3.7792303233119425e-03 -1.5324045509070322e-01
      2.5095581591568820e-02 3.3586584997567462e-02
      -2.0314863832930147e-01 3.4003627286006026e-02
      -2.8240656284498379e-02 -1.1767897078620016e-02
      -1.5547700328929482e-02 -1.2711119116048535e-02
      -7.3869098899317087e-02 2.8406058415007318e-02
      -1.3020120700161084e-01 1.4353114263592207e-01
      1.2187148004847446e-01 8.3185919966569807e-02
      2.5640761587147936e-02 -6.1053406498184299e-03
      2.7533126985888112e-02 -6.2806320802727231e-02
      -1.3979108307443386e-01 -5.0112883264115143e-02
      3.7658159257425113e-02 4.1655167950056783e-02
      6.1838787937173657e-02 1.6284220607634262e-01
      7.0897813633781101e-02 1.6335404700176942e-01
      -4.6928319207044940e-02 2.8584881765189318e-02
      -3.9471850623557542e-02 2.2377487214390029e-01
      -3.4093709674962580e-01 4.0905499730498139e-02
      -6.4990570380078902e-03 -1.6254965888963302e-01
      -2.4676285266935504e-02 6.4084972032454876e-02
      4.3704836345152931e-02 1.0347999258164438e-01
      -4.0503392777628794e-02 -1.0198546462658621e-01
      -2.0720847578462021e+00 -8.0507097486549981e-02
      -1.8686479282911266e-02 -1.0027585454861775e-01
      1.4299722200007309e-01 -3.0398436699554332e-02
      2.8852823346971181e-02 -1.4727429507278217e-01
      -4.4903174839068484e-03 2.3201243763325258e-01
      -1.4016562445138792e-01 -8.9436600773793021e-02
      -1.0794081984210092e-01 1.1347018972922779e-01
      -2.3012609104782408e-02 -8.7288949115339062e-02
      -1.0138435526184594e-02 8.5164731009408259e-02
      -1.2566610773675760e-01 -1.5198936865562745e-03
      1.3871002155790357e-01 -8.2727041604423818e-02
      -1.2000068379918412e-02 2.4668262756917725e-01
      9.4060530370578238e-02 1.6586414387423312e-01
      -1.8784881086434314e-02 -2.4901163323899640e-02
      6.0608557902580219e-02 1.9079327632143397e-02
      1.1895456565624775e-01 -1.1733898513103637e-02
      5.6958250889765256e-02 -1.4999702803492446e-01
      -1.6498958266666114e-01 -2.0251354248632458e-02
      3.1424162557835578e-03 -1.0484901421521631e-02
      -5.2361588168320421e-02 8.7281397034907393e-02
      -1.0800864196310474e-01 -9.3704398200015221e-02
      -9.7746043533027099e-02 2.0867988865932502e-01
      -6.7372407121983099e-02 -8.3419322150215275e-02
      2.3828603381183094e-01 -8.1359056054463835e-02
      8.7124090491305317e-02 2.4102882220217439e-01
      -3.1599721222406385e-01 -1.0455918284618604e-01
      1.8998201938114628e-01 2.0718667345149544e-02
      -2.4911582879047928e-01 -9.1414539136286804e-02
      -1.1791093398913059e-01 -1.3746629751370498e-01
      1.0576304078307393e-01 1.4837042233790041e-02
      -2.5027339201245837e+00 -4.8592181353882512e-02
      1.1963564974799357e-01 -6.1354310447598738e-02
      7.4718180231264364e-02 -1.3622905808367500e-01
      -1.2560282879643042e-01 -7.4707309576371478e-02
      -2.5561555355331886e-03 3.9552855558888195e-01
      -9.6207746412333386e-02 -5.1961680180456549e-02
      -8.0036525819623533e-02 8.3657585749880567e-02
      -1.6541457764934964e-01 -2.3362374649381129e-01
      -1.3468895037468745e-01 6.2758956827269119e-02
      -8.8480433981301412e-02 1.2003576245316488e-01
      8.2960482296702345e-02 -6.1174447424657170e-02
      1.2219919135326024e-01 3.6234289747151621e-01
      5.1830279187711749e-02 2.5111633682519496e-01
      -7.4667269315364479e-02 -6.5947340521400305e-02
      3.2090053894054525e-02 2.1191205518841925e-02
      2.5149395033198391e-01 -1.2628694593404979e-01
      1.1622417632730385e-01 -2.9571915616965461e-01
      -3.0773981475419060e-01 1.5270317090676399e-02
      3.4665867857949770e-02 -4.5968444710069063e-02
      -9.7879791690821089e-02 5.2824800605514921e-02
      -5.7225148775240889e-02 -3.8949757356723749e-02
      -1.9471930463079964e-01 3.2416484145584612e-01
      -4.7001702184823246e-02 -2.6364063304439872e-01
      3.9167751437894127e-01 -4.0640871130085583e-02
      7.6441120984520119e-02 3.5135733556980725e-01
      -4.0154346803217011e-01 -6.1956302303510048e-02
      3.3092786854145045e-01 1.0889120919130607e-01
      -3.5845605858454227e-01 -7.9112696775633692e-02
      -1.9733356050116188e-01 -2.5591883122960180e-01
      2.3277244326801189e-01 -2.5787268788340784e-02
      1.3456876258863464e+00 1.3967827920429027e-01
      -1.5145018904214361e-01 8.1461067369184889e-02
      -1.6262720774143441e-01 1.3954498594157269e-02
      2.6505347947494118e-01 1.9732625449340382e-01
      1.9621669492303670e-01 3.2678698066925416e-02
      2.2768397914003422e-01 1.2173854524310780e-01
      1.2430082836741199e-01 -9.1267439912526976e-02
      1.9934701448548650e-01 -1.7195968717894461e-01
      -1.4441854923670069e-01 -1.0760700985568718e-01
      1.4564159876369084e-01 1.7946155130149360e-01
      -1.5674535968476289e-01 1.0605575466274715e-01
      1.7013247868847600e-01 6.0470395223360687e-02
      -9.2334556797545139e-02 8.4201081914902203e-03
      1.5448452967551082e-01 1.9944388463664581e-01
      -1.1559799751316217e-01 2.0352910891383288e-01
      -1.5173019586379322e-01 -2.0256280624439491e-01
      1.6747148970208858e-02 -1.1372579733315289e-02
      -3.4359285700490618e-03 1.7853425805634834e-01
      1.6693095406199424e-01 1.0987140926279736e-01
      5.1615967542777670e-03 -9.4968235269307616e-02
      1.1405255380446760e-01 1.0457238632105299e-01
      1.4477642247682423e-01 1.9427040783502287e-02
      1.3220963598778501e-01 -1.5970808711480361e-01
      2.3922395293454531e-02 2.3815971127122745e-01
      -1.2706770630516370e-01 1.6179636336079644e-02
      3.2116271033939610e-02 1.0264939012718298e-01
      -7.2243607899680781e-04 1.6471711559977859e-01
      -5.4827131156777072e-02 2.6017456926237803e-01
      1.0797856469066486e-01 1.5094715122285332e-01
      -1.1064631075999581e-01 3.5460545135919119e-02
      1.4326916556116611e+00 7.2156143324961827e-02
      -1.0808279907360958e-01 1.0170556191962700e-01
      -9.5906982356653458e-02 -3.0086683701739159e-02
      2.0194322192944478e-01 1.1338981703296866e-01
      1.3062184178733768e-01 -2.7205317776763610e-01
      1.1904974714333937e-01 9.2399222310858273e-02
      1.3478462161356594e-01 -8.3387593493479850e-02
      2.1649057769841443e-01 -1.0420690543905490e-02
      -6.6994886434732448e-02 -1.1076438501881652e-01
      9.2211759856633685e-02 6.1710257484181824e-02
      -1.1157369862328574e-01 1.1345658552213576e-01
      1.0595084120802523e-01 -2.1013802658299593e-01
      -7.8346772955280738e-02 -2.0595743178114870e-01
      1.1343284858020025e-01 7.6356939080182012e-02
      -8.2145712229561574e-02 1.2097509497089912e-01
      -1.0271900632298997e-01 -6.9006602795416511e-02
      -2.3670537837154362e-01 2.7556581410899006e-01
      2.1416533640502591e-01 1.0744211119308263e-01
      1.0321120223797024e-01 5.7023069598556853e-02
      9.3647219333540171e-02 -8.8500829686393112e-02
      1.0015249857778025e-01 1.2858851236117647e-01
      1.1165941256497404e-01 -1.6858521224626910e-01
      8.9967875150428783e-02 -9.0715455242291691e-03
      -2.4780322863631929e-01 1.2466948226588659e-01
      -9.0025881761210180e-02 -1.8411546044884872e-01
      2.4396925788415111e-01 1.1579497072754139e-01
      -2.4527716871455343e-01 8.1606334298745031e-02
      1.7716459257967243e-01 1.5164412061998461e-01
      8.7244036664249208e-02 1.1840127478369189e-01
      -9.2019001195109640e-02 4.1758027138820597e-02
      2.1285971429766590e+00 7.5730928280797513e-02
      -1.6002004067003334e-01 3.7127424727581723e-02
      -1.4228439316219155e-01 -8.5215500031002810e-04
      -5.6944544434427716e-02 1.4869373557548876e-01
      2.3412565910189867e-01 1.0580427441429545e-01
      1.5585852533201755e-01 3.5765889469864726e-02
      1.2227081775625174e-02 -4.0197348344006248e-02
      -9.8739932487207485e-02 -1.4243079762495686e-01
      -1.6960080661712731e-01 -2.6013655662780376e-02
      1.2324769001315802e-01 1.6133723187173213e-01
      -1.1832694806222969e-01 3.7268776804083546e-02
      1.4210097309681302e-01 5.9496005139683728e-02
      -4.0243461835719217e-02 1.2232267162516867e-01
      4.4654617327473105e-02 1.0129093783250875e-01
      -5.4441899900303944e-02 2.3749288917855813e-01
      -3.0981894302547962e-02 -1.4102485308950893e-01
      6.5756438540561402e-02 -1.1118343770949242e-01
      -9.3696469013772807e-02 2.5508153519048227e-01
      2.1795790977644644e-01 5.5029723672894743e-02
      2.9349146289067610e-02 -3.5073378003749781e-02
      2.7075194807580458e-02 2.6745359549396584e-02
      6.7607151917097402e-02 9.4206030321480796e-02
      3.6763768967170610e-02 -1.3182678475547119e-01
      1.1272662255912684e-01 1.8241341438798325e-01
      -6.5889672793636736e-02 6.0608836487343332e-02
      -1.8973460905218370e-02 1.4057561369350643e-02
      7.2141920097052642e-02 1.4819510623879850e-01
      -4.9956943529221656e-02 1.5605200859602314e-01
      6.7534120494560895e-02 6.3978234259563255e-02
      -8.5431211769764967e-02 6.3271350818239758e-02
      -1.0641414127329134e+00 2.5824309734132758e-02
      2.3338353268469719e-01 2.8684698832019573e-02
      -3.3776068801951983e-02 -1.7107683389692657e-01
      -2.2592544460926386e-01 7.1004685328682898e-02
      -1.0363644841443061e-02 2.6189629517595892e-01
      6.8796047723994461e-02 3.2168638575368239e-02
      3.7390927160924910e-02 -2.4667019149965868e-02
      -2.4589908561788082e-01 -2.7525306893831381e-01
      -2.2051702008425533e-01 -4.2208736735708796e-02
      1.6861335947767552e-03 1.8037362809106713e-01
      -2.1850737091915946e-02 4.5683216990056036e-02
      2.1961694169054960e-01 2.5287126652975700e-01
      -4.3869985296684490e-02 1.7419076864773159e-01
      -6.9684920042691292e-02 -7.8868644535250915e-02
      -5.0799748968142655e-02 6.6635215238339471e-03
      2.4618307578914680e-01 -1.8056167331625692e-01
      1.2559100957394251e-01 -2.4528170107933950e-01
      -2.3527985778607172e-01 5.4402186125265969e-02
      6.1070287921358928e-02 -2.2886254236116278e-02
      -5.1418232467611187e-02 -5.9972386543623940e-02
      4.9041294672752499e-02 5.8028437047503580e-02
      -1.9061218827584553e-01 1.7826511266851403e-01
      4.6026983284871974e-02 -2.5868006498978285e-01
      2.8520761809633932e-01 2.0238327486342307e-02
      -3.0192380400999926e-02 1.7654630283497749e-01
      -2.1760315309836695e-01 5.0173528934375294e-02
      2.5244334858337475e-01 1.8951339488631308e-01
      -2.3422294734368868e-01 1.7767535810124135e-02
      -1.8535608722791388e-01 -2.0763713366611142e-01
      1.7581652913613594e-01 -4.9902154245410280e-02
      -1.8839281865327122e+00 -4.7461729268808220e-02
      2.4848398206569319e-01 -7.0003305762074391e-02
      5.4798274983021429e-02 -1.2529923245384980e-01
      -2.9385609202215790e-01 -2.5084925578230655e-02
      -9.6667623691971294e-02 4.0489197231797919e-01
      -5.3879998661724250e-02 -3.5288055426208734e-02
      -4.6738709216236053e-02 3.6124618524869048e-02
      -3.3194359018715297e-01 -1.8858973315628752e-01
      -1.0479290013619079e-01 2.9073198878786129e-02
      -5.5071804332028726e-02 8.5919933739230139e-02
      6.1826386670354186e-02 -3.8636877124038689e-02
      7.4436783526365555e-02 3.1855656336142252e-01
      4.9896309364138157e-02 2.8414827528750158e-01
      -1.5410924327228365e-01 -1.3085691539548935e-01
      4.5921214242507537e-02 -7.2212261760146515e-02
      2.5727638014236137e-01 -6.5529574869743007e-02
      2.7553192851983416e-01 -3.7370466101101529e-01
      -3.1970628755242320e-01 -3.7567212318648097e-02
      -1.1371212432590171e-02 -6.8769158773777025e-02
      -1.2786560342732853e-01 5.3370660531878243e-02
      -2.8359528708234102e-02 -5.7274562162369078e-02
      -2.0789877830867454e-01 2.5826233115891883e-01
      -4.0414873597424322e-02 -1.8482202921378807e-01
      3.9520878351753319e-01 -9.2008571287521185e-02
      5.6470893156198472e-02 2.6248513964728848e-01
      -3.5468165504505300e-01 -4.1478948881772885e-02
      3.6355280808592005e-01 8.6505575802723361e-02
      -3.0032951211974740e-01 -9.4552090171139164e-02
      -1.9323186673486975e-01 -2.5372994056730525e-01
      2.0953138448187372e-01 -5.8395741899998417e-02
      -2.4504901736738720e+00 -3.2801560553263659e-01
      1.1769730663095629e-01 -3.4897319525860726e-01
      4.1477649231409514e-01 -2.4552766673796342e-01
      -2.4919346876652423e-01 -3.9782883381034517e-01
      -2.6085952216153985e-01 6.1835376801911890e-01
      -4.2108487296399222e-01 -2.9946708106195075e-01
      -3.4627236549185630e-01 3.3433461040647616e-01
      -3.2472522353253569e-01 -3.3829220063321203e-01
      -2.1899493215466900e-01 3.1951720872957901e-01
      -3.9072957044324413e-01 2.4811397730919604e-01
      4.0498555161681804e-01 -3.4355804576608173e-01
      2.4628591547697370e-01 5.5137562172229126e-01
      2.7409229966929577e-01 4.3748789227339879e-01
      1.2075702235788466e-01 1.9133325235575077e-01
      2.8981304772613214e-01 -2.3786776254444389e-01
      3.6753912023845864e-01 -2.5345514127681895e-01
      2.2356958919230369e-01 -4.3306409867941831e-01
      -4.2440967513147143e-01 -2.5979018533941156e-01
      -1.7855461263871708e-01 1.6256800000637150e-01
      1.5058096920562453e-01 3.4716935000985422e-01
      -3.1620379897173312e-01 -3.3167773531822642e-01
      -3.6150595528076324e-01 4.8609968386438646e-01
      -2.9275230666705304e-01 -3.9224648899930437e-01
      5.6096997868674492e-01 -3.6214960149658770e-01
      3.0553780471148273e-01 4.2702910515530240e-01
      -3.8228160612520257e-01 -3.3026651741096846e-01
      5.2457532635200788e-01 2.4950741726971715e-01
      -5.4082514902815526e-01 -3.1836862400374794e-01
      -3.6439804300003270e-01 -3.9501114846923169e-01
      2.7343392084995477e-01 1.7172082417515488e-01
      -2.4320241689106510e+00 -3.1190758935731083e-01
      1.2438170536531208e-01 -3.6717680599708230e-01
      4.2163627350527327e-01 -2.5886967853277953e-01
      -2.5441817603250627e-01 -3.7270794231652177e-01
      -2.4063299278549471e-01 6.1461511113993583e-01
      -4.3377577003536572e-01 -3.0846553707802110e-01
      -3.2818535059261050e-01 3.4984453909396684e-01
      -3.2632548167828207e-01 -3.6110178839161416e-01
      -2.2781648169196481e-01 3.0832334417666046e-01
      -4.0241534763003806e-01 2.4707398909877049e-01
      4.1978766430390357e-01 -3.3178996069197275e-01
      2.2540021441475006e-01 5.6666411228406177e-01
      3.0214270815138394e-01 4.3233312116599443e-01
      1.1951874787216749e-01 1.7540143631262861e-01
      3.1334809321148771e-01 -2.1643342843652844e-01
      3.8122404355725875e-01 -2.4606344666966920e-01
      2.3407775484486010e-01 -4.3668808121035640e-01
      -4.3945718958238944e-01 -2.7725600539036999e-01
      -1.8318509477346673e-01 1.7418045279549255e-01
      1.4507794474015234e-01 3.2868632721498925e-01
      -3.2641055145959280e-01 -3.0939730689542938e-01
      -3.6818016676759968e-01 4.9180850225050993e-01
      -2.9524481965384830e-01 -3.6970728117090051e-01
      5.4813410013365982e-01 -3.3817061294300599e-01
      3.0892639168119107e-01 4.4552323258174492e-01
      -3.6661395868710484e-01 -3.4763115794411215e-01
      5.0478420865084617e-01 2.2893923679102191e-01
      -5.3750249007465656e-01 -3.0868709917265608e-01
      -3.7938656117737707e-01 -3.8322796398218595e-01
      2.6112100110481407e-01 1.6838334514843045e-01
      -7.0572550000372791e-01 -1.1533652911732227e-01
      1.5124631611094991e-01 -1.1760818405844094e-01
      2.3411061009767684e-01 -3.7498082238425728e-01
      -4.1572293815987710e-01 -2.8252050260762618e-01
      -9.0083603344245672e-02 3.1223887841892783e-01
      -2.7719183188665997e-01 -9.3822248135127129e-02
      -1.1391862917173175e-01 1.1041470009381617e-01
      -3.8585398785465319e-01 -3.7918180219856396e-01
      -2.1298971006329720e-01 9.0705086445286964e-02
      -2.4210831410373757e-01 2.0440803622357828e-01
      2.2942387685794174e-01 -9.5374381949361015e-02
      2.4825515095690318e-01 3.0326289488117930e-01
      9.7998376844998236e-02 1.7294499313884204e-01
      -2.8106755003749279e-02 -5.2213653334403920e-02
      8.8087345604286743e-02 -8.5108053174776488e-02
      3.6356147578591580e-01 -2.3136480134301068e-01
      -4.1557225066018971e-02 -2.9887939553555548e-01
      -2.2140781826705314e-01 -1.1838369926575708e-01
      -1.6754748270542014e-01 -1.3089194900351719e-02
      1.0812119559184648e-01 7.4893274944076563e-02
      -7.7530177639110867e-02 -9.1643536505200629e-02
      -2.8926423840649845e-01 1.8506655523388715e-01
      -7.3037066148380597e-02 -4.0160631567364985e-01
      3.0992583050500405e-01 -2.0435310037840090e-01
      1.2157671663771412e-01 1.4640720275432742e-01
      -9.0954179487988979e-02 -6.4943022987479199e-02
      2.8831695282687436e-01 2.2805823740871073e-01
      -3.0291847578213255e-01 -2.2038930393182860e-01
      -2.6851369866681818e-01 -3.7198556793166876e-01
      2.1858689731060443e-01 8.6938479428450260e-02
      1.4190829156711664e+00 7.4132306379387850e-02
      -1.1220333144573509e-01 1.1337371990222313e-01
      -9.3996446341856027e-02 -2.5209771960589853e-02
      1.9126442922614847e-01 9.9941051796285443e-02
      1.4245313812624769e-01 -2.6191316077092902e-01
      1.2792429381519838e-01 1.0396143377527071e-01
      1.3592001882284518e-01 -1.0516582897034013e-01
      2.2222611731714761e-01 2.2107840075023867e-03
      -6.8885192402600937e-02 -9.7560898449432637e-02
      7.8679783072423459e-02 7.8312287572357198e-02
      -9.2678651314270874e-02 1.0731585841798512e-01
      1.0764076983674684e-01 -1.9644062774904006e-01
      -7.6023654212857519e-02 -2.0746992049918775e-01
      1.1382512030900077e-01 7.5385656938454698e-02
      -8.4668235771280242e-02 1.1315275551297367e-01
      -9.9481120433040290e-02 -7.7388140328260913e-02
      -2.3868493560766971e-01 2.6755594636161889e-01
      2.0966949732907511e-01 1.2374773900856685e-01
      1.0711922293335323e-01 6.9056946454376447e-02
      1.0945827913420852e-01 -1.0322018727674376e-01
      9.4140166568024014e-02 1.1774554856562920e-01
      9.8759689486064131e-02 -1.7282068321386329e-01
      9.3845079927369970e-02 -4.2379248882949829e-04
      -2.3709182710611734e-01 1.2222189545468262e-01
      -8.1242293769784729e-02 -1.9479666197030035e-01
      2.2567841873239811e-01 1.2958616902386233e-01
      -2.5319587138124694e-01 8.9378713421583489e-02
      1.6657086581324537e-01 1.3582381605952093e-01
      1.0042969440317229e-01 1.3175338234805972e-01
      -9.2357728574274101e-02 2.2054402529096243e-02
      -1.0414207002873972e-02 -7.2370126152102674e-03
      3.2693083920783922e-03 -3.2104144718555785e-03
      -1.3299729850150318e-03 1.2114752166548341e-02
      -1.1135684662606962e-03 -5.1391542804674686e-03
      2.0874177167937908e-03 7.2942444458664137e-04
      9.4404618028441616e-03 7.7447691267955405e-03
      -5.9123049713953159e-03 1.2487145785312175e-02
      -6.6980607427558235e-03 8.9046635697315260e-03
      -4.9520851691573740e-03 2.5438677890654913e-03
      2.1354145595287484e-03 7.2163724665082040e-03
      4.5713979070007238e-04 -9.5709654935957570e-03
      6.0945593434013502e-03 1.3646566927104774e-02
      1.5219718073633731e-02 1.1272892975254250e-02
      -1.2643873234939693e-02 9.2700644975119671e-03
      3.7182558229624644e-03 -1.2172836548882144e-02
      -2.0541054316617459e-03 -1.1274036904295492e-02
      -7.7018559894241048e-03 1.5718160643060839e-02
      -6.8996321441122423e-03 8.6952334535350326e-03
      -6.9211215689290945e-03 9.7566124613899102e-03
      -3.9225220216233415e-03 1.0062038271633020e-02
      1.5329988294251608e-02 -2.4985848312923217e-03
      -4.7428881857387558e-03 -1.2066674253506047e-02
      4.3614734412525669e-03 -1.2734136825293686e-02
      1.5591333435337432e-02 3.6709765237438892e-03
      -4.4743446939910139e-03 8.9195823162842684e-03
      3.2783029065417461e-03 3.9120741731272527e-03
      9.5174345575030350e-03 -8.0391155030023805e-03
      6.8647267911687761e-03 4.2598991960164159e-03
      -7.2536562120249070e-03 1.3594546312784041e-02
      9.9347396382967520e-03 7.4833252139515230e-04
      2.0401395168597460e+00 1.4417173416124018e-01
      -1.5092554790643928e-02 8.9268271775040056e-02
      -1.8744412468451149e-01 8.0748615755212472e-02
      7.3374813863746141e-02 2.3519286980992582e-01
      9.3740525516879294e-02 -1.2083937369606515e-02
      2.2899597819875495e-01 1.1501429501982104e-01
      9.9473351525257755e-02 -1.1706217225949760e-01
      4.3510753410645274e-02 -6.1991506184880210e-02
      -9.4829716065875008e-02 -1.0079126134455080e-01
      1.8160819507648526e-01 9.3161018732584561e-02
      -1.9432272253911573e-01 9.2577386634337080e-02
      1.0955997297215149e-01 -3.3467382629155454e-02
      -8.9907188914063338e-02 2.4804907323021059e-02
      1.0277473150058168e-01 1.3275658957033998e-01
      -1.2493589317422422e-01 7.6571939701031794e-02
      -1.6095111557330372e-01 -1.0264699592812128e-01
      1.3969739786996047e-01 -3.2043071196369406e-02
      -3.5888824531102189e-03 1.0888894022516388e-01
      7.0648435280043817e-02 6.8278499406164719e-02
      -1.9336329473551718e-02 -9.8134379075708350e-02
      1.1974386699808812e-01 1.0717692491543548e-01
      1.5599385346058775e-01 -5.1926169659456373e-02
      9.7435731131245290e-02 -6.0342958786085379e-02
      -3.1853242749425893e-02 1.8801255947841267e-01
      -1.3265121249812567e-01 -8.4414846280925382e-02
      1.3479191412448194e-01 9.8266901060154455e-02
      -1.8946013008939375e-02 8.4400249478387812e-02
      4.0932662384809734e-02 1.9551248900359591e-01
      1.4460395343210111e-01 1.6739034212702389e-01
      -1.3827996990360134e-01 8.8968277971147921e-03
      6.5680173789676555e-01 8.6312660130515959e-02
      -1.0087395451297620e-01 8.5219185519728541e-02
      -1.0628352207509571e-01 2.6240011355014380e-02
      5.0682789544587950e-02 1.3286407098119335e-01
      1.9219084536491901e-01 1.3169857590835585e-01
      1.2673329085729329e-01 7.8010958180787279e-02
      8.1028868929965775e-02 -8.4674832012419751e-02
      -4.0363777493192761e-02 -1.4862777648738107e-02
      5.0695945622672748e-04 -6.9564802400300940e-02
      5.5774774956304493e-02 1.6323532602317340e-02
      -7.5514089890429612e-02 8.7021880131428739e-02
      1.0378665541166905e-02 7.5785525262789338e-02
      -1.0790298871767949e-01 8.2497753058666606e-02
      -1.0676620931515314e-01 -1.2875610180813238e-01
      -1.1560099208907990e-01 2.1852234372601764e-01
      3.0359955098902602e-02 -1.5424831011746419e-03
      1.4280888197064689e-01 4.7056710124787184e-03
      -5.6768438135889020e-02 2.2363402788010778e-01
      2.7004793711692443e-01 -5.5102164578049340e-02
      -1.4169565929974640e-01 -7.6191012345934520e-02
      8.4929412659257589e-02 7.6606522374538133e-02
      -6.0633854022773076e-02 2.8927772956137093e-01
      8.0182689687720715e-02 1.4654053822076402e-03
      1.2441790474867503e-01 1.2388379141189496e-01
      -8.4108333221651427e-02 3.2172502452879564e-01
      -4.6209192437231161e-01 8.0710559325002595e-02
      5.2923584626813930e-02 -2.2417055819472825e-02
      -5.8370834724987997e-02 1.0643085028414760e-01
      -5.1550117066100576e-02 -8.4887681706506367e-03
      2.5244214673387617e-02 -9.2798635761834974e-02
      -3.6116977187441335e-01 1.1659667560516939e-02
      -1.8333322965918813e-02 4.7238428991934972e-03
      -2.7844963123073370e-04 5.1953766762107882e-02
      -7.5390634304053142e-02 2.2205859594128723e-02
      7.5630033723212864e-02 2.8254402196895156e-01
      1.6765256654092970e-02 2.9860702716245483e-03
      -5.8852129609155120e-03 2.5474570067763047e-03
      -1.5270554783432591e-01 3.9814058466893492e-03
      3.6860923362913363e-02 -1.4630802710379051e-02
      -5.0741000153901941e-03 -2.5526127785228156e-02
      -1.8593166332679634e-03 1.2214212561476248e-02
      -8.2378424253261723e-02 2.1234716845648566e-01
      -3.1832072161576394e-02 2.1688668603392250e-01
      -1.8321281671777837e-01 -1.4425282800605205e-01
      -5.0043773993146572e-02 9.0897653813554413e-02
      1.0221313442674149e-01 3.9299099831565584e-02
      2.7961953664592176e-01 -1.5499706957300166e-01
      -1.8811482255057996e-01 1.0883081891826815e-01
      1.5930379361476629e-01 -1.1421306094415716e-01
      -1.7138114950678834e-01 -8.6022409605291759e-03
      1.9970566226253011e-02 2.3078153575881062e-03
      -1.1440983760988710e-01 3.6050469659708656e-01
      2.1952432393294408e-02 -3.4150189745906635e-03
      2.7352417963346731e-01 2.6341533543598867e-03
      -2.8714156282382837e-02 4.0293986477644111e-01
      -5.6272604801094872e-01 1.5850939590889488e-02
      2.2673138193890632e-01 -8.1250219473946991e-02
      -1.8019843421630741e-01 -3.3034591545951092e-03
      -1.0117192143170126e-01 -7.9144864372664700e-02
      1.0884171054846818e-01 -1.0600324472715207e-01
      -2.7869059526567548e+00 -3.4478568054201503e-01
      9.3821015919248810e-02 -3.5360679053892535e-01
      3.1566353818477511e-01 -1.4202274391211381e-01
      -2.2597759370634818e-01 -3.0569984139790940e-01
      -2.3428029577067919e-01 2.8214290042559254e-01
      -3.3847249728609136e-01 -3.4204337123003992e-01
      -3.5945495028298124e-01 3.2166427317392043e-01
      -2.5033656190148346e-01 -6.5135241751562586e-02
      -1.0458205168783431e-01 3.3657428034056314e-01
      -3.0053984615550372e-01 1.1157539576571834e-01
      2.9988034015375575e-01 -3.5848009372412198e-01
      6.5928028652711537e-02 2.5284820486889797e-01
      3.2804424527547854e-01 2.1175002231475887e-01
      9.1482227167821673e-02 9.0590456313565063e-02
      3.6094515203936284e-01 -2.0309934696846890e-01
      3.0181327910209543e-01 -8.1372414033347149e-02
      1.3077232265825042e-02 -1.5123009344541416e-01
      -2.3855898629528269e-01 -2.2324307864580939e-01
      -1.3736937116134632e-01 1.4737147261320296e-01
      1.6566374699416675e-01 3.6785246607530780e-01
      -3.4927753906556486e-01 -3.2219185890188623e-01
      -2.7474799569267516e-01 1.5518580685301736e-01
      -3.6710651949381840e-01 -6.1843827586880916e-02
      2.6332651538835578e-01 -3.4694808939312971e-01
      3.3152896020737777e-01 1.2400416947052852e-01
      -7.2527293493453012e-03 -3.6054158962831656e-01
      2.5044963361042200e-01 7.2297179301005723e-02
      -2.3434347617697712e-01 -3.1076084318129948e-01
      -2.6083603395826888e-01 -2.8263957344002921e-01
      1.7899617366581172e-01 1.8257669884606315e-01
      -2.7718694432063971e+00 -3.5304737177319012e-01
      9.9141338246746383e-02 -3.3499538201996043e-01
      2.9939195939746194e-01 -1.4833880020848023e-01
      -2.0919143871225909e-01 -3.1378642475811003e-01
      -2.1595047892729563e-01 2.9284652786469023e-01
      -3.4327105873269731e-01 -3.4441870924670170e-01
      -3.4103677988144226e-01 3.2139480226180805e-01
      -2.3834751483859337e-01 -6.8814944341088882e-02
      -1.1085803475151516e-01 3.5880718225070624e-01
      -3.0992425845977595e-01 8.5460485773489331e-02
      2.9383075502172129e-01 -3.3497972762974054e-01
      7.5796418619428110e-02 2.5919409464080828e-01
      3.2300739717157917e-01 2.1676979769303539e-01
      7.8234429000070327e-02 9.3975111335387426e-02
      3.5897867443850162e-01 -2.1935430552398319e-01
      2.7337724356080223e-01 -8.5358255364464439e-02
      1.4632921255032164e-02 -1.5621108308676046e-01
      -2.1471981938463933e-01 -2.0494976495905931e-01
      -1.4326230534570680e-01 1.4321086975750033e-01
      1.9014331017898894e-01 3.6064686307538679e-01
      -3.6037736687508043e-01 -3.4111475353038140e-01
      -2.9373121993942142e-01 1.7688762575686023e-01
      -3.4686284067925005e-01 -6.8436692336678137e-02
      2.6672024985544524e-01 -3.2859711221386700e-01
      3.2741875743719462e-01 1.0898440826824309e-01
      -1.1274488187001160e-02 -3.6508058917101799e-01
      2.4274181568460054e-01 8.1943102453977942e-02
      -2.3325882317854815e-01 -3.3524236689085440e-01
      -2.6609198625109076e-01 -2.6848009122465677e-01
      1.9473281166234280e-01 1.8225045299589632e-01
      -2.8877894370779260e+00 -1.6428082423317092e-01
      1.4372588558825239e-01 -1.3642069868271836e-01
      1.3046846501097409e-01 -2.9381576832236622e-01
      -1.9190596365035706e-01 -9.4221766333032225e-02
      -9.3729212836441617e-02 8.3174752813524933e-02
      -1.2870106315530899e-01 -1.3292556096992506e-01
      -1.4911218529732170e-01 1.1949591749028100e-01
      -1.7131175317022149e-01 -3.2838963034073204e-01
      -3.5296763014071791e-01 1.4711676880321317e-01
      -1.5542177868216570e-01 3.9681696190281512e-01
      1.7085631827159323e-01 -1.6293253198025556e-01
      4.0516245625027608e-01 1.0725024028577901e-01
      1.3518225495804326e-01 6.8592701368597908e-02
      3.7211446312578156e-01 3.9516044252263932e-01
      1.5401391345665486e-01 -1.4019311294860815e-01
      1.0626398714614731e-01 -4.2295834505194907e-01
      2.3639419384822671e-01 -1.0517906260483326e-01
      -2.7322739412580378e-02 -1.7435843910211360e-01
      -1.5399718493209230e-01 3.4502009168216269e-01
      3.2447681667427852e-01 1.6525116355444427e-01
      -1.5111358899508090e-01 -1.6212760060176151e-01
      -1.7176141528270952e-01 1.7685131569932466e-01
      -1.4541645150534424e-01 -3.1005860463517088e-01
      8.1513737107275150e-02 -1.4405175053476557e-01
      1.3288665481479020e-01 1.7605183723455547e-01
      -1.6009366354945867e-01 -1.3928707761922202e-01
      9.3651342614409758e-02 3.8436266699006671e-01
      -7.4430893579685090e-02 -1.0244920519743445e-01
      -1.4633499878055645e-01 -1.1308239823305434e-01
      8.7351570534765499e-02 3.2076929925616959e-01
      1.4127708492120115e+00 9.0803836420033757e-02
      -1.2748252298068324e-01 1.0171996398134252e-01
      -9.8538568681503569e-02 -3.1335310789093546e-02
      1.9907037125475932e-01 1.2510628828248480e-01
      1.4054160714708394e-01 -2.5535500686760049e-01
      1.1854915118707905e-01 1.0903072149180433e-01
      1.2437008996883922e-01 -8.2616790383838540e-02
      2.2011847330496373e-01 -2.9977138045593960e-03
      -3.9007411554716057e-02 -1.0175841997717178e-01
      1.0057354054695136e-01 7.8424487620031402e-02
      -1.1135218434868289e-01 8.7513572146697083e-02
      1.0474090697535665e-01 -2.0192136382271794e-01
      -8.8530598147575093e-02 -2.1762037334367693e-01
      1.1212365538406022e-01 8.8062352425483770e-02
      -8.8049829400757465e-02 1.3346534172796123e-01
      -9.9987692525128027e-02 -9.0088584539546906e-02
      -2.4271368638138782e-01 2.4778968168044740e-01
      1.9980918349604829e-01 1.1454901769351593e-01
      1.0196986390805755e-01 5.8674408247966450e-02
      1.0274254126485280e-01 -1.1302404745227168e-01
      1.0260183216992674e-01 1.2555129084106434e-01
      9.3827542425398106e-02 -1.6365843149095999e-01
      7.7651343832275482e-02 -3.3528032961373314e-03
      -2.5002408947872845e-01 1.3173387440061310e-01
      -7.8866669150455121e-02 -1.7213055141808761e-01
      2.3889070795895848e-01 1.2323516223007178e-01
      -2.4503970462489752e-01 7.6181654388078751e-02
      1.8032175894693708e-01 1.4849248790319269e-01
      8.4863848171176481e-02 1.1155114027063981e-01
      -1.0756224768133929e-01 4.4902043448810186e-02
      1.0590596910976113e+00 -3.5511424875373988e-02
      -2.2011998782683451e-01 -2.6771674692494696e-02
      4.4022840199958058e-02 1.7938741796564334e-01
      2.2253074214205351e-01 -4.5309564812680898e-02
      1.8463420503298401e-02 -2.5757423873007318e-01
      -5.6618453872206070e-02 -3.1014119962802005e-02
      -3.6043948856337278e-02 4.4075554093873454e-02
      2.5131490535607465e-01 2.7872641202024684e-01
      2.1233575956461348e-01 3.5564006751652125e-02
      -8.5496854115868128e-03 -1.6520758567374247e-01
      4.7467115670571693e-02 -4.7373348385477715e-02
      -2.2261212910455550e-01 -2.3678189152570076e-01
      4.7578356174821361e-02 -1.7206207297654347e-01
      8.5431717187708409e-02 6.1103279543948029e-02
      3.4822340451017453e-02 -2.5752546096801311e-02
      -2.5909874832045349e-01 1.9839035148407716e-01
      -1.2420685551297594e-01 2.2009625745341915e-01
      2.4144367612057946e-01 -5.9863993594511611e-02
      -5.6224107525855362e-02 2.4810232840724800e-02
      7.7888200111353473e-02 4.2549154136476593e-02
      -5.6324191761865074e-02 -5.0671393067441860e-02
      1.9842705243645953e-01 -1.8492933578994636e-01
      -4.2820764578076355e-02 2.6147258992166111e-01
      -2.7947379543715306e-01 -1.6900673765145431e-02
      1.5565460399443730e-02 -1.8945991380543800e-01
      2.1590139583196857e-01 -4.7774875429513447e-02
      -2.5395161930927340e-01 -1.8629022823619662e-01
      2.2392040070575472e-01 -2.1150894372029147e-02
      1.6400506021790537e-01 2.0840355871778449e-01
      -1.7072212882411048e-01 5.1760317904342018e-02
      2.2405405383901407e+00 1.1610922554248851e-01
      6.4813180923632210e-02 1.2634143585891511e-01
      -3.6140191352459154e-02 -7.6333486226376479e-02
      -1.7670532518891131e-02 8.1597694553429509e-02
      -3.1909061816295420e-03 9.4843490875929345e-02
      7.9072809834083504e-02 1.2565937841907504e-01
      1.2818090963284087e-01 -1.2111831263268065e-01
      -5.5773726936533194e-03 -2.0765889356808342e-01
      -8.5178688548940784e-02 -1.3784663097283539e-01
      4.0661000635853865e-02 1.2110366550104483e-01
      -2.3732272823422669e-02 1.2475336397537047e-01
      1.5463868714251039e-01 4.9085491263139928e-02
      -1.3085858685327426e-01 5.8145934868208418e-02
      7.1373990989838348e-02 9.2614664546677855e-02
      -1.5243925367189159e-01 -1.6649136973964682e-02
      -3.9182940254228464e-02 -1.4925673572615705e-01
      1.6736727264760906e-01 -9.9288672171657599e-02
      -2.6746851172923931e-02 -1.2841540177255561e-02
      -3.1634619609160697e-02 2.6623777762304759e-02
      -4.3119669682833463e-03 -1.1672496842646209e-01
      1.1971049264752287e-01 1.3010026825623583e-01
      1.0922036472399905e-02 9.5592870061620344e-02
      1.4627823623765379e-01 -2.0681207991895062e-01
      5.5691140566886572e-02 7.1493248959418221e-02
      -1.1099285022208107e-01 8.3451576816973308e-02
      -8.8103985529362994e-02 1.3229012851223920e-01
      6.5880866856371456e-02 1.5428085765979213e-01
      -4.2777716525180941e-02 1.0532991023279481e-01
      7.5392546301764236e-03 3.6873742998048183e-03
      -4.7665848674894769e-02 -1.2922518955793882e-02
      6.7282681126877864e-01 7.3222907986848731e-02
      -1.0765183836723127e-01 9.1641453854929888e-02
      -8.8390581972757634e-02 2.3692747940348743e-02
      4.1264553767486944e-02 1.2810787497543058e-01
      2.0722440096888187e-01 1.2744972680930078e-01
      1.1555192093435293e-01 7.5125625167252533e-02
      7.0127498806532962e-02 -6.9021879762698038e-02
      -3.4223888799541073e-02 -2.1349280285591660e-02
      -7.3362852545629945e-03 -8.1823317839704160e-02
      6.0463932249617915e-02 1.5398037575137085e-02
      -8.2900612025574597e-02 1.0522166363303738e-01
      4.9081423327689373e-03 9.9595458029223621e-02
      -8.9387092147191108e-02 9.3800989140866819e-02
      -1.1987672544856651e-01 -1.1119713025703024e-01
      -9.5466130626854634e-02 1.9681395386604250e-01
      1.5515351892681798e-02 8.0462835159974041e-03
      1.3165339621717215e-01 -3.9126175876643731e-03
      -7.6052105781129517e-02 2.1269109808876430e-01
      2.5845136463394991e-01 -5.2313956980243978e-02
      -1.2503372860082879e-01 -9.0845083077895780e-02
      1.0998340093289766e-01 8.9529405729625783e-02
      -6.8880848919031179e-02 2.7911567945704913e-01
      1.0482932686395571e-01 -1.1152877709222202e-02
      1.1586891954362998e-01 1.2748317391666578e-01
      -8.0279816913635949e-02 3.0937624580235012e-01
      -4.5351131536072964e-01 9.8595475039940456e-02
      5.0746068111797021e-02 -3.2332471791439617e-02
      -6.5782416982123754e-02 1.1962540796583658e-01
      -4.3558865740882052e-02 -1.7237769957653436e-02
      2.1950409143163971e-02 -9.7748811035321403e-02
      -1.1464710947229844e+00 6.3222702759483567e-03
      -1.2618386930905437e-01 -2.3702420002820850e-02
      2.7920205216994655e-02 -8.3634097641311512e-03
      6.3953740451086510e-02 -3.0074037496401807e-03
      1.6564389820687719e-01 3.0328235223609229e-01
      -3.4574528162985341e-02 -1.0422180365456590e-02
      -9.8710896957406435e-03 3.2241372864568553e-02
      -3.4035226655114340e-02 -6.2941268707179684e-02
      -2.2391538094187896e-03 1.3268059066918554e-02
      -4.5914275451519646e-02 2.9123363677402474e-02
      6.1997664671963465e-02 -9.4425825660669257e-03
      -1.8417408027324014e-02 2.8035934499397830e-01
      -1.9071144534956525e-02 2.1355805880447565e-01
      -1.2281594178348848e-01 -9.6002365905917153e-02
      -3.6012203171084216e-02 1.7213529485976964e-01
      1.0207208672922051e-01 5.6408478718520194e-03
      1.5331746035270696e-01 -1.4522082363592018e-01
      -2.0375927760836587e-01 1.7191915299794200e-01
      2.2224275365083207e-01 -8.5241001518392964e-02
      -1.5532462095547431e-01 1.2055253035861184e-02
      1.6679692592293561e-02 -9.3373145722850572e-03
      -1.2316359027785011e-01 4.0529549366519940e-01
      3.1205038663304763e-02 -8.9397092949289284e-02
      2.9078390341015620e-01 1.6086118115151177e-02
      1.6707788942351951e-02 4.7213776664366264e-01
      -6.2202480246275882e-01 -1.0280248035809925e-02
      2.2901859939196667e-01 -1.3424535148233063e-02
      -2.4917233682160625e-01 2.3569303069761405e-02
      -1.1470051770152020e-01 -1.1706175791707349e-01
      1.2870570311915250e-01 -8.1165814990085072e-02
      4.0175906300671627e-01 -1.8335996191699133e-01
      -8.7401774120632825e-02 -1.7862910629174211e-01
      1.2714330665354154e-01 7.3282318666109542e-02
      4.7135423774855044e-02 -1.8140403671454805e-01
      -5.5843387753817045e-02 7.6902776390793098e-02
      -1.6894699280404188e-01 -1.8727870683814368e-01
      -1.7209437440157824e-01 1.6325761409004622e-01
      2.8355243900251827e-02 2.1098971625849203e-01
      1.5634201077758991e-01 1.9113478737568676e-01
      -1.2040673193553764e-01 -1.7912976998731081e-01
      1.0532213416461313e-01 -1.5190318145604065e-01
      -2.0553700735337183e-01 7.3371020722738919e-02
      1.5317338672397635e-01 4.5480603515809945e-02
      -1.5199841626967564e-01 -1.6657053989760617e-01
      1.8883084330050121e-01 -1.8287810301993595e-02
      1.3497785227700812e-01 1.9390585739722460e-01
      -3.0626944290046004e-01 1.0132264899657430e-01
      -6.4029838005676923e-02 3.2230606740306631e-03
      2.5546039570429072e-02 -6.8034645193607912e-02
      -1.4592268371252182e-02 1.8392850034670433e-01
      -1.8041769713805852e-01 -1.5040637064617773e-01
      -8.9143239846269290e-02 -1.0401508384393104e-01
      -1.7198346538351608e-01 2.0309487090478318e-01
      7.7904216734752993e-02 -1.5242693377318442e-01
      1.6021128891550546e-01 -1.1533677007787888e-01
      2.4559415011054223e-01 -1.7257528279316267e-01
      3.0458504289363583e-02 -1.7895176440455110e-01
      -7.4740180050097277e-02 -1.6657343501198046e-01
      -7.1300537057376573e-02 -1.0415094979270040e-01
      5.2123588096222147e-02 -7.1041431082975490e-02
      -2.7812316684774632e+00 -3.3989523045749370e-01
      8.3190067457474107e-02 -3.4825633396549488e-01
      3.0395581114733833e-01 -1.2344198895289779e-01
      -2.3339199251270165e-01 -2.9450046153798337e-01
      -2.1536576242091107e-01 2.7192593828551992e-01
      -3.5249839951352530e-01 -3.5738882056743582e-01
      -3.4232709750103463e-01 3.2171132694721927e-01
      -2.5304296874620363e-01 -5.1644150023878149e-02
      -1.1023842509126576e-01 3.4528769030695489e-01
      -3.0839913582148842e-01 8.5337600529030805e-02
      3.0984228293604588e-01 -3.4399122939683219e-01
      7.7561356515066307e-02 2.6550399314038647e-01
      3.1541489142457046e-01 2.2847313554734733e-01
      8.5345993568741840e-02 9.9936430483816327e-02
      3.6918261145410292e-01 -2.1800169604775357e-01
      2.8792843255670436e-01 -7.2996400882418336e-02
      5.0826032114924475e-03 -1.5163111980768898e-01
      -2.3065522165985572e-01 -2.2187988835543526e-01
      -1.3824476380645120e-01 1.4593744418245322e-01
      1.8316828897961102e-01 3.6891567617994053e-01
      -3.6345923046191536e-01 -3.2213690320019844e-01
      -2.9214520848372361e-01 1.5970909515312781e-01
      -3.7154226582396849e-01 -7.0393343961874799e-02
      2.6274501671182615e-01 -3.3137066128276893e-01
      3.3576343077324688e-01 1.2789865267515466e-01
      -1.3137555120822420e-02 -3.6266068199819007e-01
      2.5107838145018074e-01 5.8057244162301465e-02
      -2.4333730846274595e-01 -3.3182032601491868e-01
      -2.5928477348637613e-01 -2.6351921053935567e-01
      1.8670229627174278e-01 1.6154906018046705e-01
      -9.7442655767119979e-01 -1.8653825319188128e-01
      -5.5248704694407839e-02 -1.7654870068482179e-01
      1.6106982794213145e-01 4.6925756912297466e-02
      1.7082849415487988e-01 -1.4276377305474072e-01
      -1.3678647651707390e-01 -6.9536941938046409e-02
      -1.6666926049356307e-01 -1.7852147699510848e-01
      -1.5177814448534363e-01 1.5378512924473334e-01
      1.8463050028980296e-01 1.5927490520694185e-01
      7.4211745474475760e-02 1.9152596150061055e-01
      -1.3600655754126970e-01 -5.1366444677482283e-03
      1.7888724588503485e-01 -1.7447665497759537e-01
      -3.6294926716689394e-02 -2.5608333452822180e-02
      1.8017561443336066e-01 -2.4248379126655818e-02
      1.5049143844298551e-01 1.2997195780225895e-01
      1.8973947148389281e-01 -1.1456471364963211e-01
      -1.8571382768122653e-02 2.5000122070763214e-02
      -4.5954037182029076e-02 1.9057752873232872e-01
      7.6613734704566575e-02 -1.5022199260234914e-01
      -5.5122864703400241e-02 1.6436331817329580e-01
      1.4174463180868435e-01 1.9417278658529891e-01
      -1.7924667719516282e-01 -1.4363924601075220e-01
      -8.2640759767317842e-02 4.3416505013824061e-02
      -2.0730443737027601e-01 1.4440342123972202e-01
      -8.7958665450803428e-02 -1.7163500082619626e-01
      1.5824050949407853e-01 3.3763806490513464e-02
      2.4545317200990766e-02 -1.7430581513289040e-01
      -7.9923544230534396e-02 -6.3609682394290504e-02
      3.3901677641886639e-02 -1.1314757082047323e-01
      -6.6428927732157167e-02 8.4610430622412709e-03
      -6.0604773117926662e-03 1.0103120833185933e-01
      -6.6873290102380667e-01 -8.4783892350354509e-02
      1.2174031032563212e-01 -8.7829434760361952e-02
      1.0244890821386506e-01 -3.7730780686892014e-02
      -3.6880433968542126e-02 -1.1509000779381047e-01
      -1.9509319551351204e-01 -1.1659021380686553e-01
      -9.9488130514286954e-02 -7.9565824923598219e-02
      -8.3023885717376650e-02 7.8027945664872783e-02
      4.0033123425275936e-02 1.6242260620256854e-02
      1.4091227736867190e-02 7.0861005746135797e-02
      -7.7053536583846990e-02 -3.0729645641326086e-02
      8.7055693272422061e-02 -9.5325584902721958e-02
      -6.7081230067686072e-03 -7.6336951915640300e-02
      1.0503728041125961e-01 -9.5025486020328370e-02
      9.9128402644637681e-02 1.0091651622341086e-01
      1.0266878907606850e-01 -2.1881017607957676e-01
      -2.9133080185059612e-02 -3.9568739380368726e-03
      -1.4180625718507434e-01 1.0784655661149112e-02
      6.8803344789181306e-02 -2.3275118406526452e-01
      -2.4944375384845516e-01 5.3811575526599945e-02
      1.3091798458681167e-01 1.0557580180859792e-01
      -1.0173238689757232e-01 -7.9879981094142849e-02
      6.6901109677153667e-02 -2.9388234071308833e-01
      -9.0267785154709818e-02 6.4253281736931104e-03
      -1.2144011846751170e-01 -1.1966287385277280e-01
      9.6312766093367752e-02 -3.1846905375428014e-01
      4.5295016032370877e-01 -1.1007518540334624e-01
      -5.0247286764574850e-02 3.9188608149004246e-02
      7.6389510540998823e-02 -1.3174006856263110e-01
      3.6045881190237612e-02 1.5581252464893182e-02
      -3.8764984566304297e-02 1.0140851134107826e-01
      -6.6477197072244898e-01 -9.9236756781407601e-02
      1.3043641725417929e-01 -9.6473683698923229e-02
      1.0493227438407986e-01 -2.6376195659493964e-02
      -3.8904817682104881e-02 -1.3461695424366943e-01
      -2.0597788403025200e-01 -1.3175761573700706e-01
      -1.0001067227928453e-01 -8.1654201427346765e-02
      -9.0385708803170012e-02 7.6407833579602208e-02
      3.7089916820574352e-02 -6.6393044741796499e-03
      -7.1458358821911558e-03 1.0043295488686597e-01
      -5.2889385964695598e-02 -4.9732838056284557e-03
      7.9018924708538982e-02 -9.1212939028841769e-02
      1.3410762774174249e-02 -9.2844038630303966e-02
      9.1987383004186310e-02 -9.7692528333503378e-02
      1.0017371413484813e-01 1.2096384383072385e-01
      1.1495196041719302e-01 -2.1062462484168309e-01
      -1.3444198732413057e-02 -1.8349358749327280e-03
      -1.3005809621525011e-01 5.5039500527457779e-03
      7.0848821886945287e-02 -2.3048423506207211e-01
      -2.5822265921345533e-01 8.1594602547657366e-02
      1.1867574772332011e-01 1.0292667975395027e-01
      -9.0302527355255444e-02 -8.3117099878715517e-02
      5.7226499186765867e-02 -2.8153865076195311e-01
      -9.3912642386535045e-02 1.2206550955828536e-02
      -1.1085761681299587e-01 -1.2541107165026388e-01
      8.6902039394807867e-02 -3.0839875306011755e-01
      4.6497360084058920e-01 -1.0929694339391507e-01
      -7.1610226766581603e-02 4.1011220837008838e-02
      7.0345007999609535e-02 -1.3127526594558842e-01
      5.6550822099329032e-02 -5.3338094776229734e-03
      -4.5052741479767705e-02 9.1831971814926028e-02
      -1.1698942867454027e+00 1.2726657449716372e-01
      2.3638315756388315e-01 1.0876954749241967e-01
      -8.0018459329224467e-02 -1.4156864065486677e-01
      -1.1727812527076784e-01 7.6760470301322811e-02
      -1.1978967915188886e-01 -2.0316527473303381e-01
      9.9184968102621229e-02 1.2870736945729505e-01
      1.1536638946098128e-01 -1.2310723354177912e-01
      4.0967220004690984e-03 -2.4300404942348416e-01
      -1.8561846469744264e-01 -1.4599250997329588e-01
      9.8932608133050562e-02 1.9009562999299096e-01
      -7.8170649502038489e-02 9.5591577739848263e-02
      2.3600389270863112e-01 -1.6066209188242803e-01
      -1.1424196460841919e-01 -1.5530205832362576e-01
      2.9540080248874201e-01 3.3499080418241589e-01
      -1.2128194502569635e-01 -1.6391285577671250e-01
      -1.7602681003389101e-01 -2.3857482349527964e-01
      2.4738016989459599e-01 -1.1242071901041965e-01
      1.7434819087931899e-01 -1.9095845774104483e-01
      -3.1220011925577917e-01 1.4425982740684812e-01
      1.4978691168760064e-01 -1.0981348309657810e-01
      1.1419595300442413e-01 9.0655587308965252e-02
      1.6918707338614744e-01 -1.5115679873517285e-01
      1.2399743407267404e-01 -2.3052698165953303e-01
      -2.0850468581732723e-01 7.9220987420025146e-02
      -1.3560631768248449e-01 -1.5850143037551917e-01
      1.5913401612001674e-01 9.8228385426471249e-02
      -1.0511180093833972e-01 2.4840113970123856e-01
      1.6987405098508332e-01 7.7947134576599963e-02
      1.3348138954703703e-01 1.3192950247368002e-01
      -8.6478094421308160e-02 1.9099725143995050e-01
      1.9590398263716264e+00 9.5169497518909948e-02
      -3.7288827546582343e-01 7.3001123556768840e-02
      -6.9679084762962459e-02 2.3535520862181741e-01
      2.7476315312890864e-01 1.1933808943400619e-01
      2.6308067487272047e-01 -1.1834459997806400e-01
      7.9273148809908989e-02 6.7713734768714728e-02
      6.7829457545793337e-02 -6.9597884819101813e-02
      1.9010543114629108e-01 2.6194948268490803e-01
      2.0067107481384930e-01 -5.9978373215677838e-02
      7.5127744568231458e-02 -1.4748643270021386e-01
      -6.7003274445121858e-02 6.5568038601197504e-02
      -2.1080548076202818e-01 -1.1981682389348301e-01
      -9.9717653386754132e-02 -6.9265764475057334e-02
      -6.6539177883106912e-02 -8.5319712208130949e-02
      -1.0857959954076929e-01 2.5580301536558958e-01
      -2.1175058303020061e-01 1.8836114474389876e-01
      3.5504933658250318e-02 2.3479611183612553e-01
      1.2614575180614288e-01 2.4612200619530503e-01
      2.8373241154087553e-01 -8.4412924975101902e-02
      -1.0069807479399548e-01 -8.0282573602726698e-02
      8.4212230280841252e-02 7.7322673731675104e-02
      9.8991693816749687e-02 1.9503122074615820e-01
      8.9754038172167150e-02 2.5312695642987898e-01
      -1.1063541830781683e-01 1.2753160125456664e-01
      -7.6692021800085372e-02 2.4070792389896406e-01
      -3.8069291847701553e-01 7.8440814860702132e-02
      -1.4649974818620595e-01 -1.9653935081219265e-01
      1.4378615711338849e-01 1.4843574635362403e-01
      1.1176021205706141e-01 2.0039000640802371e-01
      -1.3356004895453377e-01 -7.8923780397575263e-02
      2.0509883290436890e+00 1.8528833918310816e-01
      -3.2133601678957135e-01 1.4164188979037684e-01
      -1.5414134244405231e-01 2.0427463577690771e-01
      3.2630507137487819e-01 1.2121317351832885e-01
      2.9994226216075076e-01 8.2486824254530453e-02
      1.6027121700336794e-01 1.7281307953044020e-01
      1.7222177584981785e-01 -1.4040608349645903e-01
      2.2376497609693591e-01 1.8678362290001146e-01
      2.4510232407465019e-01 -1.8729741859740218e-01
      1.2104959767235456e-01 -2.3901811164771780e-01
      -1.5604343477529140e-01 1.8656790737077794e-01
      -2.7371451757985155e-01 7.3062151397760317e-02
      -1.6479948981509446e-01 3.0130448446765344e-02
      -3.3207420067420801e-01 -3.8920339577119584e-01
      -2.0196082273130347e-01 3.4492020831177522e-01
      -3.8956238254544182e-02 2.6999894007994868e-01
      -1.9697247661593620e-01 1.3287720824402624e-01
      -3.9886480500213373e-02 3.4281239257982266e-01
      3.9439073191124907e-01 -2.9420490893989032e-01
      -3.4731780876999802e-01 -1.8816032321409737e-01
      1.9856084017958828e-01 2.0428577612236515e-01
      7.9575364665447984e-02 1.6069219401457910e-01
      2.0869153674525820e-01 1.6868942714756760e-01
      7.1856465484882767e-02 2.2648594078009915e-01
      -1.4766280897025760e-01 2.0326290022758517e-01
      -3.4581456854259601e-01 1.8210173218131617e-01
      -2.4803941959095151e-03 -2.5978481071174381e-01
      -7.8890158935746746e-02 1.9396289621696167e-01
      4.8353781594090275e-02 6.5800764060086031e-02
      -1.1151496208325349e-02 -3.1222421311815257e-01
      4.1148361005846223e-01 -1.6796586020271237e-01
      -1.0697307457552473e-01 -1.4917291855738446e-01
      1.4461281632652656e-01 7.0614657935113678e-02
      6.2970923215086599e-02 -1.6474100115654647e-01
      -6.6096354181329642e-02 5.5106919738635324e-02
      -1.8774622472472435e-01 -1.6994346260700452e-01
      -1.5417794874611143e-01 1.6800426405903776e-01
      1.1764159976046549e-02 2.0126162436916853e-01
      1.4448078328310893e-01 1.6766397974249367e-01
      -1.3909079567575078e-01 -1.5293037486510483e-01
      1.1882897970770952e-01 -1.7159798102086840e-01
      -2.0816596860728270e-01 5.4326453452337664e-02
      1.6321908252327705e-01 4.3269757879240298e-02
      -1.5754902302388929e-01 -1.9541753719464050e-01
      2.0657378575114882e-01 -2.6961794786268856e-02
      1.3002170086698209e-01 1.9310172741403964e-01
      -3.0932079301723486e-01 9.8402370570270223e-02
      -9.3355097256569333e-02 -8.9086416402959934e-03
      4.8792750644302108e-02 -8.9519133834397815e-02
      -1.8631417502520734e-02 1.7943127518107543e-01
      -1.6518317538273250e-01 -1.4900861542144417e-01
      -8.5500255077418569e-02 -8.8827137358063191e-02
      -1.9625164086298605e-01 2.0246649640010783e-01
      6.5899673569319958e-02 -1.6169933971375292e-01
      1.6780457868688292e-01 -1.1914004437514897e-01
      2.3833412871314505e-01 -1.6894036117988118e-01
      5.0311984739241457e-02 -1.8645451449475034e-01
      -8.6540371915990705e-02 -1.6121044166988741e-01
      -9.3935655393696138e-02 -1.2086301069392003e-01
      5.3625091411896079e-02 -7.2268642407934916e-02
      1.2403935376622424e+00 -1.1591404702924253e-01
      -1.5398225002183907e-01 -9.1135344810697558e-02
      7.8915752914894430e-02 7.9936808101799262e-02
      1.7108374550676855e-01 -9.2228323454166677e-02
      1.4373555074375736e-02 -1.0059634125532690e-01
      -8.6857125694398366e-02 -1.1885041961803215e-01
      -8.5190314966681821e-02 1.3247413782134387e-01
      1.4703143828603224e-01 1.8872544376339184e-01
      1.2632796285134554e-01 1.1772113369671049e-01
      -7.0045006588384043e-02 -1.4103686185487374e-01
      4.9101331146254819e-02 -1.1679081284879222e-01
      -1.2717779588970998e-01 -6.5507137082884692e-02
      1.0289289188296913e-01 -7.7483109776543657e-02
      -9.5190975135060307e-02 -1.2588487989209105e-01
      1.3188255154655207e-01 5.8266612264017359e-02
      5.3570331565736325e-02 1.5010995586238046e-01
      -4.5480445724762453e-01 2.5748231169393421e-01
      5.1525210082548976e-02 6.2756976817773327e-02
      8.9059256692032462e-02 -3.5843047450833825e-02
      4.8156775885085115e-02 1.1032730125448202e-01
      -1.0568167957397365e-01 -6.9842697058801154e-02
      -1.5518220186316415e-02 -1.9575628368335984e-01
      -1.1423484512154825e-01 1.9022293447350103e-01
      -8.9172865192273826e-02 -8.0974371658588271e-02
      1.0979044195675026e-01 -2.1340251218621309e-01
      3.8846953410216178e-01 -8.1350590676521867e-02
      -9.6354349723895089e-02 -1.3223167536731070e-01
      2.0375680885178944e-02 -5.8219222407275041e-02
      -2.6240219580463329e-02 -2.0243698241347825e-02
      -5.1460521806817204e-03 -4.2727935823445862e-02
      -2.1087846914931321e+00 -2.3375274648099947e-01
