<?xml version="1.0"?>
<opencv_storage>
<my_nn type_id="opencv-ml-ann-mlp">
  <layer_sizes type_id="opencv-matrix">
    <rows>1</rows>
    <cols>3</cols>
    <dt>i</dt>
    <data>
      33 20 10</data></layer_sizes>
  <activation_function>SIGMOID_SYM</activation_function>
  <f_param1>6.6666666666666663e-01</f_param1>
  <f_param2>1.7159000000000000e+00</f_param2>
  <min_val>-9.4999999999999996e-01</min_val>
  <max_val>9.4999999999999996e-01</max_val>
  <min_val1>-9.7999999999999998e-01</min_val1>
  <max_val1>9.7999999999999998e-01</max_val1>
  <training_params>
    <train_method>BACKPROP</train_method>
    <dw_scale>1.0000000000000001e-01</dw_scale>
    <moment_scale>1.0000000000000001e-01</moment_scale>
    <term_criteria><epsilon>9.9999997473787516e-06</epsilon>
      <iterations>1000000</iterations></term_criteria></training_params>
  <input_scale>
    6.1132857592069634e+00 -3.2476830595786992e+00
    6.8599434057003634e+00 -4.4589632137052364e+00
    3.6667939881128460e+00 -1.4667175952451386e+00
    9.0007032074082165e+00 -4.9503867640745192e+00
    4.0985241566284794e+00 -1.4344834548199676e+00
    8.3862786937753615e+00 -4.9269387325930252e+00
    4.3008266445637622e+00 -2.2579339883959753e+00
    6.8599434057003634e+00 -4.0302167508489637e+00
    4.2163702135578385e+00 -2.1081851067789192e+00
    6.4051261522034810e+00 -4.6437164603475232e+00
    4.7471266327754105e+00 -2.7295978138458610e+00
    6.2279915532921857e+00 -3.5032452487268544e+00
    7.1842120810710002e+00 -3.2328954364819502e+00
    8.1649658092772714e+00 -3.2659863237109086e+00
    5.8191437396264600e+00 -2.8368325730678992e+00
    4.4376015698018332e+00 -2.4961508830135313e+00
    4.9236596391733123e+00 -2.7080128015453218e+00
    7.1842120810710002e+00 -3.2328954364819502e+00
    4.5883146774112360e+00 -2.0647416048350564e+00
    4.3133109281375361e+00 -1.8331571444584529e+00
    4.8154341234307694e+00 -2.5281029148011540e+00
    4.9518756847213803e+00 -2.6616331805377418e+00
    4.3322428885910584e+00 -2.8701109136915761e+00
    4.9613893835683376e+00 -2.4806946917841688e+00
    5.4686874161973149e+00 -3.3495710424208558e+00
    8.8888888888888964e+00 -5.7777777777777830e+00
    5.4911857844366390e+00 -3.1231119148983382e+00
    7.2354501063381527e+00 -3.6629466163336897e+00
    9.0007032074081863e+00 -3.8252988631484790e+00
    8.8210855427195316e+00 -3.9143567095817922e+00
    5.1532530112066466e+00 -2.7054578308834896e+00
    4.9400601687555090e+00 -2.7479084688702522e+00
    1.6881608148688308e+01 -8.8232780089628733e+00</input_scale>
  <output_scale>
    5.2631578947368418e-01 4.9999999999999994e-01 5.2631578947368418e-01
    4.9999999999999994e-01 5.2631578947368418e-01 4.9999999999999994e-01
    5.2631578947368418e-01 4.9999999999999994e-01 5.2631578947368418e-01
    4.9999999999999994e-01 5.2631578947368418e-01 4.9999999999999994e-01
    5.2631578947368418e-01 4.9999999999999994e-01 5.2631578947368418e-01
    4.9999999999999994e-01 5.2631578947368418e-01 4.9999999999999994e-01
    5.2631578947368418e-01 4.9999999999999994e-01</output_scale>
  <inv_output_scale>
    1.8999999999999999e+00 -9.4999999999999996e-01
    1.8999999999999999e+00 -9.4999999999999996e-01
    1.8999999999999999e+00 -9.4999999999999996e-01
    1.8999999999999999e+00 -9.4999999999999996e-01
    1.8999999999999999e+00 -9.4999999999999996e-01
    1.8999999999999999e+00 -9.4999999999999996e-01
    1.8999999999999999e+00 -9.4999999999999996e-01
    1.8999999999999999e+00 -9.4999999999999996e-01
    1.8999999999999999e+00 -9.4999999999999996e-01
    1.8999999999999999e+00 -9.4999999999999996e-01</inv_output_scale>
  <weights>
    <_>
      -1.7237425934275169e-01 -4.3260382919895486e-02
      -1.2719050739114007e-01 2.3470370847832808e-02
      1.2091962756255087e-01 -6.2607191842565718e-02
      -1.8472403435750062e-01 1.2996421992911900e-01
      9.6789795370763168e-02 2.0839504973238118e-01
      1.0153486975601057e-01 1.2635143936681784e-01
      -7.6617081861649658e-02 9.6398319779582339e-02
      2.1704357190214041e-01 -1.9881385249662015e-01
      1.2384450017340493e-01 2.2464545368782596e-01
      -1.2746337640063214e-02 -3.7375223170383370e-01
      -1.6334387017121191e-01 -6.7817293802213560e-02
      -2.8500837528730150e-01 3.4665858323465887e-02
      -2.2000762282436187e-01 1.4026332592567697e-01
      2.0548053518372764e-01 -2.7872832818126057e-02
      -6.2369509577691405e-02 -4.3182770589958078e-02
      -1.7135322491233151e-01 1.3341547841941201e-01
      2.4168918995314931e-01 9.4719368587110164e-02
      -9.1886834962500913e-02 3.6749997457644418e-01
      -9.1441664439975534e-02 -3.4221933503494101e-01
      -5.1978453302059802e-03 -1.4362327615794807e-01
      -8.6683699749572893e-02 8.7837115530692025e-02
      1.3897735786519871e-01 -1.5306817660457642e-01
      1.1888541391449529e-01 -1.6083811665315567e-01
      -1.1980491379120561e-01 1.8252789357468541e-01
      9.2580797507646570e-02 7.6213177254132167e-02
      1.1130685709702014e-01 1.6252417437892300e-01
      -1.1377180813876456e-01 1.7042649863558776e-01
      9.2096565507494482e-02 -1.2607928896117067e-02
      -1.7663486931285499e-01 5.0330063209545473e-02
      -2.0058066948161296e-01 -1.9780289758948744e-01
      1.8281581703460692e-01 4.5284833178321611e-02
      -1.7042699010462611e-01 -5.3571886959435967e-03
      -5.6543265029037389e-03 1.1205149159488187e-01
      1.4081052191850951e-01 -2.4243669223831960e-01
      1.6510169787301340e-01 -2.4666462195122132e-01
      -6.5572591384289808e-02 -1.5995733991200703e-01
      1.4667114463862019e-01 -2.0906157533988098e-01
      -1.5534710086793641e-01 -8.0204394252984146e-02
      2.4423337261860389e-01 2.2130306963314428e-01
      -8.2693522319029541e-03 -9.1023840172785891e-02
      -1.9498272571447786e-01 -2.4675933315954968e-01
      4.8147841616777647e-02 1.0426600938107981e-01
      8.8900671668951783e-02 -5.8737792144977395e-02
      -8.5994177680675632e-02 2.0336003570316494e-01
      -1.4975604578925092e-01 1.0578050352619416e-01
      3.9682518737180220e-02 1.9509931504947603e-01
      -3.2139841295709098e-02 -2.4238641774418538e-02
      9.3354640038118566e-02 6.8871049933616146e-02
      -4.4816041950351174e-02 -7.2344358668678554e-02
      1.6457283050016669e-01 9.8693607402346548e-02
      -1.0764306554881706e-01 -1.0877601025043320e-02
      -4.1537678374901126e-02 3.1991342550628921e-01
      -6.9793809005852012e-02 2.6407944776933556e-01
      1.0233252614859309e-01 -2.9492432003081903e-01
      4.3482667608562897e-02 -1.7925719624017994e-01
      4.5942747758244327e-02 2.1786855820565425e-02
      2.2115411900017817e-01 9.8218909378167407e-03
      -3.8893359536426442e-01 4.6729012569236821e-03
      1.5359032016422952e-01 5.7527126848648264e-03
      1.5285009634188754e-01 -4.1567763890517806e-02
      2.6553370150438704e-01 -2.0385533689785812e-01
      -2.8738371514161576e-01 2.3223297898518801e-02
      -9.0065528040846388e-02 -1.2311221759230355e-02
      -2.7270961122392759e-02 2.2008401150105494e-01
      1.8127049015894969e-01 -2.9727715791726678e-01
      1.0637001203793345e-01 8.9772753200232980e-02
      -8.2039614466401914e-02 -2.1488955377702687e-01
      -2.8062178966533574e-01 -8.4158232601745556e-02
      -1.0712112071318325e-01 1.6855020859870484e-01
      -3.5965342438643759e-03 1.7149094598587857e-02
      -3.2186104779994285e-01 9.2643632390943684e-02
      2.2567124808648009e-01 5.4607739251009361e-02
      2.1839367301244000e-01 -1.8955849253587462e-01
      -2.3260528200473701e-01 -1.0501020342647258e-01
      -2.0828868627828401e-01 -1.1575356505457607e-02
      2.7530425205389863e-01 1.6626541333800520e-02
      8.0624284789266878e-02 1.8017557929932090e-01
      6.3294870205581527e-02 -1.5829290682831662e-01
      1.4582913045773180e-01 4.8961237488322320e-03
      1.9998124162326419e-01 2.5561950995711105e-04
      -6.1296172728130933e-02 -1.1307188250538786e-01
      -7.4062728146564297e-02 1.0392110093401166e-01
      8.9018178576975044e-03 1.1228437611517529e-01
      3.8685742857970334e-01 1.4185273932721912e-01
      3.4003177909223004e-01 -2.2800576387745429e-02
      -1.6289190773574019e-01 9.2799514850456705e-02
      -1.3723240104516721e-02 1.5117597949592507e-01
      3.8895980795915733e-02 3.1157457738834360e-01
      1.2304578715900000e-01 -8.8369203283973213e-02
      -1.6317618005521858e-01 -5.2753955119373375e-01
      9.3986860908744599e-02 -3.7471783456598462e-02
      -1.2945035602537086e-01 1.1844800821290816e-02
      9.9959863397657028e-02 1.7727956859996077e-01
      -4.3355989121861838e-02 6.5180552965911728e-02
      3.6344056935036700e-02 4.4978734123074809e-01
      -9.1801306236473368e-02 1.3373563820639822e-01
      -2.7055273149818826e-01 1.4108216648820196e-01
      3.9690786325621963e-01 -1.3482171271595858e-01
      3.1333933356906533e-02 1.1592210915185748e-01
      -2.6183587138118830e-01 -4.4318899162521019e-02
      -3.9470902970182487e-01 -1.4475156012128240e-01
      -1.8061186255476369e-01 5.9646313950314889e-02
      5.3619956888665395e-02 -1.9278979765069047e-03
      -2.1622408758663350e-01 -4.0183750518872782e-02
      -3.0741663162504695e-01 -2.6830432541104739e-02
      1.6365983282118984e-01 5.4008678672873997e-02
      2.1870616819020827e-01 8.5640307953489800e-02
      -5.8304912044059194e-02 1.5889187569286181e-01
      -7.1798248581283391e-02 -2.2201926514605011e-01
      2.8130601626087715e-01 -1.0332520287735519e-01
      -1.3639508644748677e-01 1.4860183256622564e-01
      -2.1946927862263513e-01 -8.1953546144574244e-03
      1.0344366577626524e-02 -9.6611053568230104e-02
      -2.9139626924468692e-01 -1.9420751688568011e-01
      -1.6468960789231829e-01 -6.5523409921805872e-02
      -6.5824804334476128e-02 -9.0063455569404052e-02
      2.1688399163005437e-01 -8.8694705492421505e-02
      1.1838739981945685e-02 -1.2563078624686969e-01
      -1.0537122689215929e-01 -5.1983684579295523e-02
      4.3294659840994593e-02 8.6141659201723661e-02
      4.5495806541358021e-02 3.2804559500788705e-01
      -6.5497586302040070e-02 -3.0981908489839877e-01
      2.7693250882914057e-02 -3.1800946523642071e-01
      -2.1744032398151641e-01 8.2820135696022992e-02
      -1.8634233116500604e-02 -1.6608323130409594e-01
      -3.9358254850526977e-02 -1.0910585736108699e-01
      8.2066028024377000e-02 -9.5783498007641549e-02
      5.3763183697493430e-02 5.2194390178509846e-02
      -2.8505834900099430e-01 -7.6279989148245686e-02
      -1.8759380864482286e-01 -1.1307385066646233e-01
      -3.2417380557869413e-02 -1.0711316508485798e-01
      -7.7779985855497322e-02 3.1131979045820735e-01
      2.2733248111141044e-01 2.3153450207269116e-01
      2.2703833736054013e-02 -6.3797175819635885e-02
      2.7946819878812705e-03 -1.5299544443791799e-01
      -1.1542886924316209e-01 4.3944635669409725e-02
      -9.9573066815486097e-02 -1.9552524019158232e-01
      1.6157841571519067e-02 -2.7628731610801299e-01
      1.4434914317402289e-01 4.0908790992306210e-01
      9.4980385867413114e-02 -1.6510513021360810e-02
      -1.5691426497075969e-01 9.4010548787239176e-02
      2.5683896432172043e-01 -1.6464038656871607e-01
      5.6099156411408911e-02 -2.3063361745694644e-01
      -8.6783781047793315e-03 1.8725223210457023e-01
      2.1879360644617077e-01 -2.1947666608223622e-02
      2.3496827310792873e-01 1.3816837153633335e-01
      -8.5204319427957809e-02 2.6156508500888137e-01
      4.4333003350288384e-02 2.3723917306223610e-02
      -1.1784765392211920e-01 5.7483967630122319e-02
      -1.4562117625371684e-01 -2.9241713656392326e-01
      1.6770721040298996e-02 2.0345708905729540e-01
      1.4763941581243115e-01 -1.8697748707592762e-01
      -9.7926440939277951e-02 -6.1976603266152695e-02
      4.6000198652229866e-02 3.7555861668843400e-02
      2.0858244790132896e-01 4.2697010849897035e-02
      1.2700315169975596e-01 7.3249102464369720e-02
      -9.4754198275280324e-02 2.4638673007635317e-01
      -6.2064726969487602e-02 -2.1893706409579612e-02
      -1.6448447202795663e-01 -9.1166793580638242e-02
      -2.3371181016708617e-01 -7.9255682315519396e-02
      -7.9251485280573117e-02 -1.9097926387899141e-02
      -2.9185074080630524e-01 1.3333173629229425e-01
      -2.1697133310581925e-02 1.2492632816121631e-01
      -7.0442348029397778e-02 1.2810640129710535e-01
      1.5435180818396119e-01 -1.2559715241806152e-01
      9.8714748134305155e-02 1.6024416439085229e-01
      -1.1002480206233990e-01 8.7448010617174679e-03
      -2.2498698824780669e-01 -1.1157132555441672e-01
      -1.8196181679512560e-01 1.4441076852584522e-01
      -1.4650664022226093e-01 -1.3931732803614111e-01
      -7.0380252303561069e-02 -2.2665017576522749e-02
      -3.9970667851331831e-01 1.1840225152270677e-01
      -1.9401436484076073e-01 1.9905528076971474e-01
      -1.0240268489058323e-01 5.5849431428877078e-02
      -1.2573191444581266e-01 -2.0982782147901544e-01
      -5.9795721124810984e-02 6.6612815747996615e-02
      9.4899098930731174e-02 -7.6696811294504258e-02
      -3.1707839823517092e-01 1.0178063431448779e-01
      -3.2378231233111826e-01 -6.3772029918193002e-02
      -1.0949726876026447e-02 1.7076317024585888e-01
      -4.2357866879648981e-01 -4.9128710179617896e-01
      7.4558068257487647e-02 3.5811299449412870e-01
      1.6760274437412323e-01 1.1600080376956769e-01
      1.5015601884262511e-01 4.5972005353402311e-02
      -3.1877411313699300e-01 9.2668354083260226e-02
      -7.9050618471688858e-02 1.8566932500509026e-01
      4.7650367544266437e-02 1.7168792466327468e-02
      1.7804562202724597e-01 1.9412253954035807e-01
      3.2385389956474359e-01 -1.6683822617761565e-01
      3.8194150695775075e-01 3.5120764358361367e-02
      -1.9742388821328519e-01 -9.0869785231202940e-02
      2.8865551842059894e-01 1.4003178298453361e-01
      1.1045392808727594e-01 -3.9970495401791574e-02
      -5.2236209305431963e-02 -1.0816079329472263e-01
      -2.7344796771290580e-01 9.4481434630282968e-02
      -1.3039101807718041e-02 -5.2343457610175788e-02
      -3.9228146347374267e-02 1.9290102605068027e-02
      7.5218978077549556e-02 -1.9882760086135736e-03
      8.4259075954992727e-02 -3.8541016953384445e-02
      1.9922695502768320e-01 3.0339852956433117e-01
      2.9503427210671163e-01 2.3957555572354230e-01
      1.8107370669855063e-01 -4.7127343123374542e-03
      -1.6140231397451946e-01 1.5412365328155656e-01
      8.7551397415247020e-02 -1.8691301951484823e-01
      4.6461425014152472e-02 -3.7109402462895752e-01
      -1.1513548483446429e-02 -1.8462933562426440e-01
      1.2497120414274784e-01 -1.8011732678260020e-01
      -4.9914074630674909e-01 -8.5179642368324190e-02
      -1.0779392544701466e-01 2.6142428113934132e-02
      -3.0835614002521005e-02 2.5116724736633733e-01
      -1.0863216765141492e-02 3.7845620879809860e-02
      -1.7368596773273748e-01 1.4129074050229440e-01
      7.3275663324934612e-02 1.6765118904272777e-01
      -3.2140407927505188e-01 -3.2760840653390154e-02
      -2.7620326628160205e-02 2.1728298134080462e-01
      7.9715206300419075e-02 9.2378464067489133e-02
      -1.7175293622846996e-01 8.5354798778765728e-02
      6.2355144319112384e-02 -5.0379177341107861e-01
      -3.8524654690167318e-02 3.2997256394204599e-01
      1.8846289588532676e-02 1.9341451594604103e-01
      9.6748406689135785e-02 -8.0039670230824644e-02
      -1.5581886144189530e-01 -1.5512346218486020e-01
      1.5092570784314177e-01 -1.8791003569589176e-01
      -1.9686000533375600e-01 1.7622931987376758e-01
      3.3471422206194194e-02 -1.0265673054699120e-01
      2.1312222364038250e-01 7.5744869059006029e-02
      -7.7607450426507088e-02 -1.3194119328755586e-02
      -8.2808078975672245e-02 -1.5769082281883370e-01
      -5.4284717269725911e-02 1.2324428728857163e-01
      8.6905706666626628e-02 -4.6782316715389613e-02
      -1.7497695106736999e-01 -4.6175338845863939e-01
      -1.5433789300996981e-01 -4.1532524738037112e-02
      1.0240925041804101e-01 -3.4084032772824779e-01
      3.9078003118034076e-02 3.7885441960970462e-01
      1.1010861796898733e-01 -3.5980057722581693e-01
      1.7758052607127170e-01 1.2607669370208655e-01
      2.2878635960550570e-01 -4.3309250277999362e-03
      -2.1510077937512379e-01 2.5400778326273421e-01
      1.7104734770456803e-01 -2.8380074644922933e-02
      2.9750115721993386e-01 -5.4494788049955989e-01
      5.0084423900163974e-02 -4.8807762005855015e-02
      -9.8589444708821597e-02 1.0681615224099961e-03
      -3.0175119599906288e-02 7.3271754322877677e-02
      2.0276586442008965e-01 1.4688662132424884e-01
      3.2575988652795856e-01 1.4567301519619322e-01
      -1.2022498698002314e-01 1.3333550994797819e-01
      -9.1849777008678163e-02 1.4853932672333489e-01
      1.4704071220012779e-01 6.0833806073615729e-02
      1.2330727097185726e-01 2.6411810144649311e-02
      -1.8083732486641729e-01 -3.5589920851344359e-01
      -3.1105744270359675e-01 -7.5206217841240902e-02
      -2.4744313938104831e-01 9.1878972866962325e-02
      2.2211779459094624e-02 5.9145638309263039e-02
      -1.8889074308343279e-01 -6.1900072264103176e-03
      -1.7999297991722843e-01 2.9454581841985017e-01
      4.0538816848307124e-02 1.3069359898932326e-01
      1.2991485933083222e-01 2.0947195464690738e-01
      1.0498980083675813e-01 -5.6936970340536422e-02
      -5.2592268022789747e-02 -7.2927919520201501e-02
      1.0961334372422012e-01 -1.2590471805231410e-01
      -2.2740271762266384e-01 -1.0375144453674054e-02
      -2.0747696768769031e-01 -1.0080469629627954e-02
      2.3268432419937850e-02 9.1080716827219819e-03
      -2.6768990391276903e-01 -9.2235378298793039e-02
      -2.6336164951528052e-01 2.6496870795319729e-04
      4.0194108037959801e-02 -6.1316941775225427e-03
      2.5884111513362240e-01 -6.6735161665279165e-03
      -1.0226214343395260e-01 3.0450305188204720e-02
      -4.0255787533720763e-02 -1.3290680922820836e-01
      1.4147069411299448e-01 -6.4822391342889057e-02
      2.3369691895649605e-03 1.9765023112028504e-01
      -1.5835206553062220e-01 -2.0158496007930252e-01
      6.4633722108622593e-03 -1.9411616315372229e-01
      -2.6125424605860059e-01 -5.3526228336782160e-02
      -1.1786329322870182e-01 -1.0716608224328501e-01
      5.7118317674648093e-03 -1.3116576499937824e-01
      1.3827275216713433e-01 -1.2879210955029832e-01
      -3.7080150709878017e-02 1.2660035897977116e-02
      -2.5892701944182511e-01 -2.0424549991250342e-02
      5.0530014727999386e-03 -3.7191855752115803e-02
      2.8032158165453774e-02 6.2039857621650707e-02
      -4.5902614374142933e-02 -3.3128741140640135e-02
      1.1362933018433818e-01 -1.5657365964312647e-01
      -8.8465270554356448e-02 3.6591892140538332e-02
      -5.4593024592420429e-03 -1.4531757418137006e-01
      -5.8734317621118047e-02 -5.0533672452753177e-02
      2.0266339564071884e-02 -1.5575478364967871e-01
      1.2082514035148124e-01 -1.5972749543084211e-01
      -4.9481543168300800e-02 1.2911820518643821e-01
      3.3986632449584324e-02 -6.6205595600338965e-02
      -7.7590026502234136e-02 6.0578689119906290e-03
      1.2802484155710744e-01 1.1159022871842597e-01
      1.7650844133835278e-01 -1.0567899695423502e-01
      -4.3536765356001553e-02 9.7258415594765238e-02
      1.1744904021710147e-01 -3.4446984844753281e-02
      1.1433393588931387e-01 1.7519273867195640e-02
      -1.5292711814073551e-01 2.0928947694430922e-02
      5.5013500326612702e-02 -1.4315953899082531e-01
      8.6212423885086015e-02 2.0979200046888305e-01
      -4.0574641546160438e-02 -2.3305015157008160e-01
      -3.5577911077894292e-02 1.7876463132865106e-01
      2.1081408817472785e-01 -1.5381647308339577e-01
      5.9044491736070230e-02 -1.6452505665962303e-01
      5.8696413589357276e-03 1.4997017662757306e-01
      2.1666645867643008e-01 5.9641903630029393e-02
      2.1631652303912055e-01 3.9255821514758767e-02
      -1.1107715058986010e-01 1.5087494621595018e-01
      -1.4818663800792527e-03 5.1869301797935377e-02
      -8.9374658639610471e-02 6.0054615371783950e-02
      -1.3788323405936403e-01 -2.7507940947928450e-01
      -8.4399455023866976e-02 8.4750726861426068e-02
      -7.0444224737117492e-02 1.3666000678994209e-02
      -6.5951197477984030e-02 4.4178346901618107e-02
      -7.9628437418680729e-03 3.7686695738056768e-02
      2.2046146779181836e-01 -4.8805137021643553e-02
      1.1341689583481765e-01 1.3194699371317276e-01
      -1.2631250970981692e-01 1.0904339187622857e-01
      -1.5064718081663594e-01 1.2204179930935198e-02
      -1.8740596342479984e-01 1.0867282958355685e-02
      -2.4600223434737595e-01 -1.0399628198885302e-01
      -2.9964241675297870e-01 -8.1905131936577447e-02
      -1.4054212618909184e-01 6.3750713756897864e-02
      6.4784356248897376e-02 -7.3679729421317680e-03
      -4.9206452148536951e-02 8.2452310061094561e-02
      3.6405060781930641e-02 -1.2195913758862394e-01
      1.5100971275529446e-01 2.2203623870404479e-01
      -8.0429424795826054e-03 9.5720992138808025e-02
      -9.8990970985388407e-02 -6.6552404865032569e-02
      -1.1294508002070464e-01 9.9303071645977264e-02
      5.8382295039882189e-02 -2.4258774415699069e-01
      8.4503410392555156e-01 4.7368655216741284e-01
      3.5385401786197215e-02 -2.8247253890419110e-02
      -3.7437217975399950e-01 6.5112686998187141e-01
      -3.0305863553229245e-01 6.9829412153616832e-01
      -2.8365669080431150e-01 -6.0545563893717069e-01
      -1.5731466083687759e-01 -2.7390157540632735e-02
      -6.4196078384219613e-01 1.5101267622528661e-01
      3.9646004565662302e-01 -4.3727890395104180e-01
      3.2711229086328591e-01 -3.0967164493579385e-01
      7.6254241022504610e-01 -1.3792190585202524e-01</_>
    <_>
      1.3766711091620421e-01 -4.9969544898114421e-01
      -6.2140965733370197e-02 5.7912158398934555e-01
      -3.4227146562120192e-01 -2.5048989712078873e-01
      -3.2368290453040910e-01 1.0470814363802332e-01
      -5.5778119264764892e-01 2.3250618830226946e-01
      7.3140430758968544e-01 6.7098931512394266e-01
      -7.2793556482731547e-01 -5.7303342303771942e-01
      -5.2629174625751862e-01 -3.9256442836481953e-01
      -4.9277165897199665e-01 -1.3481179278827646e-01
      -7.4723322215585064e-01 5.0051724969373990e-01
      5.8393048794281066e-01 3.9384087636527809e-01
      -2.4445924217621703e-01 -5.3365693741016929e-01
      3.3305270633133666e-01 5.8951338084252702e-01
      -5.7304879543225995e-02 -5.1344220769169291e-01
      -3.2559767544269780e-01 -5.9407021197454013e-01
      -5.3544699692055020e-01 -5.8876651362901034e-01
      -5.0132632282995249e-01 -5.0917965649469377e-01
      3.5422561151035870e-01 3.0935743104985158e-01
      -1.7761580096308040e-02 2.7175078919752316e-01
      1.1157212519408322e+00 -1.0106235701005380e-01
      2.7598609508206046e-01 -8.9639940850612193e-02
      -8.9635443483057395e-02 -7.4336924873841470e-01
      4.0933592161882981e-01 6.1020738006260333e-01
      -1.4627086302874565e-02 -6.5347978412652205e-02
      8.0335501483921934e-01 -3.7965362994995860e-01
      -4.5075109933062729e-01 9.9753994803013196e-02
      -6.3685249413472089e-01 -1.2495409546069768e-01
      -2.6066770403068140e-01 -7.5304510480936460e-01
      -3.6722516279859835e-01 -1.6729461719293906e-01
      5.5690021279546253e-01 4.6113687587834318e-01
      -6.7275823548687752e-01 -1.3997257774798622e-01
      3.1938051308189425e-01 -1.7709548837997396e-01
      6.8838407654416267e-01 1.9906670981052851e-01
      1.5255462627445932e-01 -3.5094377208747896e-01
      -3.9079165309787028e-02 4.6074663066768240e-01
      -9.7996947865278627e-02 -6.0358497122611454e-01
      3.5331156752097320e-01 -6.9412259642154062e-01
      -5.0301216385752989e-01 -6.9422214462876808e-01
      4.8003543010826993e-01 -3.1384012542147582e-01
      4.8939740364552314e-01 -1.2700954996467587e-01
      -1.2896001492954243e-01 -1.6653624835308053e-01
      2.9250526713617570e-01 1.0665986638712890e-01
      3.3164987908448063e-01 2.4385336278836001e-01
      -3.2746980007248949e-01 4.5815411298064662e-01
      -5.0337411502168650e-01 5.3381693014823606e-01
      -1.4296614621651606e-02 5.7133029174698968e-01
      -5.5403416644036629e-01 6.3987833002234351e-01
      -1.6118174428569751e-01 3.5224318717732811e-01
      6.3424977351304701e-01 1.5472271969596910e-01
      5.2725368311644272e-01 -8.1448786579611743e-01
      -4.2750269455873380e-01 -6.2828737645014321e-01
      9.5121979066437087e-02 8.5273630201756367e-01
      3.5116264873958114e-01 5.9806631166548330e-01
      8.7264810584397390e-01 -7.1908437608669884e-01
      -1.9339101077831500e-01 -2.0299416701245498e-01
      -5.0678010916547478e-01 4.1284657370754735e-01
      6.2755515071351090e-02 -1.0630121664894451e-01
      -3.7463523211425577e-02 -4.5540782000512603e-01
      4.7199039739444026e-01 -1.5686787628218504e-01
      5.3873019791701549e-01 -4.1734454227781242e-02
      -2.2875431851595840e-01 3.6885845085934216e-01
      3.9356998565017270e-01 8.0131471840981433e-02
      5.5889568705725612e-01 -6.4841383824661961e-04
      4.3253537630290090e-01 -7.9167894601637201e-01
      -1.0177357904361217e-01 5.9043997237048218e-01
      -6.4166953030728258e-01 9.0544217133253641e-02
      -7.5959587847385074e-02 5.7904580097483249e-01
      -5.4529387455545597e-01 3.6895076386481418e-01
      1.9985329068009258e-01 2.0036960271716744e-01
      -4.2751070792734586e-01 -5.6109724650541604e-01
      5.8029847356322473e-01 1.4265673914630000e-01
      -1.1745022106809706e-01 -5.0206505885240260e-01
      -7.6796403497405952e-01 4.3260125954130590e-02
      -2.1631003779220706e-01 2.9976137635838374e-01
      6.8169980090339777e-01 -7.7583812395736540e-01
      -3.8763316852799073e-01 1.6008809044169250e-02
      5.5689366866562362e-01 -4.2074205113422769e-01
      4.0962033247997953e-01 4.8316793622825600e-02
      5.5642511392106575e-01 6.9759846888113586e-01
      -3.3614564856923917e-01 -2.4836860564759813e-01
      -4.4561843986626593e-01 -2.1906640989695300e-01
      4.3222908311457953e-01 6.9762936394487485e-01
      1.1354804464816702e-01 4.5937577666688056e-01
      -7.1398227833389571e-01 -5.0482835045291240e-02
      -2.1960501528623697e-01 -7.8486209114643213e-01
      3.2063379027993638e-01 1.4127222534084416e-01
      1.8088574899767168e-01 5.6683520255420106e-01
      2.0671132364953212e-01 4.0109575923992097e-01
      -8.8883445066034550e-01 1.7798567514115593e-01
      8.1772608031144611e-02 2.3374068616766372e-01
      -5.5203837765433172e-01 6.6772680678142760e-01
      4.2783503460778571e-01 5.1429478335959444e-01
      -3.4953299083076800e-01 -2.0980255884243654e-01
      -6.7461648027202958e-01 -4.6662097681654713e-01
      -3.7029289350182643e-01 -7.5457192243887261e-01
      9.2386406209415251e-01 -7.9721071661838150e-01
      -4.2754399356854511e-01 8.4615038927681185e-01
      4.7202521819087573e-02 -4.6882725884459564e-01
      5.3413653452059617e-01 6.7815224235535876e-01
      2.9727552541819630e-01 -3.4865082312712647e-01
      -1.5082254399850390e+00 -1.4156500088511261e+00
      -1.2752287806077802e+00 -1.4339017856908740e+00
      -1.6998163500081023e-01 -4.6839599314117297e-01
      -5.7369037155905223e-01 -1.1645835349557987e+00
      -1.2023831091332922e+00 -1.2771374509067648e+00</_></weights></my_nn>
</opencv_storage>
